{"contexts":["default","chitchat","user","person","story","book","call","calendar","calendarAdd","wordSoccer","ticTacToe","RPS","guessToTen","rndNum","quote","search","news"],"contextIndex":0,"intents":["indefinite","about","preferences","greet","mood","weather","residence","sugestSearch","interjection","approval","call","calendar","calendarAdd","wordSoccer","ticTacToe","RPS","guessToTen","rndNum","quote","rndStory","battery","time","search","news","TTS","rndQuestion"],"bow":["Hi","who","are","you","hihellohowdyhow","nice","to","meet","hey","what","up","I","am","7","year","oldhey","read","a","new","book","yesterday","where","do","live","andriy","and","how","feel","right","now","like","Do","is","your","favourit","call","me","pleas","could","have","in","calendar","for","on","anyth","today","Is","there","tomorrow","make","note","an","appoint","add","en","event","callendar","let","s","play","word","soccer","tic","tac","toe","rock","paper","scissor","want","guess","number","pick","random","quot","give","from","some","stori","someth","worth","of","rememb","much","batteri","left","mani","percent","the","time","clock","outloud","can","say","pronounc","english","tim","search","train","internet","news","was","happen","world","got","xxxmanpancarboatsimpeonewordsampl","textarachnophobialet","els","stop","OK","quit","don","t","anymor","ř"],"context":{},"contextNetwork":{"biases":[[0.06375387,0.475815743,0.28658694,-0.09667507,0.367321372,0.00452419557,0.06540007,-0.03968947,0.471233666,-0.0227757357,0.425463766,0.2051971,-0.1742738,0.3683734,0.245158792,0.3815616,0.205797836,0.531299,0.1159734,0.408859074,0.08117535,0.211294562,0.275638729,0.00533006433,0.0689954758,1.02471852,0.516516745,0.104906261,0.10297709,-0.00674243271,-0.007560076,0.213535711],[0.118222311,0.0137828067,-0.0500942878,-0.124740034,0.1281911,0.223359033,0.05329701,0.0112059535,0.158860222,0.582993269,-0.1139943,-0.013831214,0.152945355,0.111444749,0.00536670955,0.05393614,0.241338089,0.527326643,0.474547178,0.238713846,0.009885998,0.07986078,0.05670275,0.125409693,0.05738564,-0.00471952138,0.4422432,0.28301695,-0.037164446,0.185146213,0.0196539834,0.09223136],[0.171641454,-0.3297154,-0.31483373,-0.401766539,-0.4238917,-0.333285421,-0.302063853,-0.340663761,-0.140558347,-0.21969004,-0.450386882,-0.487969667,-0.2502989,-0.430298537,-0.389324576,-0.538758337,-0.05505892]],"weights":[[[-0.187633738,-0.07525987,0.19193989,-0.055808682,-0.0499581657,0.190335318,-0.0274979454,0.2710546,-0.112599187,0.05862192,0.142419964,0.036297746,0.139345646,0.141996533,0.117612779,0.0348099731,-0.172852457,-0.195200384,0.0388732664,-0.36307475,0.206414163,0.114898548,0.106247686,-0.124657512,0.124788933,0.337917984,0.0303625464,-0.03394535,0.100240774,-0.3352094,0.191563025,0.436548024,-0.03646466,0.10358496,-0.105006494,-0.201582953,0.0005492192,-0.18784067,0.09153141,0.113209158,-0.001700301,0.0821086541,-0.07463509,0.377420425,0.0324790925,0.0237912759,-0.2736912,0.0539579652,-0.271664381,-0.219921246,0.1843084,-0.08112348,-0.115584426,-0.18706806,-0.0208679363,-0.05340266,0.2589762,0.226319224,0.123827882,-0.0214043632,-0.101795495,0.3005377,-0.06445544,0.241948828,0.04302769,0.164053127,-0.11775662,0.08864547,0.105273895,0.0951847062,-0.2864322,0.0407591946,0.04805646,-0.05326618,-0.0424066931,0.0684296861,0.241134,0.006088202,-0.14416641,0.0169981923,-0.205960974,-0.182148278,0.0462713838,-0.08352288,0.181778789,0.008132361,0.0573172942,0.217954621,0.169564456,-0.231573552,0.07320212,-0.195246667,-0.194100827,-0.08489253,0.121169493,0.346405149,-0.201490253,-0.06841203,0.161677748,0.06524812,0.485048681,0.217872962,-0.0365927927,-0.09576628,0.0428651534,-0.1819841,-0.250228256,-0.0474780574,0.34118557,-0.283876479,-0.296954185,-0.0289672185,-0.0265346728,0.3154315,-0.23863019,-0.0839837343,-0.09050239,0.159539133,-0.102868907,-0.132463977,-0.35378772,-0.0216424838,-0.122140743,0.00263510831,-0.0593760051,0.0919534639,0.056618344,-0.123558275,0.07210154,0.1364679,-0.136083543],[0.319156557,0.08136898,0.005106537,0.419965357,-0.126447186,-0.199727118,-0.158033133,-0.07333623,0.083611846,-0.05923212,0.130565271,-0.0214527585,0.128400952,0.0997138,0.304911852,-0.06119402,0.0113458242,-0.229736462,-0.08168588,0.03600497,-0.0061127,0.116005763,0.06797442,0.239293888,-0.11673668,0.004260935,-0.156321555,-0.04876156,0.22804372,-0.04248741,0.08608449,0.00444388669,-0.0350477,-0.09363552,0.2386925,-0.159877047,-0.356100976,-0.03946705,0.4990285,0.0223527867,-0.03668862,-0.1432273,0.04340527,-0.240933433,0.08776297,-0.179279312,-0.08051827,-0.194159344,0.1257781,0.05983528,-0.02732905,-0.0748511851,-0.09576692,0.049224183,-0.008421635,0.3674827,-0.291880369,0.41411072,0.0487907156,0.16873917,0.322712421,0.0269331038,0.08252373,0.00682650553,0.183456123,0.38824302,0.22491391,0.274342477,0.106034383,-0.0336084,0.03563582,-0.0305192824,0.121849552,-0.07596648,0.3339843,-0.312922,-0.392860949,-0.212911427,0.01470459,-0.163008019,-0.268588752,-0.26907894,0.07544952,-0.0389072374,0.10208448,-0.04963256,0.05493099,-0.122316867,-0.151929632,-0.201245949,-0.01984875,-0.191243768,-0.23909916,-0.0004790002,-0.107708685,0.4877275,-0.06949489,-0.120836832,-0.0237972327,-0.09527816,0.0717721656,0.153810963,-0.050245706,0.365432262,0.270034671,-0.303741843,-0.06877526,-0.07204046,0.0362642258,-0.154761821,-0.00413086265,-0.0145134693,0.04587601,0.462726474,-0.3413573,0.316505224,-0.36906594,-0.148054034,-0.158848777,-0.0235646125,0.149134576,0.1725798,-0.2008845,0.235984355,0.222575784,-0.0444765128,-0.0239445828,0.221875921,-0.220242217,-0.1508889,0.2610485],[0.3501701,-0.178428188,0.156304583,-0.07975697,-0.300314069,0.0166717488,-0.0341420136,0.202309385,-0.184388369,-0.120503493,0.0181773026,-0.141368419,-0.216764569,-0.145455,-0.0424885638,-0.230865985,-0.0157406572,-0.387313247,0.319789231,-0.318587035,0.158347875,-0.0511993431,0.09765618,0.198896214,-0.009210175,-0.2448507,-0.131891266,-0.252978444,-0.154274642,0.359294474,0.298622,0.09583161,-0.258591145,-0.0255425069,0.0493770577,0.241970628,0.118317828,-0.100497209,-0.15210937,-0.0583444238,-0.0237174276,0.2412624,0.102214649,-0.09741428,-0.19338426,-0.268874258,0.0109111518,-0.0129815843,0.03412939,0.009486475,-0.06750667,0.06950407,0.0808302239,-0.0326268859,-0.362535477,0.383784264,-0.0271801185,-0.0473620966,0.0120567251,-0.114580683,-0.147353888,-0.05474856,-0.138584137,-0.1390782,0.3158138,-0.122670114,-0.0296452772,0.117328241,0.11752528,0.08151946,-0.2846993,0.189516768,-0.186787874,0.06394789,-0.0363674164,-0.171871617,0.225959957,-0.292651147,0.0591966249,0.3628878,0.396541357,0.320581257,0.0377251729,0.147391677,0.08000618,0.143616661,0.143158942,0.30196026,-0.0261978414,-0.0927623361,0.2724899,-0.312357843,-0.0210667383,-0.0960985646,-0.0210145768,-0.156368688,0.0222971812,0.352391839,-0.357212573,0.00727298157,0.119059488,-0.02470445,-0.0738861337,0.109288543,0.0370639861,0.0300404839,0.1331163,0.0805229,0.03895109,-0.10881605,-0.08868385,-0.08028631,0.113652,0.4218128,0.00408145459,-0.06833329,0.0410427079,-0.0610009134,0.303517759,-0.0816960558,0.190826654,-0.0100251762,-0.301106155,0.0115771135,0.2992304,0.323586136,-0.1209219,-0.07577968,-0.164293528,-0.211750373,-0.13351199],[-0.14244765,-0.0403700545,0.253451437,0.04157715,0.283301681,0.123842962,-0.0596549,-0.154740661,-0.164518982,0.07972364,0.043087583,0.07388178,-0.273373485,-0.197484612,-0.09401098,0.106012657,-0.340816528,-0.10712605,0.04993666,0.2222935,0.169084683,0.0872351155,-0.04888565,0.158701584,-0.08242779,0.05543319,0.14644824,-0.06047354,0.314798564,-0.0502534434,0.100430407,-0.360310882,0.129282787,-0.09540433,0.137274653,-0.22300294,-0.106724925,0.126914039,-0.131588385,0.0182389282,-0.3030311,-0.127148822,-0.06274127,0.07963767,-0.313159853,-0.202801839,-0.1334985,-0.2975079,-0.0423271656,0.160010979,0.140444651,0.1818209,-0.059907794,0.06562399,-0.178123891,0.0246174056,-0.0588309877,-0.119225383,-0.171933115,-0.076726526,0.053409677,0.244768366,-0.08806827,-0.0389934219,0.183268517,-0.0926455,0.350684434,0.279991,-0.226903021,-0.2849725,0.0929798,-0.0303610247,-0.120984018,-0.191217184,-0.04414968,-0.2825388,0.0996386856,0.11906749,0.00203914172,0.0473924,-0.0180952214,-0.008773507,-0.206940785,0.105865456,-0.0263342671,-0.0149377482,0.136427313,-0.0712892339,-0.2461609,0.09598838,-0.2415182,-0.0945545,-0.0227333456,0.03169798,-0.09066189,-0.0138265891,-0.212705657,0.197378755,0.009406722,0.216829836,-0.013867218,0.216509163,-0.195993483,-0.150898546,0.009752578,-0.0209790934,-0.157313347,0.112276807,-0.149629444,0.222371221,-0.180596858,0.01732191,-0.116606481,0.05443187,0.0313753225,0.180825129,-0.0151781347,0.067731984,0.02517169,-0.277393758,-0.100584045,0.174598649,0.0966929644,0.0937253,-0.0148128653,-0.121631056,-0.06617472,-0.181264162,-0.14495565,-0.0714170039,-0.08208048],[-0.0791551545,-0.06472531,0.2640333,-0.136379316,-0.03714042,-0.0216023,0.05793607,-0.187490553,-0.1418578,-0.0718658045,0.08080501,0.163778856,0.20771803,-0.200099856,-0.12824823,-0.1949869,-0.144776329,0.2287513,0.0522276,0.0157294124,-0.0338287838,0.155651242,0.161860466,-0.2254694,0.3193822,0.1138965,-0.174105585,0.128659174,0.282127142,0.0377966836,-0.00187270076,0.206188753,0.09282171,-0.08683149,-0.08199731,-0.288322479,0.0573858842,-0.112606108,0.257938385,0.315856159,0.231084615,0.0149119673,-0.244387612,0.07587463,0.09501605,-0.0151845934,-0.0312591344,0.102318443,-0.09366873,0.0232886411,0.19443728,-0.0744455457,-0.045348458,0.116515175,0.0597913451,0.124356747,0.06869302,-0.06753619,-0.0878768861,0.09637674,0.163541,-0.105447918,0.165443614,0.0201728176,0.04666769,-0.04726634,0.144180372,0.188196644,0.105283193,-0.227777526,-0.08753699,-0.227140471,-0.210384771,-0.187969834,0.0331620127,-0.14865604,-0.18120119,-0.00292144273,-0.1375858,0.23050727,0.132206827,0.12811394,0.004941143,-0.255004257,-0.2663578,0.009750238,-0.20048742,-0.151958734,0.2599713,0.320654571,0.06318815,0.161326557,-0.0104956888,0.00773485331,0.3652613,0.25586316,-0.02401566,0.07604547,-0.159431711,0.09330381,0.112041079,0.188602224,-0.1594949,-0.113239482,-0.3759591,-0.141013756,0.04562969,-0.0117718922,-0.220944017,0.478233069,0.260830581,-0.06719768,0.136756,-0.04996287,-0.06544898,0.349893719,-0.0476675443,0.07450139,-0.141049922,0.273210645,-0.293236077,-0.0974073559,0.060863886,0.19079043,0.306907922,0.204346672,0.179847941,0.029690247,0.133436054,0.200716585,0.470358253],[0.0661680549,0.009814502,0.0221642684,-0.143776014,0.278540254,0.219685584,-0.010594381,0.197338268,-0.285254031,-0.07522787,0.195814952,0.34022212,0.204375044,0.3060591,-0.101820856,0.08747452,0.243957832,-0.0652214661,-0.190699935,-0.331276357,0.232390076,-0.03369776,-0.0978828743,-0.00421287445,-0.124505356,-0.0219097119,0.102177769,-0.136080921,0.07512518,-0.12483187,-0.120376542,-0.119601473,0.08591606,0.06640882,-0.0957813337,-0.0584943928,-0.09725268,-0.19459866,-0.155802429,-0.115986355,0.230953291,-0.133509547,0.0715613738,0.0348514169,-0.204771176,0.00064988446,-0.02722944,0.0981359258,-0.144977629,-0.192660481,0.0441940352,0.16521959,4.15725153E-05,0.294741362,-0.181950659,-0.105594382,0.009351316,0.07193125,-0.165719554,0.1318697,0.0243754275,0.123252019,-0.0653433,0.08402053,0.166314021,-0.000287479925,0.0531285629,0.095601,-0.223397285,-0.06898711,0.17939274,0.07272698,-0.277871281,-0.001539485,-0.0334821455,0.101939894,-0.1080812,0.17827487,-0.132401258,-0.26073736,0.114981532,0.2153429,-0.135702386,-0.171417192,-0.024730036,-0.0395826362,-0.121789508,0.00687754,-0.059763968,0.323892832,-0.128967926,-0.07070423,0.240551278,-0.19741419,-0.0474126078,0.199518323,0.264172882,0.08201291,0.0360476673,-0.124499448,0.342373818,-0.137926042,0.16570805,0.00367593532,0.216273949,-0.07902722,0.166466191,0.101175748,0.101353422,-0.0423706621,0.164598659,-0.06978225,-0.188668,0.162689462,0.0905671,0.242367551,-0.17490685,-0.115958706,-0.225853235,0.122002676,-0.07338705,0.026938485,0.18225275,0.112148687,0.181476846,0.09574936,-0.388783157,0.0391713232,0.194006965,0.05025768,0.0172776934],[0.12507315,0.03586102,0.09274929,0.318456978,-0.06909056,-0.0930011,-0.05939132,0.120950364,-0.0415095575,-0.383422822,0.121516392,-0.2902685,0.0145456353,0.06023361,-0.166843116,0.108199686,-0.124413483,-0.132300034,0.0117304111,-0.134469166,0.08004315,0.1661463,-0.2661791,0.0502037555,-0.136705026,-0.0577193573,0.0444185324,-0.0302109513,-0.09288732,-0.3000604,-0.0154866222,-0.0026643842,-0.159788057,0.0199589785,0.170695141,0.002699258,-0.18732065,-0.00252213422,0.110473,-0.211472616,0.113162108,0.22211045,0.1120096,-0.237710625,-0.171013847,-0.0168365464,0.194640592,-0.021247115,0.162006378,-0.340011954,0.156554356,-0.187138215,0.210362911,-0.3147031,-0.06382523,-0.0812699,-0.26814276,-0.008692314,0.07063709,0.0378250554,0.042152103,-0.164938733,-0.2307245,-0.102282189,-0.0893448144,-0.104343548,-0.034489952,-0.219852582,0.09932173,-0.0502805375,0.01417445,0.0184312537,-0.09925935,-0.226621136,0.08002827,0.0526372828,0.383980334,0.355221,0.5173001,0.3969555,0.23311165,0.430034727,-0.06937488,-0.145660058,-0.05126474,0.198299989,-0.376544237,-0.09765372,0.0650129244,0.0284489039,-0.0108104823,0.07595183,0.0293823313,-0.18833366,0.08164248,-0.3892043,-0.178577974,0.0226607583,0.202133551,-0.02471404,0.0793492943,0.300756037,-0.331986636,-0.0459297076,0.0139005315,-0.24196896,-0.155868486,0.2187699,-0.292649746,-0.000696524,-0.125615433,-0.0899698362,0.236733124,-0.0249608587,-0.0669802353,-0.182890818,0.359967,0.110473655,0.153577313,-0.0246990956,-0.0755734444,-0.25907284,-0.308768,0.09723163,-0.0164360031,0.2924868,-0.0151887387,0.09491203,-0.0262360331,0.118027255,-0.08760308],[-0.2169833,-0.0514448546,-0.185051888,0.223553151,0.00242215442,-0.112468176,0.00698769744,-0.253057778,0.008811608,-0.15005748,0.121868864,-0.0509806275,-0.161640868,-0.239614651,-0.2486666,-0.08342059,-0.08167552,-0.158175617,0.004574367,-0.0619128719,-0.0533679,0.0801274255,-0.1313028,0.07011661,-0.08142557,0.237842023,0.06455661,-0.0130767254,-0.236371174,0.0220668633,-0.159627646,-0.12042848,0.14224726,-0.294379,-0.1686358,-0.06664207,0.09376739,-8.96821148E-05,-0.253393561,0.0988945,0.08398255,-0.09382956,-0.0546467379,0.008788131,-0.065359734,0.198457614,0.112543307,-0.0135676684,-0.03810187,-0.225350752,-0.0527219474,0.0206100587,-0.07102088,-0.0272516143,0.133751154,-0.265013546,0.123979919,0.1509937,0.35150823,0.28274554,0.191715285,0.0665945,0.25530225,0.0111113712,-0.0789041743,-0.0643854961,-0.08967335,-0.03080873,-0.1807173,-0.0227623414,-0.042225834,0.0418673754,0.241960272,0.102766238,0.0806302056,0.248554185,-0.1787269,-0.07749118,0.175552428,-0.007413636,-0.09135378,0.199193269,-0.285598427,-0.30010286,0.1202588,-0.030244451,-0.442179143,0.06701621,0.305443048,-0.09227232,0.108232193,0.111281291,0.202004045,0.233078718,-0.2974813,0.05105461,0.0122351889,-0.10084708,-0.00914995652,-0.107223824,-0.0188033581,-0.0307503585,-0.0597254522,0.0426405556,0.127083257,-0.29596284,-0.220127553,0.02461381,-0.104893863,0.04811414,0.143988222,-0.205610931,-0.07000423,0.0137862936,-0.1085666,-0.256905437,-0.0210031457,0.141462848,-0.2333318,-0.200439781,-0.04672486,0.178965986,-0.171761155,0.08849773,0.259183377,-0.09779247,-0.05121006,-0.227781862,0.168609455,0.0125247994,0.107713729],[0.38210237,0.010065984,0.252477854,0.0592343956,0.0410922356,0.09939655,0.2566656,0.0240818262,0.276934266,-0.008141902,-0.09241246,-0.01082091,-0.131595671,0.359550118,0.01812324,0.166556984,0.0400395729,-0.190179363,-0.143409848,0.0252342056,-0.03842609,-0.1568081,-0.0460872762,0.07054754,0.0293046311,0.122466512,0.236349463,-0.07337252,-0.0592713356,-0.3586615,-0.07484547,-0.1353847,-0.100874729,-0.0368809961,0.0224871654,-0.3582524,0.109064281,0.231351256,0.18074964,0.132876918,0.201175138,-0.4357694,-0.2290488,-0.059091758,-0.338115662,0.08823073,-0.1956857,0.116862126,0.108705118,0.112418063,0.0900354,-0.06564714,-0.215856224,0.0431707054,-0.07010503,-0.246485248,-0.0973709449,0.0442403778,0.08035147,-0.0258167442,-0.08844044,0.0843214244,0.111695543,-0.05069927,-0.0547025241,0.08223495,-0.0134651493,0.0344389156,-0.113034867,0.244660079,-0.0191474762,-0.0411663465,0.3540152,0.229884073,-0.0582068861,-0.160440147,0.192680061,-0.0166573282,-0.07774255,0.444769055,0.4725828,0.212782577,-0.165663913,0.121359311,-0.0045501627,-0.108060271,0.130357683,-0.102830105,0.148517013,0.167260543,0.07121799,-0.04520524,-0.278243154,-0.0184635911,-0.0547508672,0.194164678,-0.321287572,-0.07991604,-0.178980067,-0.0911557,-0.0430836976,0.07558222,-0.01934423,-0.0189896673,-0.180150792,-0.0727947056,0.308955729,0.0162840858,0.06651125,0.184902012,0.0430115,0.244363621,-0.186013654,-0.06609694,-0.263052821,-0.1860986,-0.28582558,-0.1837973,-0.172953114,-0.08906305,-0.152608961,-0.00420677429,0.0308187567,0.120331958,-0.0248601623,-0.0178304985,-0.218009531,-0.100780152,-0.1520541,0.0357559919,0.04359782],[-0.2582911,-0.0260494277,-0.1259072,-0.158710375,-0.02542924,0.07229555,-0.156302467,0.08797189,-0.05627979,-0.0496901944,0.125464186,-0.009611495,-0.293789148,0.121423341,0.066447936,-0.2921764,-0.193362936,0.193673417,-0.028478995,-0.09283574,0.172536626,-0.0972100049,-0.06684217,-0.288069129,0.002954513,-0.0588566177,0.241751626,0.114065312,-0.0836569443,0.191063121,-0.09927859,0.311842471,0.207146913,0.0719674,-0.130389556,0.07148491,-0.182647362,-0.08075318,-0.2545064,-0.0524231866,-0.0531280525,0.166176379,-0.375190884,0.04923477,0.0327638946,0.155350447,-0.161716118,0.188444674,-0.0240927562,0.3314513,0.0249811243,0.230240837,-0.33144635,-0.00455920957,0.130557328,0.0766611844,-0.0739988461,-0.07270253,0.281079054,-0.04145174,0.0314224847,0.04316654,0.26260066,-0.133342415,0.0371136665,-0.116589665,0.101365052,-0.00521993265,0.00813864451,-0.406102657,-0.0239565056,0.08851737,-0.167805359,0.300758,0.0142200831,0.1565521,-0.106308565,0.343271226,-0.171132863,0.06380173,0.0884879157,-0.1282024,0.02432438,0.119323373,0.108307056,0.104314588,-0.0597833,0.00584121374,0.0163967311,-0.199578434,-0.0255958028,0.0934559554,-0.169086009,-0.009819571,0.117620356,-0.110626094,0.233265489,0.110520273,-0.219170421,0.1713442,0.0547170341,0.188558549,-0.3719448,0.0102437194,0.0401531272,-0.0479931757,-0.291428,0.157512382,0.101121329,-0.273536265,0.2628042,-0.169299036,-0.111001655,0.0684473738,0.0295583941,-0.0357702821,-0.0518131033,0.112109937,-0.20010215,0.11320468,-0.00130032632,0.07144208,0.12099456,0.155748546,-0.0215760916,-0.00328548462,0.09251481,0.0461350419,0.0810444057,-0.02238648,0.009424039],[0.4388878,0.0212049931,0.1344266,0.0496487729,0.004649626,0.0257793069,-0.302582175,-0.234167859,-0.02626919,0.328107864,0.0108599253,-0.1250761,-0.006052345,-0.0639928952,-0.1442516,-0.08743922,0.3219092,-0.173268363,0.05759193,-0.0405944921,0.244606167,0.184116989,0.06757821,-0.156392366,0.0470884331,-0.0029057723,0.055667758,0.0147503866,-0.131015077,-0.329173952,0.153345108,-0.173103079,-0.129879773,0.185715511,-0.0985775739,0.1993693,-0.1208801,0.07418592,-0.1676413,-0.09518061,0.3981531,0.33466658,-0.161140174,-0.0118233683,0.1724103,-0.004817478,-0.09479719,0.0123893088,0.06354215,-0.0942174941,-0.322383374,0.198189154,0.139124781,0.05743793,-0.0150097264,0.115109205,-0.00190127583,-0.239940062,0.395424217,0.12233571,-0.0307327546,0.021646224,0.06780284,0.25550738,0.152325466,0.2357778,0.05306441,-0.140228033,0.0239805486,-0.182268366,0.103880078,0.05115795,0.340525448,-0.138596117,-0.432617754,-0.01826204,-0.195162818,-0.1407487,-0.09715611,-0.201442838,0.141658589,0.164384931,-0.283756852,-0.00181466457,0.07843194,-0.07775713,0.03138564,0.0872096345,-0.09424101,0.0510788746,0.0572515875,0.0595620349,-0.275282562,0.07787002,0.0431845635,0.0194095057,0.347281754,-0.0766592845,-0.170398057,0.235850483,0.0204301644,0.09437531,0.11459019,-0.208934963,-0.1336187,-0.240176037,-0.22386755,0.05656155,0.153908059,-0.09544544,0.149408132,-0.24996683,0.1419948,-0.228717953,0.39132905,-0.0405787379,0.245205522,-0.08856842,-0.003093337,0.182154477,-0.0486180745,-0.248899743,0.159175918,-0.05655014,0.3133797,0.04381892,-0.0625311062,0.0548968874,0.368363261,-0.0230628718,-0.02873858],[0.13677749,-0.0141154341,-0.07442843,-0.0131277824,-0.03682312,-0.08845388,-0.349038452,0.210725233,-0.2236653,0.203865737,0.225899875,-0.20309557,-0.06442368,0.2785157,0.1277048,-0.00190497155,0.0512217321,-0.145538434,0.211089775,0.0396425,0.372076958,-0.0429115072,-0.0233137,0.0114484886,0.0701749846,0.09034797,-0.233280882,-0.0364587568,-0.09186428,0.2363701,-0.127247885,-0.0448812731,0.236922234,0.08744163,0.0242065974,-0.09722514,0.0495393462,-0.0201586615,0.00625049975,-0.3690429,0.3171084,0.1914456,0.09692801,-0.0215942245,-0.257476717,0.388464957,-0.177867219,-0.2231127,0.346759647,-0.0115632927,-0.19210282,0.0894236863,-0.109548815,0.3498735,-0.1148086,-0.101144508,0.249482378,-0.234523073,-0.3118523,-0.510984,-0.143764734,0.1855523,-0.06114597,-0.0582435243,-0.311614722,-0.150377974,-0.206424862,-0.258133233,-0.145127863,0.195330873,-0.12860541,-0.07504469,0.206496388,-0.159604028,-0.08560533,-0.0381898023,-0.17644693,0.03349618,-0.113335267,-0.12022382,-0.16768,0.0448157825,-0.03992788,0.0532762036,0.145649537,-0.00506650237,0.151117787,0.06932184,0.198077872,0.179813311,-0.164795846,0.1721852,-0.0507520735,-0.0213446151,-0.0150142368,-0.0340796262,0.232727274,-0.08706359,0.172561929,0.1975223,0.07472443,0.0561329946,0.266875446,0.230134562,-0.00912439451,0.346330643,-0.119163424,0.168621391,0.088545,0.13003628,-0.0300976932,-0.435522258,-0.14770864,-0.254183918,-0.191482574,-0.041806642,-0.0294902846,0.0484686568,0.121078245,-0.0205004029,0.09482945,0.0649842545,0.02157637,0.029558368,-0.09832343,-0.0509068668,-0.054956004,-0.1326274,-0.0605926067,-0.2089654,0.06917816],[-0.21594964,-0.173640355,0.413655668,-0.141685456,0.0532811023,-0.06792391,-0.0348449834,0.193829969,-0.181818992,0.06589895,0.176636621,0.0556119233,-0.0222761445,-0.0547923073,0.006423809,-0.183759674,-0.0456644781,-0.2087732,0.104344949,0.0147664184,-0.07038671,0.0359288268,0.0668614954,0.0185105782,0.0599884428,-0.0138368793,0.037029732,-0.1483685,-0.148586437,-0.199361548,0.1610699,-0.08833529,-0.182347357,0.07496031,0.117724665,0.08697837,0.0709569454,0.0424954034,0.297069,0.234383926,0.113029666,-0.3280993,0.0240344685,0.09298876,0.09982788,-0.0358690843,-0.08755826,0.0182996951,-0.2178657,-0.15815112,0.106537879,-0.122844905,0.1650826,-0.00122782052,-0.443331033,-0.0813528,-0.217931181,-0.111630291,-0.408967853,-0.24466832,0.124250568,-0.204316393,0.0561918579,-0.138758346,-0.151311845,-0.0339729264,-0.175623938,0.08705832,-0.003815581,0.0437630042,0.06864683,0.0105111478,-0.007509806,0.0315228067,0.07470631,-0.203780457,0.1593154,-0.101008773,0.187300712,-0.111936517,-0.0556546263,-0.27167812,0.110315859,0.0103784744,0.0108834393,-0.0452117659,-0.0231550913,-0.120302841,0.0111863548,-0.0269305483,-0.0579559542,-0.008173867,-0.146283448,-0.250285685,0.0530717522,-0.171887368,-0.092642054,-0.117678754,-0.09424228,-0.08970165,0.0150331305,-0.230460137,0.08377515,0.01992424,0.05654796,0.0428579524,0.176000491,0.0410126634,-0.235391289,0.24902679,0.09390479,0.003355954,-0.0645607,-0.0111831315,0.138912886,-0.112893462,-0.116055228,-0.0315098166,-0.12679328,-0.0846938938,0.1904885,-0.3322036,0.0264412388,-0.247729331,0.004127495,-0.054524418,-0.150945634,0.07437178,-0.124296315,0.152937025,-0.0502460673],[0.175652921,0.17686832,-0.0231271386,0.304866463,0.21470584,-0.030251557,-0.0614558421,-0.0704617053,-0.103148028,-0.20421277,0.09553676,-0.123609833,0.149133265,-0.138044015,0.0957226455,-0.190856636,-0.0698184147,-0.0394883379,0.172255173,-0.149518639,-0.2708133,-0.149021387,-0.08489274,0.0115807084,0.0712088645,0.110696919,-0.156522572,-0.06261165,0.146483287,0.148945779,-0.127913013,0.232596263,0.08437042,0.224398464,-0.0585595071,0.3838221,-0.007098352,0.06373715,-0.273379266,-0.0398444161,-0.000303981244,0.03618062,-0.08333799,0.09517469,0.0587799735,0.121711984,-0.372121036,0.0282368287,-0.192102775,-0.0994403958,0.103224054,0.207091168,0.151395366,0.0785368755,-0.0493459739,-0.168184668,-0.0132326921,0.386815518,0.11092858,-0.07051361,-0.0897131,0.06908178,0.364062548,-0.1988144,-0.217197657,0.254342854,-0.100043178,0.32348904,0.0354939625,0.027224334,0.14256525,0.135936409,-0.00753696775,0.0182138048,-0.182404563,0.02840421,-0.3768235,0.30513376,-0.1798775,-0.342750669,-0.00453367271,-0.0116515355,0.166637376,-0.104421064,0.2232153,-0.0245186351,-0.221447974,-0.16013363,0.005772552,-0.01234298,-0.0456650481,0.08197583,0.0985420346,0.3649353,0.17925258,-0.161965162,-0.0110552618,0.0241597928,0.3040463,0.181014121,0.0850709155,-0.180017456,0.0809587538,-0.153862268,-0.26192826,-0.169525936,0.048664622,-0.128115341,-0.050040368,-0.05268067,-0.4746447,0.00154569477,-0.212537259,0.00695340941,0.06460751,-0.215362176,0.198699236,0.274002671,0.0211398713,0.211209089,-0.1262103,0.156278342,-0.006605742,-0.07690217,0.252675653,-0.404257655,0.288056374,-0.0330294371,0.0143006528,0.2886494,-0.07939186],[-0.140637621,0.3128811,0.157325029,-0.1529748,-0.117761351,0.2726103,-0.2378315,0.0600208,0.1021746,0.105189428,-0.0380210876,0.369067669,0.130790666,0.02082904,-0.08279549,-0.2413491,-0.07746021,0.1159589,-0.08217422,0.1495785,0.06058172,-0.171301812,0.0478436,-0.105276771,0.181706265,0.221129969,0.15632081,0.456049979,0.2667662,0.08301701,0.17524524,0.245505378,-0.231278241,-0.232830971,0.05268024,-0.132984281,-0.10903886,0.253221124,-0.4350988,0.190718412,0.00186857092,0.136788264,0.301893,0.07799518,0.158719182,-0.106755711,0.114030041,0.105904482,-0.202376977,0.360711217,0.303106934,-0.177071929,0.0521254279,-0.10825453,0.1734285,0.07265811,-0.140966192,0.103279851,0.0376965329,-0.1243508,-0.153632343,-0.316006362,-0.2880028,-0.160308555,-0.0438362,-0.005558798,-0.137592316,0.313564271,-0.3395168,0.05700339,-0.249749243,-0.384577423,-0.09034294,-0.0108181443,0.338998765,-0.170264065,0.3292269,0.0620777756,-0.412678063,0.02343806,0.09984831,0.07619364,0.318284243,0.232083112,-0.0474750437,0.205301911,-0.223696932,-0.1199178,-0.238960788,-0.185608491,-0.048904486,0.132440478,0.05530137,-0.252042472,-0.0446001329,0.08469996,0.3310936,0.1784792,-0.077827096,0.282320172,0.08778333,0.03709448,-0.07837801,0.07446878,-0.274039745,-0.375745237,0.0509386,-0.0380810648,0.239157915,0.0448864475,-0.3634109,0.05109459,-0.07806361,-0.295238227,0.340960324,-0.190851375,-0.1267486,-0.161395028,-0.04529658,-0.118243888,0.122723043,0.0015262299,-0.0951266661,0.164107412,0.103362404,-0.0720755756,0.1526091,-0.347405285,-0.234999672,-0.213871256,0.285315126],[0.558252931,0.04767336,-0.259923548,-0.00493081,0.06746694,0.0306739677,0.04083581,-0.03869519,0.15419291,0.0281211082,0.06634286,-0.108293027,-0.172157511,0.239362687,0.184703887,0.22259216,0.08233433,-0.1325051,0.166103333,0.0170933,0.04594996,0.197456166,-0.121689811,0.7572153,-0.106261812,0.226009518,-0.3129987,-0.05394289,-0.06549788,-0.455384761,-0.168244,0.119036585,0.05364787,-0.115078121,0.0162620042,-0.0336849242,0.0163693745,0.05928013,-0.173364371,0.0656466559,-0.113563247,-0.232131347,0.152009755,0.180984646,-0.2464368,-0.0197742786,0.09141286,0.0523472652,-0.362512,0.195187554,-0.02285909,0.008614253,0.0700861,0.06530965,0.009672343,-0.146496683,-0.357466757,-0.08289281,0.165176183,-0.103861481,-0.23648642,0.1577893,-0.255906463,0.07646887,-0.05160008,0.243263751,0.517412,0.174935639,0.191278189,0.43458125,0.5085227,0.163106576,0.7594434,0.380738974,0.336613536,0.0205497611,-0.051905904,-0.09936664,0.159333885,-0.06452657,-0.4259039,-0.1325293,0.237059921,0.278265327,0.04802992,0.0654424056,-0.0337253921,0.483953536,0.125632748,-0.0338896774,-0.109189674,-0.00175690057,-0.05398735,-0.123068094,-0.189783871,-0.260017782,0.224185318,-0.0393521935,0.04004478,-0.0973318145,-0.109247737,0.0232327282,0.03183116,0.08871431,-0.192906991,-0.0212091561,0.0208474789,-0.410123378,0.1781903,-0.1529195,-0.168203443,0.165857822,-0.196577787,-0.317684621,-0.05307613,-0.13018544,0.231017545,0.0488348044,0.0342595428,-0.04253381,-0.00722618029,0.008332661,0.00202533649,0.112068571,-0.0685198456,-0.0599897653,-0.0809721,-0.2183512,-0.09854213,-0.1211697,-0.275057435],[-0.116460361,-0.0930057,0.06463564,0.05334782,-0.140837282,0.275011331,-0.12930128,-0.0280786455,0.06211108,-0.0470194,0.136323124,0.09207474,-0.0485361628,0.0152601944,-0.4172792,-0.498009,-0.0454997756,0.009582021,0.1546034,-0.0465919338,-0.0410175,-0.0520919971,0.03942591,-0.0108580515,-0.228272513,-0.285732955,0.146780968,0.07363207,0.0732310042,-0.004801684,0.0177080445,0.205394208,-0.0259402264,0.032708142,-0.5187995,-0.128609717,0.0152879395,-0.152194515,-0.2929231,0.048698958,-0.06373957,-0.190397412,-0.222808167,0.0529439375,-0.144003838,-0.23103407,0.04366026,-0.07351129,0.117020875,-0.134867549,-0.136612713,0.05623228,0.05503688,-0.04347188,0.07049926,0.228425756,0.0145723382,-0.2110428,-0.112865,0.0550441258,0.09829063,-0.117358208,0.06247702,-0.256753981,-0.221685871,0.306399,0.0133786695,-0.223971009,-0.0273551885,-0.08373093,-0.101043858,-0.1547759,0.0392432138,0.134027883,0.08137891,0.201552,0.007343067,-0.113656878,0.0314789452,-0.244844943,0.07772563,-0.0108998707,0.5824017,0.242855623,0.471262574,0.05799976,0.0804788247,0.06404697,-0.0489591137,-0.139345646,0.0791360438,0.12530373,-0.0201342255,-0.1838272,-0.1908181,0.250471473,-0.176656321,-0.09927363,0.127348721,-0.131532326,0.139265284,0.05674277,-0.4917132,-0.3169927,-0.00514193531,0.0112154689,-0.09414215,-0.04925705,0.169347987,0.00678992923,-0.009688552,-0.175850078,-0.216454357,-0.187517762,0.217205167,-0.143987253,0.0310735255,-0.348963648,-0.2542895,0.0267742146,0.305997,0.13619031,0.170604974,0.124232806,0.005192319,-0.299595624,-0.343672782,0.09783392,-0.0322484933,-0.1205466,-0.0309679322],[0.7655378,-0.2593824,0.13057135,-0.109175287,0.25120303,0.138938233,-0.112664089,-0.2301264,-0.295747221,-0.240748942,0.06477412,0.0543220639,-0.169174284,0.196169272,0.03310359,-0.06884817,-0.1448298,-0.156386614,0.07048829,-0.163539112,0.213714033,0.410442024,0.132102281,0.1440347,0.0324861929,-0.08318503,-0.1334001,0.0344726071,0.418699622,0.196934432,0.0187844448,0.104724042,0.0690526143,0.117444739,-0.08480963,0.172793671,0.199787781,0.138705075,0.7044479,-0.207624868,0.145566121,0.009790241,-0.156670988,0.29754898,0.04357567,-0.105522305,0.0181228649,0.0119325705,-0.061295,-0.2818107,0.05697052,0.173524261,0.178437531,-0.188513309,0.20783104,0.345843136,-0.06512003,0.2554376,0.06016554,0.07230422,-0.06978837,0.0653726459,0.136850864,0.0229007322,-0.312611669,-0.0310497042,-0.132671461,-0.0554553941,-0.174154922,-0.055069305,-0.280784518,0.04356153,-0.361947566,0.06466487,0.230836645,0.07893937,0.488623381,0.23763153,0.21372743,-0.105307288,-0.117665254,-0.0154625466,-0.0304185711,-0.03951446,0.183493018,-0.104894869,0.002542952,0.0440035872,-0.16849196,0.175966144,0.247391164,-0.24502784,0.07128151,0.124631755,-0.117427029,0.233326152,-0.07457541,0.190970838,0.221202791,0.327845275,-0.03178056,0.000789701531,-0.0862100646,-0.09084683,0.2716588,0.234352291,-0.255626857,-0.166800767,0.166571811,-0.0653814748,-0.07992123,-0.16464746,0.354301035,0.6739699,-0.0636554658,0.09828485,0.137428686,0.0833645,0.008670699,-0.0125043234,0.109340318,0.155590937,-0.1911533,-0.0604690649,0.123573266,-0.01757032,0.004084926,-0.02025851,-0.11241322,-0.214788139,0.0629043952],[0.175216749,0.0393690765,0.151153371,-0.09801644,-0.0364000835,-0.182915747,-0.106408782,-0.186042219,0.117698573,0.05075087,-0.3596228,-0.213659585,-0.00477057369,0.06300587,-0.08651435,0.261345327,-0.15812327,-0.108970135,0.193929851,-0.376462668,-0.324299663,0.00131879374,-0.03194848,-0.0323388763,0.157898843,0.372548044,-0.242852524,0.0276119318,-0.03673087,0.0910424441,-0.08029372,-0.0202865656,0.141524687,0.322134018,0.07165698,0.330547541,-0.0487893373,-0.146730617,0.223166555,-0.1335335,0.192822978,0.09416656,0.06261464,0.03888263,0.116823822,0.109489381,0.0151563389,0.102700613,-0.00259709381,-0.115239963,0.261620969,-0.0540357642,0.119671375,-0.06300571,0.07620569,0.02968893,-0.322090536,0.22924009,0.104549654,-0.150974512,0.205733851,-0.07310119,-0.104363225,-0.171058089,-0.0588143,-0.148453131,0.250645071,-0.0590770468,0.287381083,0.0128838215,0.0118699865,-0.0547676273,-0.398072273,-0.1133756,0.0543879159,0.139260143,0.1987729,-0.0191909671,0.183955669,-0.160777122,-0.164111853,-0.1537938,-0.0108718835,-0.07043174,-0.459265321,0.153042063,0.1314054,0.257172972,-0.133553624,-0.0130763557,0.261445731,0.07379422,-0.267357171,-0.0486519076,-0.189698756,-0.187765181,0.0151919089,-0.2845365,-0.135536864,0.0239397362,-0.209170565,-0.1706622,-0.238018811,0.202536091,0.172249213,0.2221995,-0.202125549,-0.0619678,-0.282787681,0.210820183,0.0282113086,-0.05593619,0.2001121,-0.192048892,0.2253777,-0.16438657,0.0125070671,0.00526381051,0.208307669,0.0673013851,-0.262578964,0.0401128344,-0.246078745,0.134098,-0.24575296,0.012441583,0.259208,0.113637224,-0.202967048,0.06902002,-0.329800785],[0.232659683,-0.1944153,0.0642533749,-0.170553654,0.366162628,-0.1930102,-0.05828858,0.1771763,-0.0598715,0.06515512,-0.170811251,0.07031675,0.106870785,-0.0241634976,0.27709493,0.0658324,-0.12979871,-0.20598492,-0.0475233756,0.153772131,-0.261720866,-0.0907090455,-0.093955256,0.2503151,0.0930809,0.135085732,-0.101539887,-0.2931408,-0.0287923124,-0.541667163,-0.17805393,0.0740037,-0.0914199,-0.0187534839,-0.149403334,0.4452285,0.2684394,0.0317109451,0.2931738,0.185353726,0.11720518,-0.0717069954,-0.108960852,0.0160888322,0.156167448,-0.035935685,0.06667173,-0.163789421,-0.3986115,-0.0210938938,0.115587905,-0.289096683,0.0301157534,0.267059028,-0.108564727,-0.117928661,0.07703079,0.1711905,0.0112493569,0.234839991,0.0780832246,-0.071109876,-0.27794072,0.06701628,-0.0890635252,-0.1226515,-0.187822059,0.0833234638,-0.0650572553,-0.3491795,-0.159742236,0.141100064,-0.3609693,-0.0469042957,-0.139361009,-0.149577036,-0.110420309,0.226064727,-0.190032855,-0.419742137,0.3236492,-0.118550383,0.138391241,-0.15795882,0.0567820966,-0.233816415,-0.237873465,-0.242618859,-0.0107959947,0.08733878,0.0256652348,-0.130811423,-0.0921955,-0.0614801534,-0.166398048,-0.0609598,-0.263566852,-0.07166618,-0.268951565,-0.193763614,-0.295430928,0.114890851,0.06622929,-0.07038007,0.0597770773,-0.123962127,-0.202921435,-0.0487683043,0.0576118752,0.0169099122,-0.04411683,-0.380935043,0.340064466,0.4783069,-0.36952734,-0.118549019,-0.0103645632,0.220782235,0.4375143,-0.08789115,0.245142922,-0.10710112,-0.05754235,0.114504009,0.08342836,0.214501575,0.0471714363,-0.09973667,0.153771073,0.0800523162,0.05500428],[-0.11829713,0.187539175,-0.101420753,0.0579792075,0.07874855,0.1316766,0.100280821,-0.3167927,0.0689671859,-0.0724948049,0.0218859538,0.27899307,0.117513567,0.00578240957,0.188161492,-0.215417475,-0.109166317,-0.0602787025,-0.27869007,-0.233543053,0.384193182,-0.0860076249,0.216700748,0.121677876,0.192523375,0.223273188,0.0197261,-0.0567942522,-0.08314366,0.221356988,-0.135217726,-0.05100707,0.1476413,-0.0461975075,0.0551681146,-0.134342983,-0.114975661,-0.106784388,0.0238722973,0.03521203,0.1553122,-0.100818634,0.0163959023,-0.154152334,-0.0249103326,0.02408385,0.0137326773,-0.1534052,0.04828423,-0.185793236,0.0398199819,-0.233327076,0.03890761,-0.26273,-0.0585271344,0.0307658315,-0.168579027,0.0976999253,0.170423284,-0.10369309,-0.127149656,0.07591193,-0.08780126,-0.360650063,0.0943029448,0.0930939,-0.240575761,-0.0516430177,-0.09734998,0.165506557,0.29934442,-0.10619133,0.09083428,-0.00600954052,0.06026399,-0.03830498,0.0724839643,0.00149767194,-0.1355519,-0.0738484338,-0.03629245,0.00188748445,0.214747056,0.108527094,0.208494276,0.167741537,-0.200705513,-0.215672538,0.101840422,0.356148779,-0.100874141,0.142851874,0.127171651,-0.158577546,-0.0354337581,0.0468363762,0.0244750232,-0.243436977,0.232306555,-0.01999269,0.264234781,0.22225146,0.0196112879,0.241866827,-0.176040158,0.0180448648,-0.020859547,-0.283671141,-0.169050485,-0.0665427446,-0.157977641,0.09818146,0.179166928,0.0725862,0.042531155,0.0364758074,-0.4152189,0.0672716051,-0.00841295347,-0.00343940826,-0.01119111,0.0726505145,0.214082032,0.124955744,0.106925756,-0.161758512,-0.166093737,-0.2149108,-0.0625901744,0.07941004,0.208866328],[0.199712828,-0.141822726,0.110702649,0.07157759,-0.104177773,-0.233123362,0.145384535,-0.07683072,-0.08309141,-0.33937636,-0.286967218,-0.205352545,-0.144433632,-0.100858606,0.08534341,-0.306377977,0.0344850868,0.0920395851,-0.0355736427,0.0412121378,0.3214416,0.185902864,0.192798913,-0.177499056,0.1601442,-0.0604577065,0.07795172,0.006138175,0.129791081,-0.254012555,-0.0949209,-0.1604411,-0.00581327453,-0.179743558,-0.103539981,0.416346,-0.184087247,0.0495146252,-0.1433885,-0.262170672,0.265455842,0.04307832,0.194251955,0.04161838,-0.246358037,-0.09471592,0.0311377887,-0.0175176188,0.268732667,-0.00771268643,0.165002584,-0.0747544,0.04455434,-0.168483749,0.00214483752,0.1587414,-0.03173424,0.312058628,0.1298268,-0.224750757,0.01254399,0.00307323714,-0.115214407,-0.162023783,-0.06615008,0.09875964,-0.1493101,0.08229879,-0.187609747,0.209833071,-0.1339905,-0.02170111,-0.5312492,0.0469527133,0.07190211,-0.208474681,-0.277032822,0.021273369,-0.0171494912,0.229508609,-0.01625527,-0.009804257,-0.003798072,0.113413826,0.1868514,-0.0512404,-0.0500330925,-0.1608637,0.192554817,0.0953215659,-0.149302423,-0.0653673038,-0.185530066,0.508476853,0.0801760852,-0.07889643,0.140149608,0.151357189,0.173044041,0.211811364,-0.137165129,-0.201039851,-0.11510323,-0.05580857,-0.047830198,-0.20326753,0.26216805,0.193441182,-0.09029427,-0.20682922,-0.0721980259,-0.271982729,0.103711791,0.129126981,-0.0163989253,-0.237906039,0.431352079,0.220176354,-0.179979175,0.0678648055,0.219103962,0.11064133,0.0293512717,-0.245374426,-0.168220639,0.2823963,0.140496686,0.0273093656,0.06977882,-0.34266907,-0.4643919],[0.04745817,-0.09844264,-0.00021516408,-0.190027639,-0.0469598323,0.0170273464,0.0397631153,-0.221089289,0.1558305,0.07982711,0.22127752,0.0872537,0.0719235241,0.138250068,-0.1335554,-0.150051624,0.225628927,0.08658369,0.13193512,0.1764271,0.5673113,0.0104037812,0.222818449,-0.1606773,0.169589773,0.1542791,-0.3670023,-0.2026969,0.26413402,0.161525458,-0.300273836,-0.21968998,0.08230374,-0.06622783,0.411620438,-0.130935356,0.1367684,-0.06766708,0.1299203,0.122271769,-0.117608555,-0.154272467,0.01794511,0.0627756342,0.0309876818,0.0821171,-0.197240457,-0.129586473,-0.219356284,-0.00689898571,-0.208473682,-0.0929704458,-0.252803355,-0.158283576,-0.06813018,-0.2516687,0.0244495459,0.105551615,-0.3230582,0.02406749,0.009517126,-0.0883469656,-0.1849427,0.06424514,0.08700002,0.181881621,-0.0622701049,0.09692888,-0.162091866,-0.06562195,0.00506619969,-0.264557838,-0.0228781588,-0.0876003057,0.00107475149,0.0615724847,-0.0621481352,-0.04637808,-0.215669081,0.08198134,0.170110255,-0.073448956,-0.3486435,-0.154397309,0.0327565446,-0.0666219,-0.101437442,0.282940149,-0.0134641863,-0.0383463651,-0.020554442,-0.291803837,-0.08633385,-0.217863008,-0.0127736265,0.249720111,-0.0279124361,-0.154463917,-0.2761467,0.250918359,-0.0201938227,0.311235338,0.0825199559,-0.101440407,-0.158406809,-0.0762884,0.237279043,-0.123404995,0.03773678,-0.03845611,-0.009206784,-0.0269809049,0.0202644113,-0.0620290749,0.05241299,0.05548281,0.00640728371,0.00633691764,0.00258352747,-0.147271022,-0.05675742,-0.0132578835,0.104889341,0.28809616,0.1914013,0.165711969,-0.0440900177,-0.171804726,-0.1882504,0.1807945,0.172373787],[0.0105372844,-0.0133221662,0.0167112816,0.371300429,0.0132161248,-0.183977753,-0.135765225,-0.0591945164,0.0197945219,-0.217753544,0.127774566,0.1262789,-0.16501987,-0.141944543,-0.139950335,0.0733846948,-0.0358884074,-0.227064222,0.2804538,0.033457268,-0.0469541252,0.4168028,0.0445404537,0.23894538,0.1550289,-0.142775908,0.04102963,-0.180364922,0.00422614859,-0.100532822,-0.126593217,0.0205192342,-0.08625899,0.0168166,-0.181675047,0.118987806,0.273647875,-0.0076840343,-0.3011582,-0.137530833,-0.0668043,-0.0140266214,-0.466803342,-0.186157361,0.2856655,-0.2664746,0.06364134,-0.04581922,0.0869534463,0.2546779,0.142217085,0.0429011956,-0.09189106,-0.048922088,0.128119171,0.2439776,0.0734629,0.208615422,-0.212899119,-0.154430673,-0.0129889669,-0.246804848,0.198470637,0.03969789,-0.072199,-0.08993429,0.006988377,-0.09309188,-0.1340842,-0.23054339,-0.01591761,-0.0187100749,-0.104682371,-0.014786317,0.0216052234,-0.14922598,0.14818044,-0.185230568,0.001051057,-0.0185285788,-0.145641714,-0.0395994335,0.244414657,0.162527069,0.110787436,0.132448271,0.09610523,-0.03680081,0.08628389,0.127165347,0.09975513,0.181818932,0.0399205349,-0.05608919,-0.312576056,0.0533095561,-0.0709876642,-0.0505530164,-0.110474624,-0.005163626,0.05137954,0.345705956,-0.081473425,-0.0190439466,-0.116207115,0.292420864,0.127173126,0.0254277568,0.204058722,0.10327699,0.141987413,-0.38733533,0.331519067,0.118669584,-0.298680633,-0.224778071,0.318760246,0.160494208,0.109399751,0.0467186458,0.108169623,0.00573965674,-0.110227689,0.08967258,0.173464492,-0.21127741,0.04449968,-0.0631567761,-0.102208547,0.03869487,-0.00272348314],[0.212177917,-0.326281339,-0.0380199552,-0.0346670263,0.009747761,-0.04935441,0.0147869447,-0.05323045,-0.269895732,-0.08700014,-0.0410849862,0.009272089,-0.167284772,-0.0551032,0.0338171571,0.133397,0.06070693,0.130106628,0.0390202776,-0.07778822,0.09818171,0.02632238,-0.036816325,-0.00364485383,-0.3420922,-0.209069192,0.0277122762,0.0546448343,-0.0131663289,-0.397218883,0.203778669,-0.0231481139,-0.000359864527,0.147550136,0.0572732426,-0.192209855,-0.07853207,0.2638886,0.213032946,0.0115195625,0.148587048,0.1292787,-0.0161596071,0.170658544,-0.00397258624,-0.04692446,-0.111388341,-0.270591617,0.124138251,0.1785826,0.212347746,-0.01947863,0.0555577464,0.0467047878,-0.00772584649,0.118354984,-0.186557978,0.0275129639,-0.06783365,0.01628649,-0.105238974,-0.0467857458,0.0268731285,0.058369413,-0.286579669,-0.0188757926,-0.0179989152,-0.0177085157,-0.239411935,-0.006053136,-0.189199641,-0.103116415,-0.07440963,-0.184623361,0.254261,0.121607929,0.305656374,0.332388818,0.148238,-0.298698038,-0.197379619,-0.04517261,-0.05114736,0.248906717,0.133026019,0.09690783,0.18890126,0.3402704,-0.01677858,-0.05442595,-0.260996282,0.07782511,-0.0585930422,0.115842596,-0.0264708865,0.114839554,-0.113607265,0.209048674,-0.171394229,0.07407351,-0.0348694064,-0.168271556,-0.005394046,0.200019941,-0.08456487,-0.156943768,-0.137427509,0.141266167,-0.181463227,-0.027129611,-0.193798915,0.0122364592,0.242540359,0.182649866,-0.0603159741,-0.0427330546,0.19971025,0.0309711,0.117364123,-0.1717986,0.159528464,-0.17475301,0.119867638,-0.136251926,-0.0604531132,-0.0245308522,-0.245943621,0.182072073,-0.106298842,0.249296546,0.120813966],[0.133805171,-0.121434137,-0.1622705,0.186271474,0.233268976,-0.269711077,-0.0393669419,-0.143901944,0.13270168,-0.0189014114,-0.008391149,0.126707375,0.159126058,0.2846047,-0.19704856,0.150339216,0.213933632,0.0149234887,0.200457692,0.230620191,0.719222844,0.0176809374,-0.11439538,-0.27744633,0.08734253,0.228818551,0.215408251,0.06309605,0.00272153015,-0.6022454,-0.4474079,-0.514061451,0.207953379,0.307133615,-0.06449107,-0.758739948,-0.131294712,-0.006640185,-0.04206512,0.39164117,-0.163523525,-0.473391443,0.231504381,0.288647979,-0.152942047,0.08564644,-0.004191047,-0.186323643,-0.0578562021,0.205971062,-0.08748093,0.05402833,-0.162428424,0.0264535453,0.5159933,-0.197881579,0.2539544,-0.490782171,0.02225781,-0.007730006,-0.1267964,0.136540428,0.18707186,0.2982336,0.338274419,0.2575779,-0.0710085854,0.0561878458,-0.091798,-0.167802691,-0.378384262,-0.108903132,0.149987668,-0.09944694,-0.4669593,-0.07839654,-0.3880185,0.5026683,-0.3185447,-0.230528131,-0.2529564,-0.04512088,-0.1389465,-0.1475038,-0.2775231,-0.09345253,-0.5763308,-0.07744303,0.105958559,-0.05134702,-0.136771232,-0.118424065,0.378987432,0.0276407413,-0.0370118171,0.469703,0.146875575,0.0436952077,-0.103146337,-0.0181629919,0.13007836,-0.130081624,0.176928475,0.275749326,-0.140691489,0.557669,0.320650458,0.0829387456,-0.0533420667,0.0610107519,0.06032543,-0.0664203838,0.01724325,-0.4228834,-0.11030934,-0.07832957,-0.198072672,-0.0339090638,-0.0917472243,-0.03551874,-0.202325448,0.215529144,-0.0765026659,0.287050664,0.7451023,0.253267646,0.2657647,-0.210581824,0.241476133,0.21306622,0.425715059],[0.19452484,-0.169423431,-0.1917114,0.0212577172,0.3651255,-0.08684314,-0.01213441,0.293333232,0.004854087,0.08426521,0.0417402573,-0.0034588112,-0.193085209,0.171762317,0.0448376425,0.0153661,-0.1014635,0.1321783,0.12594007,-0.502659261,-0.162939772,-0.217097208,0.0214939471,-0.0250780415,-0.109094225,0.42495206,0.0434198,-0.0768281445,0.61490643,-0.10532365,0.255813062,0.08408291,0.231545672,0.07761297,0.600027144,-0.251222163,-0.07513087,-0.2554044,-0.400755942,0.05340946,-0.100584731,0.116988823,0.09774976,-0.054828275,0.03945582,-0.0394048654,-0.0554624461,0.189020589,0.2002923,-0.008395492,0.12256325,0.04603591,0.422190666,0.106668182,0.29631567,-0.0612908676,0.3467112,-0.330398947,0.111521721,0.012630363,-0.244866535,0.2705957,-0.0513914,-0.133234665,0.0451995432,0.0539683625,-0.111065969,-0.214911878,-0.104592174,0.04535564,-0.201684967,-0.2016226,-0.3076491,-0.1939519,0.288808137,-0.13543725,0.258549958,-0.278554171,-0.138941616,0.0258354116,0.280784339,0.4567243,0.490944862,0.106465727,0.3029785,-0.09620365,0.120045245,0.139885917,-0.136257529,0.0446455553,0.00777288852,0.19270359,-0.05770673,-0.163238108,0.154934719,0.224539071,0.165140077,0.227552012,-0.01931341,0.166097254,0.146176159,0.248992354,0.104654625,-0.0274632778,-0.152428761,-0.006570286,0.382672578,0.101549216,-0.197777689,-0.08430319,0.153566688,0.1379638,-0.09934916,-0.624344468,-0.0935969353,-0.00248563383,-0.314543039,0.109617136,-0.198599562,-0.332396775,-0.232312649,-0.384673566,0.350113183,0.164663717,0.06270815,-0.10595239,0.0491427332,-0.1821474,0.0416592658,-0.09497882,0.008553028],[0.112529539,-0.168631345,-0.3401183,-0.218402848,0.183926851,0.209818423,0.284175873,0.156018034,-0.266032577,0.3340388,-0.00252796826,0.00681073032,-0.103952184,0.09171512,0.0271978788,-0.4256795,0.143838853,0.156286687,-0.0684919357,-0.123334318,0.0957499146,-0.08564973,0.336792082,-0.130289376,0.210628122,0.3652747,0.08662476,-0.101006016,0.087099,-0.196432188,0.1340573,0.0322649926,0.0602200553,0.16004841,0.0728570744,-0.23407045,-0.1911575,-0.18653281,-0.07948179,0.08179037,-0.0293301027,0.119907789,0.3900417,0.6411158,0.01979283,0.1082449,-0.06670564,0.06467867,0.22535412,0.017785728,-0.111807168,0.123734206,-0.217591748,-0.03267611,0.198975727,0.0996473,0.267423123,-0.12706095,-0.217514277,0.236853853,-0.07463924,0.17010726,0.131602362,0.0672979355,-0.3029906,0.3802059,-0.1601726,-0.349442571,-0.143264547,-0.0361818932,0.0678260252,-0.187863275,-0.0974432,0.02894639,-0.12479163,-0.0314483456,0.06140574,-0.00207761955,-0.151801527,-0.1400346,0.05277486,0.163891137,-0.0312939435,0.0241067465,0.118049406,-0.08275737,-0.150318384,0.161352128,0.0319652259,0.281256974,-0.190805122,-0.0467332378,-0.03237599,-0.308678269,-0.0293941889,-0.0561242625,-0.199432135,-0.0563599169,0.004868137,-0.0140175428,0.09923765,0.156447366,0.249228388,-0.0620788448,-0.07986555,0.311772674,-0.0257476475,0.0443117544,-0.008522521,-0.207611769,0.248046413,0.139683366,0.2582952,-0.32566753,-0.0320438258,-0.07179126,0.316229552,0.130854174,0.214063674,0.232425675,-0.0293802787,-0.187787965,-0.008178685,-0.214160815,-0.0338966437,0.2596485,0.0248062741,0.061876215,0.0864459,0.153101325,-0.4084447],[0.2412921,-0.101919673,-0.3106198,-0.455455333,0.08564753,0.054470554,-0.221188337,0.0543299168,-0.110330686,0.0588343963,-0.158637017,0.26550898,0.0515586548,-0.0317656025,0.0151033793,-0.0698288158,0.06346124,0.141240656,-0.133023113,-0.109098606,-0.2866341,0.09654027,0.023621656,0.06656821,-0.303181082,-0.0183040164,0.05067818,0.0448405258,-0.177500516,-0.143046066,-0.0927917,-0.311664283,0.0912267,0.1109795,-0.0838496238,0.460228056,-0.000115481169,0.0479613841,0.03549577,0.192080677,-0.06573899,0.05631938,0.018706575,-0.349642247,0.115675382,-0.254258335,-0.06040102,0.322538167,0.146474823,-0.3591767,0.14217034,-0.0318304822,-8.11731E-05,0.1998836,-0.209532484,0.292755,0.105953574,0.208998308,0.181439891,-0.0907703,-0.0007757516,-0.1416924,-0.0340921767,0.0939310342,0.0325202569,0.0505155548,0.214646518,-0.101838216,0.034208823,-0.2395126,0.0946172,0.23008202,-0.164042071,0.0017469622,0.02322307,-0.22789304,0.1951634,-0.2689299,-0.224708691,-0.2231413,-0.0814181045,-0.160744891,0.187959775,0.09646949,0.423489273,0.0240681488,-0.12724334,-0.15615952,-0.137093216,-0.16448544,0.159864753,-0.010759294,-0.133808613,0.19880341,-0.1294187,-0.118310936,-0.105354629,-0.17222546,-0.19182542,-0.158682063,0.03028375,0.06949512,-0.249102846,0.118887693,0.07518607,-0.0924636945,0.143928543,0.145863518,0.1350701,-0.0641479641,0.08869433,0.22365582,0.0371721,0.188769251,-0.0865935162,-0.123899296,0.1700038,0.151349291,0.124407135,0.210558191,0.183520362,-0.113256231,-0.07427131,0.2541458,-0.145435378,-0.2133973,-0.142457113,-0.3227124,0.0172166135,-0.161749616,-0.298032641],[-0.387374222,0.0497279242,-0.234770983,0.143429741,-0.1509134,0.1688885,0.0591351874,-0.134294629,-0.221321851,0.18898426,-0.07643391,-0.183067977,0.111824766,-0.10428524,-0.1260639,0.22484614,-0.19153744,0.0219195448,-0.03901647,-0.2906084,-0.265871823,-0.0528889224,-0.0850187,-0.0135150282,-0.04366001,0.06614789,-0.227954119,-0.09525348,0.230557278,0.005024539,0.424239933,-0.0566095524,0.06835481,0.178150967,0.2904483,-0.0530325174,0.235835284,-0.0705182552,-0.139587119,0.230184019,-0.006802711,0.2968793,-0.146146253,0.0584434755,0.378851444,0.0616415329,0.24039112,0.0417839661,-0.11591614,0.0680756941,0.176641747,-0.2923132,0.03134955,0.0369705521,0.07365,0.002751422,-0.06262816,-0.06083859,-0.0152486283,0.009235563,-0.219366983,0.358739376,-0.061839588,-0.122605875,-0.169612974,0.06793546,0.405636549,0.07654914,-0.0972375646,0.0529291034,-0.08745806,0.312379926,0.184576377,0.12980321,0.06858969,0.206201851,0.00768956263,0.00745050935,0.0489696153,0.09045828,-0.075518176,0.027727019,0.09080833,-0.05265697,0.09748394,0.122835055,-0.138970509,-0.0972310156,0.09313722,0.0185950212,-0.0774178356,-0.103639878,-0.242731974,-0.023497954,0.271257341,0.245176345,-0.246088713,-0.07475574,0.0454361029,0.06339171,-0.1862083,-0.246921331,-0.10448999,0.119016908,0.111495033,-0.15464586,-0.14632073,0.2287258,0.06513108,0.391229838,-0.244191855,-0.180982932,-0.07490163,-0.00564671867,0.08041589,-0.0579993278,0.01044111,0.186445832,0.04366053,0.155786172,-0.04727138,0.12022388,-0.06483646,-0.10046488,-0.2697416,-0.05864019,-0.0989310741,0.0562014878,0.031096559,-0.06499194,0.207777485],[0.09266973,-0.150437951,-0.07550739,-0.23396872,-0.126869813,0.05457192,-0.294702172,-0.0698868558,0.0465586856,-0.06166445,-0.07837495,0.148719952,-0.03514631,-0.07863424,-0.06338026,-0.04756013,0.165189177,-0.00571210263,0.0762898,-0.0710212737,-0.137798056,-0.0188681819,-0.0447877459,-0.0686522052,-0.08500691,-0.044609528,0.105332986,0.089593716,0.312578559,0.217635244,0.337049961,0.386866033,0.0596296862,0.05445939,0.00531767169,-0.133777887,-0.219023958,-0.0479085036,0.100088879,0.0957121849,-0.09832734,0.315927923,-0.03863348,-0.08300193,0.0367497876,-0.05150436,0.0278358217,-0.102639988,0.135270968,-0.128803387,-0.0198540147,0.1087068,-0.11273776,-0.191392154,-0.0243052728,0.2535826,-0.105517194,0.302049935,-0.314253777,0.07742808,-0.11121054,0.057784602,0.13781631,0.08206734,-0.0788213462,0.133722588,-0.16992566,-0.26474902,0.0470322855,-0.02968832,-0.06555786,-0.029905038,0.0481831059,-0.0522465035,-0.109409921,-0.0223107319,-0.125600278,-0.116046272,-0.1066254,-0.190789625,0.100074485,-0.0375379249,-0.115591966,0.067790404,0.121110089,-0.301990777,0.1680573,-0.06706218,0.0171360113,0.1199161,0.0608930252,0.107770994,-0.0159507487,0.06922937,-0.302158,-0.0465407446,-0.026386302,0.153765827,0.0430810079,0.0456317142,0.00318644755,-0.29254657,0.02985231,-0.223743781,0.09680875,-0.0196537767,0.0533845723,0.1315978,-0.228512034,-0.144825041,0.0148830684,0.373537,0.2767071,0.336969584,0.173211515,0.0003671489,0.0889671,0.247678071,0.0898269862,0.0143290861,0.167600766,-0.0328673422,0.0294065122,0.0176079851,-0.151068017,-0.120715313,0.0194653664,0.02535309,0.08190921,-0.1867121,0.239392817],[0.4784956,0.04130867,0.213723913,-0.06556975,0.188875362,-0.0294694975,0.109070934,-0.0540767834,0.3036951,0.03165346,-0.06134173,-0.236697122,0.179500759,-0.0608483851,-0.122345969,0.596821845,0.0153165786,0.1425665,0.137412444,0.02619694,0.122994386,-0.173895359,0.1526628,-0.03649703,0.041645214,-0.00145646825,0.141049251,-0.14349553,-0.140899912,0.177017942,-0.195987538,-0.503240347,0.307071239,-0.156303167,0.053965088,-0.0562625937,-0.291645318,0.0817504749,0.258173347,-0.008962676,-0.108282745,-0.0847560838,0.0573633239,0.196641937,0.146101132,0.180167615,-0.0141754029,-0.2415589,0.116051152,-0.282115132,0.163982123,0.062300276,-0.03150604,-0.194784611,-0.3684254,0.3618405,0.158895865,-0.000366961467,0.0614514947,0.110169008,0.0424189977,-0.08872321,-0.104137853,-0.248399213,-0.04686356,0.216503873,-0.152966008,0.107659563,-0.0332242139,0.256466836,0.09141934,0.340672851,0.243850321,0.266262919,-0.17197752,0.0417766348,-0.0532712564,0.06898483,-0.271658421,-0.198454782,-0.208984524,-0.04377444,-0.3708996,-0.05118838,-0.279228657,-0.0467611067,0.160026714,-0.0127026439,0.149147481,-0.0402403735,-0.04398901,-0.135080665,-0.146916464,-0.1491787,-0.353897542,-0.128288552,0.05753145,0.0902286544,-0.105774827,0.08599205,-0.08772554,-0.163707733,0.147061571,-0.12645559,0.2709612,0.1347905,-0.0700075,0.09009183,-0.0629883558,0.1764752,-0.11630331,0.034474127,0.150658414,0.285586417,-0.144292414,0.211477458,-0.009824467,-0.0504155345,-0.0952595249,-0.197248831,-0.09420576,0.0330096669,-0.1055164,-0.241601974,-0.1436963,-0.100203,-0.009542949,0.0625420362,-0.2188811,0.140459478,0.2871238]],[[0.5410026,0.20035699,0.147965938,0.00243232585,0.09842742,0.184759885,0.0632661,0.229696646,-0.215111479,-0.0291661024,0.211372,0.244702771,-0.09211963,-0.27539584,-0.005368581,-0.743142664,-0.1658005,0.6220188,0.515926957,-0.185270071,-0.182308882,0.057315886,0.3048035,-0.223540768,-0.0557344332,-0.0315275863,0.7056971,0.241513267,-0.2864456,-0.1689662,0.517404,0.28600657],[-0.0225731824,0.569376767,-0.0415275246,0.003826039,-0.183870673,0.130166233,-0.6859692,0.266011566,0.483638763,0.13427195,0.06657019,0.24806948,0.307984442,-0.2637085,0.304208219,0.5517155,-0.0120368516,-0.308824,-0.0159897767,0.115594164,0.326042742,-0.310212344,0.159704342,0.120726369,0.412544072,-0.3677847,0.01921218,0.5361664,0.03116903,-0.0205241162,-0.0327698961,-0.316938],[-0.443772733,0.143983439,0.588902533,-0.0595264137,-0.38247785,-0.0406898223,0.333344877,0.136089921,-0.20176585,-0.236280456,-0.0223361664,-0.122726306,-0.194215238,0.0530917533,-0.2150518,0.3796819,0.0261182245,0.653995633,0.384616315,0.370775968,-0.100226507,-0.03101017,0.03478366,0.281631976,0.206202239,-0.33438772,-0.3844299,-0.4083244,0.4468327,0.100381143,0.149862438,0.000861420936],[0.309645265,-0.385600924,0.100299038,-0.0606371425,0.101851054,0.195118248,-0.093057774,-0.129542485,-0.2157666,-0.183501184,0.593849063,-0.0165872,-0.03298335,-0.247154415,-0.03264427,0.0357916,0.120669723,-0.4514595,-0.00254077744,0.050049834,-0.21121408,0.3553367,-0.09053154,0.052204106,0.353913158,0.355180025,-0.376091063,-0.212270141,0.433582842,0.189945146,0.190870523,-0.5004985],[-0.2526058,-0.22489056,0.7341057,-0.06168328,0.5752844,-0.298875272,0.120657258,0.0141513487,0.125457048,0.238485277,0.259608477,0.3974799,-0.0200985782,-0.100293033,-0.132050231,-0.4291529,-0.3526471,-0.08278625,0.3187035,-0.244965851,-0.355080932,-0.158926919,0.34790194,-0.05421827,-0.168320045,-0.02563479,0.8562772,-0.08627199,-0.369050473,-0.4062383,0.00580606,-0.177856356],[-0.122353613,0.103257336,0.131685346,0.2994083,-0.0314983539,0.479854345,0.439296871,-0.218376026,0.596123,-0.231333315,0.231930748,-0.194803983,0.0331310779,-0.205078572,-0.154595658,-0.000350576185,0.0240736157,0.41759786,0.07715882,0.3451464,0.41741392,-0.0148286046,0.189733386,-0.1642802,0.0606204979,0.391662657,-0.135294646,0.06702857,0.457366019,0.0409926474,-0.173176587,0.114037588],[-0.412472457,0.07889525,-0.293649971,0.1439039,0.138647392,-0.41961062,0.09809558,0.205804139,0.481304049,0.08449183,0.07420902,-0.0705319,-0.218847662,-0.131814778,0.248134553,0.5431763,0.2063551,-0.131810531,-0.05212683,-0.159693748,0.101285681,0.0312601067,-0.8520901,0.04619103,-0.1800335,0.07207892,-0.008886716,-0.323583722,0.13332954,-0.223422527,-0.07133294,-0.13421005],[-0.144177437,0.0505500175,0.0102609247,-0.07623078,-0.134467632,-0.07504972,-0.309649378,0.138847277,-0.0687020048,0.07901973,-0.06695937,-0.408177078,-0.009254819,-0.101780742,-0.4390411,-0.1962997,0.0760198757,-0.540597,0.07884775,-0.187672228,0.219273716,0.07041296,0.28036052,0.329684138,-0.09388397,0.07159883,-0.185987756,-0.08675287,0.274007171,0.0394589379,0.0527765676,-0.0465126857],[-0.0209545922,0.30169487,0.464642346,-0.148239791,-0.0667211041,-0.183760062,0.403219521,0.0481731221,0.08273575,-0.38763994,-0.241557211,-0.413085461,-0.396658242,-0.08063223,0.572492,-0.5841806,-0.02818096,0.7297804,0.228769958,-0.141950652,-0.05229056,0.0138105331,-0.0644658059,0.5899207,0.2963379,0.26311186,1.171997,-0.162922412,0.3603845,0.118812174,-0.18232888,-0.5660339],[0.3879228,0.120043576,-0.0511741377,-0.3624167,0.371591568,0.241831943,-0.308494478,-0.110181496,-0.370139033,-0.10521578,0.289062083,-0.09113165,-0.6568768,0.0512461141,-0.06313468,-0.226784825,0.439816624,0.5016356,-0.117778637,0.665967464,0.294465125,0.5385265,-0.151324823,0.132823214,0.07540321,0.6474707,0.06818521,0.158232868,0.478865176,-0.1240297,0.42112577,0.4804702],[0.359514117,0.008582213,-0.364297748,0.142210752,-0.357529074,0.0214182939,-0.0166248474,-0.394264042,0.123433165,0.1480354,-0.40786618,-0.322407424,0.211769447,0.116494343,-0.189085469,-0.01829383,0.03634716,-0.09092128,0.181535125,0.0112308608,-0.192369029,-0.0663948357,0.416982949,0.121623255,0.08101222,-0.2007757,0.156063333,-0.144717813,0.0644881055,-0.0844134837,0.133585,0.0442893468],[0.0495434329,0.0654293746,0.278913081,-0.0994639844,-0.340972841,0.1960906,-0.199987739,-0.213356927,-0.13252224,-0.732232451,0.150007442,-0.121855929,-0.205553457,-0.294629276,0.0108193345,-0.289780617,0.0672427043,-0.06432369,-0.22384721,0.1177673,0.1598411,-0.448343158,0.0608679056,-0.0441845,-0.2157779,-0.271849543,0.03755945,0.0443371572,-0.08305735,0.337353319,-0.196252421,0.1221032],[-0.079093,-0.130165666,0.2505335,-0.008154785,0.437337667,-0.28490296,0.08523288,-0.189614311,0.08855861,-0.116197191,0.247990519,0.244108185,0.4657642,0.6510277,0.6803447,0.112902544,0.321189046,0.184943259,-0.0152340988,-0.225517213,-0.108554244,0.7483797,-0.168743014,0.08942862,-0.141598031,-0.02191992,0.3773241,0.10524337,0.203686818,0.240385622,0.727886,-0.695023835],[-0.3080862,0.75844413,0.429328471,0.0361200124,-0.1898942,-0.133568287,-0.2099931,-0.06251184,-0.143673271,-0.3545504,0.02912004,-0.154242381,0.05192076,0.455212176,-0.409077317,-0.31435746,-0.5037539,0.4974346,0.472956866,0.0979715362,-0.133309439,0.242075086,0.232925758,0.105313517,0.3158288,-0.118960649,-0.397150278,0.0142501341,0.7329444,-0.192464173,0.371198177,0.340420246],[-0.135089368,-0.327668279,-0.325555,0.2072673,0.205853641,0.09991504,0.1516823,-0.0583409369,0.156664163,-0.036575608,-0.189058751,-0.04781258,0.127954766,-0.418818265,0.0933250859,0.111832522,-0.194743589,0.5113037,0.211027354,0.226517558,-0.03728236,-0.0768958256,0.145794421,-0.0152969258,0.15058507,-0.29128328,0.2974031,-0.4125693,-0.360433459,0.06361632,0.2310067,0.0718121454],[0.09782166,0.5618848,0.193669841,0.313728184,0.4511187,0.4399144,0.198013261,-0.104515642,0.119331911,0.254245639,-0.215270564,0.26626417,0.245179251,-0.399747252,-0.00714241946,-0.131433889,-0.1796283,0.24809064,-0.395007342,0.121012278,-0.229270026,-0.5298358,0.0784261152,-0.124353215,-0.147679791,0.655108452,-0.189990625,-0.28247565,-0.446383148,0.188358,0.305626571,0.8104607],[0.3571844,0.558116853,0.347339481,0.204621762,-0.0949930549,0.112584546,0.575233459,0.290799916,0.27272743,-0.136444315,-0.167091534,0.19540374,-0.315764874,0.401718885,0.240534082,-0.106827535,0.00284633832,-0.429060638,-0.227336437,-0.148333833,0.261439443,0.353855342,0.18758513,-0.3629023,-0.514465451,0.12005768,-0.157678649,0.351493955,0.200132951,0.06419111,0.006519872,-0.174590647],[0.09462911,0.07224873,-0.292844385,-0.04765261,0.699969769,-0.111439921,-0.7566766,0.264808983,0.4219102,-0.004691662,0.137923464,0.7391801,0.0869467,-0.09607575,0.5640278,0.152961671,0.174969792,-0.3301433,-0.5937491,-0.135294691,-0.0421557538,0.142659292,1.01477087,0.051561784,0.379108042,2.085707,0.630894661,0.486380279,-0.398937076,0.03192076,-0.562820852,-0.06255459],[-0.24856934,0.106298551,0.360155821,-0.2854891,-0.450781435,-0.197777674,0.165161267,0.0533242263,0.4536371,-0.404558063,0.264417052,0.0428669266,-0.624864161,0.1345211,0.147079378,1.43227386,-0.09438372,0.0877296,-0.07959258,0.5244422,-0.0933134,0.168749988,-0.4091899,0.0815711543,0.160426944,0.12247321,0.371390849,-0.318051934,0.36943087,-0.241787925,-0.21365723,-0.306709468],[-0.05411573,0.0315249562,0.12854822,-0.183074519,0.260369748,-0.08556954,-0.106700063,-0.141301811,0.6023719,-0.205367208,0.370675683,-0.0356617272,-0.187702239,-0.0214113779,0.111286849,0.7175146,-0.3367731,-0.364332378,0.111017294,-0.666650653,0.110742353,-0.283583641,0.2706369,0.0570614561,-0.5132754,-0.418453366,0.228130341,-0.0152299926,0.52458483,0.393176436,0.246812418,0.673781157],[0.216244817,-0.471914262,0.296667039,0.104041509,-0.5160736,-0.1489721,-0.103689484,0.236757278,-0.1002074,0.5194185,0.189409152,-0.356845379,-0.315432847,0.2100882,0.189434573,-0.5968545,-0.19535163,-0.07193077,0.5952826,-0.168064028,0.1733751,0.223321274,-0.388972044,0.122566678,-0.277258545,-0.0344658829,0.284443349,-0.0322769843,-0.236352131,0.450886428,0.3165401,0.349784464],[-0.08138376,0.004776373,0.216633186,0.01468776,-0.0320185758,-0.354657143,0.193811178,0.314659327,-0.258336842,-0.09565869,-0.0330780819,-0.273054481,0.0603905581,-0.202903286,0.081929,0.07795171,-0.314459145,0.1311793,-0.1755954,-0.208151937,-0.316326946,-0.07676491,0.206432909,-0.263112366,0.431144446,0.153334647,0.220800817,0.1448219,-0.239270434,-0.5918838,-0.237919763,0.144132033],[-0.08719145,0.422133833,-0.192974865,-0.121859439,0.218811736,-0.0575924553,0.272013,0.263823748,-0.06678849,-0.0242244042,0.0285620354,-0.338854164,-0.229669258,-0.0581274033,-0.300521463,0.20966965,0.0543027334,0.152510941,-0.25486365,-0.207781285,0.005400786,-0.5436319,0.142762527,0.02903902,0.195625946,0.2295182,0.351746,-0.287528217,0.1365829,-0.08786217,-0.06338844,0.234042391],[-0.450682431,-0.09672021,-0.0956871063,0.160667464,-0.044955045,-0.052616965,0.0465259328,-0.405231684,0.295262247,-0.0368168,0.08243366,-0.456431657,0.0931372643,0.0356207155,-0.02986057,0.199051619,-0.560417235,0.498353869,0.617836356,-0.487918139,0.08045362,-0.331781715,-0.08177565,-0.00196916843,0.299681038,-0.1251636,0.258345664,-0.356253,-0.0943152755,-0.0104458211,-0.2048444,-0.07946065],[-0.119399674,0.251694173,-0.147895783,-0.3045241,-0.09324612,0.0299956314,0.118419051,-0.226016358,-0.0433106,0.372124,0.0963196754,0.0520351119,0.254430652,0.1670104,-0.4528884,0.288574129,0.213830188,-0.0562449321,0.16024442,-0.216911867,0.1807539,-0.142523542,0.0222635567,-0.137114465,-0.247859791,0.112712011,-0.04328901,-0.113712713,-0.2289672,-0.178229883,-0.116234086,-0.138480753],[0.161430389,-0.310224354,-0.160811409,0.153017044,-0.00313312,-0.2924415,-0.246397808,-0.183279917,0.507157147,0.003569045,-0.164825156,-0.134259745,0.0337216444,0.186441585,-0.219528243,0.09878983,-0.139227241,0.0253319386,-0.09652548,-0.113628648,0.178029761,-0.395604879,0.168243125,0.4149582,0.0180800185,-0.253333628,-0.296296149,0.207100257,0.280944,-0.112534046,-0.00218669069,-0.2138721],[-0.026978638,0.275320977,-0.170213073,-0.291751,0.238409042,0.0646487,0.08702329,-0.231270328,0.0310943946,0.1776758,0.480927676,0.112782769,-0.0769315362,0.569935739,-0.233650476,0.41360727,-0.1838039,0.06691986,0.0241714064,0.268694639,0.02961647,-0.201251134,0.415632129,-0.08769024,-0.2933519,0.8511978,-0.06230309,0.07212938,-0.45767504,0.0686289743,-0.376342535,0.138583481],[0.05403377,-0.32997,-0.136403814,-0.03971179,0.403432548,-0.0645212755,0.5242303,0.0525432564,0.8153214,0.00263747969,0.212365374,-0.07251842,0.1373201,0.2972909,0.08556607,-0.360875577,-0.117014863,0.170468614,0.318832338,0.35438028,0.142868742,0.680290341,0.2161002,0.1931453,-0.261143565,0.6874089,-0.1688223,0.08778721,0.2865002,0.199618682,-0.399354815,0.16297017],[0.08361676,0.0687314,-0.1413758,0.331501484,-0.3225836,-0.235825717,0.246042684,0.4033671,0.220490977,-0.5035381,-0.226409093,0.19465746,-0.0535188578,-0.140570313,0.0286274478,-0.0967161953,-0.260924816,-0.205214217,0.196973726,0.299884379,0.2657925,0.0286958627,0.0008464666,-0.07314295,-0.214263022,-0.2691123,0.170868218,0.3743789,-0.426109254,0.14080894,0.147265375,-0.219387174],[-0.231249481,0.7905863,0.06803503,-0.3878865,0.2084504,-0.379306763,-0.109174244,0.171627089,-0.101603732,0.142252639,-0.202306688,-0.292277277,-0.0358385779,-0.122241937,-0.5570328,0.106285632,-0.00121864618,0.860165656,0.523517668,0.784152269,0.003030749,-0.0617910028,-0.139216959,-0.009638045,0.07892458,-0.297141433,-0.5943064,-0.6886719,-0.3151472,-0.137916625,0.5078253,0.451100528],[0.164408043,-0.11319343,-0.6833721,0.567210734,-0.0275289174,-0.0614764541,0.25142315,-0.454816133,-0.0808597952,-0.321796864,0.5067915,0.504512131,0.573577166,-0.0867190957,-0.0491960756,-0.0755481,0.0193071533,-0.234215692,0.08982767,-0.1407695,-0.0979603454,-0.518969357,-0.116910107,0.105602369,-0.2527023,-0.5554992,0.138007179,0.003420243,0.0308500137,0.351694,-0.245169148,-0.0226056017],[-0.06680716,0.120185651,0.1163818,-0.187791869,0.7366344,0.05437384,-0.00212448183,-0.321871817,0.379233837,-0.314828724,-0.0133814383,-0.110241428,0.00619466975,0.3787318,-0.166868165,0.217767268,-0.180073515,-0.2529319,0.3368028,-0.2576068,-0.1984551,-0.262610316,0.0290293563,0.0205602255,-0.04547575,0.07208974,-0.3209863,-0.327928752,-0.114006624,0.01407073,-0.243814483,-0.269776165]],[[0.241449893,0.225548372,-1.08996618,-0.3018164,-0.09924118,-0.3551311,-0.1517855,-0.1582453,-0.469859719,-0.009261534,-0.137587577,0.344295532,0.008979205,-0.815618157,-0.3050677,0.260618031,0.475542575,1.84862506,-0.8397688,-0.288434118,0.08630293,0.284859866,-0.249533162,-0.219158471,-0.09725747,-0.131063864,0.282560736,0.3609817,-0.0240332969,-1.06919622,0.114272818,0.155951455],[-0.0318924263,-0.04376474,-0.234181583,-0.188261017,0.149215892,-0.16091311,-0.244185433,-0.04807411,-0.06621931,-0.09924151,0.0530618764,-0.0450126454,-0.08325664,-0.4085924,0.307698637,-0.2500856,-0.113929786,-0.419174284,-0.325902015,0.3089038,-0.112537675,-0.00447457144,-0.579057336,-0.191838,0.145420238,0.06813758,-0.4125829,-0.154781878,-0.00508387573,-0.201845914,0.264303923,-0.144432619],[0.6510614,0.09302212,0.11532525,0.297047883,0.218155771,-0.8229304,0.185598224,0.204233781,0.0300556477,-0.133295983,0.306881666,0.569547951,0.70059824,0.147008389,-0.015755333,-0.109120227,-0.08465081,-0.5729731,-0.594178557,0.239927977,0.09426773,-0.0306099243,-0.3154301,0.0883213356,-0.09819251,0.0348354,-0.188347518,-0.594945669,-0.188571051,-0.0254109558,-0.19181858,0.0146093462],[-0.130833283,0.258996665,-0.18469432,0.0315192677,0.208076134,-0.287103176,-0.0139343608,0.04391245,-0.05158028,-0.365202546,0.0254612584,-0.155621946,-0.121886648,-0.07908709,-0.269256145,-0.363542765,0.0501600876,-0.4436506,-0.3606874,-0.23607856,0.063948296,0.178233162,-0.209059954,0.06428969,0.084627375,-0.425879478,-0.326357365,0.213919073,0.05304502,-0.120145641,0.229809925,0.0450449437],[0.188047677,-0.152581513,0.140487283,-0.0356612429,-0.0267106332,-0.07570419,-0.183596075,-0.257717282,-0.1381238,-0.368263274,0.05027448,-0.0362040624,-0.103249706,-0.248339072,0.271285444,-0.499349475,-0.132217392,-0.5261578,-0.1948002,-0.3030673,-0.07674914,0.0111578917,0.2348242,-0.274765462,0.09900687,-0.136945888,-0.336405873,-0.2155498,0.402810484,-0.199567735,0.006263116,-0.209692225],[-0.216917679,0.203999177,-0.121581964,0.139182448,0.0665088743,-0.526503265,0.01691585,0.2973995,-0.211248562,-0.391442,0.165501669,-0.0442847274,-0.3976354,0.1969832,0.07662665,0.151047572,-0.000796536449,-0.7015589,-0.2508268,0.02969789,-0.0555491969,0.1407503,0.06096858,-0.042410858,-0.09368483,0.2736286,-0.0320225358,0.0148300231,0.0266864318,-0.05435859,-0.245222375,0.1279291],[0.1815694,-0.0241795629,0.0019507,0.26764527,-0.08112063,-0.199606717,0.126242712,-0.140204087,0.0379405059,-0.433888465,-0.191586316,0.1729943,-0.0273806714,-0.112127952,-0.208383292,0.0270400625,-0.0528544858,-0.503926635,-0.293176353,0.028394701,-0.02552946,-0.255489439,-0.372236758,0.0181726627,-0.3175597,-0.2123299,-0.0949341357,0.04859004,-0.08726883,-0.3159135,-0.260700643,0.1136166],[-0.112160638,-0.219300285,0.107141785,-0.014512293,-0.332430631,-0.244344547,-0.0376374759,-0.205817342,-0.447951943,-0.00736434665,0.3988126,-0.00999104,-0.0581263825,-0.1484682,0.17094107,-0.1711888,-0.143678129,-0.384124219,-0.28427875,0.0501226448,-0.216951773,-0.3155987,0.243131027,0.220581234,0.189565927,0.1926978,-0.552709758,-0.267845571,0.162313238,0.06672069,0.00951859,0.146020934],[-0.689130366,0.07820543,0.1909824,-0.256802678,-0.297609985,-0.281167239,0.07405715,0.0106783845,-1.186625,-0.43645978,-0.184595972,-0.0196836237,-0.394683063,-0.06815167,-0.318606079,-0.0254093483,0.018029565,-0.4850654,0.5876483,0.7959779,0.360754043,0.113104738,-0.0148619926,0.09248331,0.323296845,-0.1285838,0.368803024,-0.417168617,-0.0111806644,0.09675422,0.054212,0.4286217],[-0.121569484,-0.406420618,0.6602581,0.1213532,-0.399256647,-0.19988969,-0.008351287,-0.206798121,0.09844093,-0.589046061,0.169712976,0.0235264469,-0.138083756,-0.116916984,0.422960758,-0.07837264,-0.21028471,-0.709388554,0.0344133154,-0.674128234,0.274541855,0.3905951,0.09929725,0.708642244,0.0408852361,-0.260113448,-0.2963501,-0.226394057,-0.0540674,0.297850937,-0.18088761,0.0328796841],[0.12381012,-0.08451246,-0.0555506423,0.15563938,0.6186693,-0.0876928046,-0.0432899222,0.04486908,0.256965458,-0.807805955,-0.217306137,0.221559018,0.176679567,-0.4547028,0.2231922,-0.0101066474,0.102922127,-0.544353545,-0.0471409261,0.133184314,-0.1838616,0.137030482,-0.395336419,0.17402117,0.108711042,0.1461929,-0.5230626,0.08670331,-0.03129465,-0.4753966,0.02350161,-0.07558226],[-0.3043324,0.12103276,0.17068857,-0.0958112255,-0.3581694,-0.135520563,0.2565296,0.07658403,0.5617994,-0.0378789827,-0.008912507,0.100345217,0.237345248,-0.2925061,-0.169368848,-0.6355494,-0.2381301,-0.111552715,0.218783885,-0.211016059,-0.0618410781,-0.4622547,-0.118281871,-0.14856562,-0.0267376229,0.062475536,-0.6968815,-0.8324731,-0.287317,-0.243074626,-0.0134233162,-0.0613321476],[0.121614464,0.6184434,0.07275688,-0.09665242,0.303361237,-0.370816231,-0.5225802,0.115106679,-0.232472554,-0.6391092,-0.201275066,0.03278595,-0.176766291,0.132140473,0.23345837,-0.17903474,-0.2687343,-0.158761248,0.137693524,0.26459986,-0.17248109,0.287387282,0.245305255,0.3258585,-0.04236957,-0.117058769,-0.13652052,-0.8969766,0.201960161,-0.0194315929,-0.440815449,-0.115313],[0.3002787,0.0551952161,-0.08849935,0.007993491,-0.00202007312,-0.165323481,0.196366638,-0.0468793474,-0.163971469,-0.467864752,0.241246536,-0.08942015,-0.117572933,-0.0970035046,0.494214952,-0.2396772,0.11371357,-0.503797352,-0.464066356,-0.140201733,0.152649641,0.3235894,0.158470616,-0.2295773,-0.09750218,-0.0469343066,-0.229460016,0.101606458,0.325388342,-0.267099828,0.127273843,-0.139801323],[-0.401116371,-0.02022483,-0.3286257,0.06651019,-0.1597883,-0.205991045,-0.08517666,-0.112207733,-0.209314883,-0.28510645,0.0185762122,-0.0320588276,-0.158467934,-0.5170425,-0.0472094826,0.0562735759,-0.408248782,-0.419447154,0.04102692,-0.235501975,-0.276673049,0.188518152,0.238189533,-0.05827789,-0.0254408121,0.192732081,-0.109825589,-0.225963548,0.00649553631,-0.230097368,-0.12578252,0.6279249],[0.4926063,-0.133027881,0.159129724,0.0224985741,-0.326952755,0.225225285,0.312995225,-0.279114366,-0.3663106,-0.158567086,-0.2579436,0.3656773,-0.8173707,0.545695662,0.160439044,0.911335349,-0.362467021,-0.718873143,-0.9613774,-0.338963121,-0.0217702016,-0.379919529,0.180982262,-0.1833458,0.240177229,0.07951076,-0.32547453,-0.293661416,0.2639888,0.983412862,-0.0175766759,-0.2258376],[-0.1930371,-0.393412679,0.5762678,0.0162618756,-0.1553709,-0.240419522,-0.582799137,-0.24011752,-0.35270685,0.367146,0.128067419,0.10015966,0.305530429,0.6360758,-0.460313737,-0.8162897,-0.150297463,-0.98398006,0.0113451034,-0.452490062,-0.231150866,-0.08647929,-0.744081438,-0.364102751,-0.335117131,-0.0415888019,-0.2553438,0.280076861,-0.108696088,0.143846855,-0.170723245,-0.523816645]]],"layers":[131,32,32,17],"Cost":9.992765E-07},"intentNetwork":{"biases":[[0.206651837,0.6630391,0.190711454,0.234278426,0.4227283,0.0187644418,0.260229975,0.4517162,0.00136228628,0.317478478,0.5930106,0.335844636,0.223720625,0.2639563,0.207780212,0.350484878,0.0728229,0.2360059,0.372491419,0.1423817,0.08588902,0.722858667,0.107019916,0.256798118,0.0880822539,0.0343498029,0.2033572,0.5957417,0.107332535,0.26341626,0.239652157,0.251809537,0.530461669,0.353078127,0.1081647,0.9408392,0.44028914,0.423683435,-0.021472631,0.6054328,0.271665365,0.530328155,0.0798495039,0.3598387,0.18257013,0.165183663,0.322820157,0.5542533,-0.165528432,0.241181687,0.333044916,0.253685564,0.446738273,0.703976035,0.0639725849,0.422255516,0.10087692,0.2699799,-0.124045774,0.196984529,0.164383247,0.194361255,0.1608778,-0.18058981],[0.343045771,0.2644897,0.3249809,0.076328285,0.03692344,0.304636985,0.0775041953,0.1554361,0.190454811,0.15178372,0.158963159,0.0167398658,0.157927513,-0.054177694,-0.00102827221,-0.0632803142,0.0588763766,0.09203103,0.172366291,0.09062242,0.08439465,0.243621856,-0.022619199,0.00304899062,0.256024539,0.107764982,-0.0752384,0.66332835,0.11967843,0.007760744,0.196959078,-0.04358767,0.0422369577,-0.03403828,0.028622346,-0.0431471467,0.333012164,-0.00895632152,-0.031118324,-0.0214592461,0.142950833,0.160013035,-0.126391456,0.1342762,0.437374324,0.211955145,0.147527143,0.177642673,-0.0300184377,0.4693167,0.0273960214,0.0494106337,0.03346362,-0.0231973678,0.0253180563,-0.0112611838,-0.0506246239,0.121668786,-0.0404886976,0.0212468076,0.206178948,0.3523343,0.03977933,-0.06912816],[-0.236833245,-0.410063058,-0.304413825,-0.309035778,-0.3618629,-0.363799721,-0.416892141,-0.3448776,-0.3094488,0.101047873,-0.4144771,-0.288350821,-0.3511028,-0.351576358,-0.29726994,-0.392874748,-0.3060996,-0.4806116,-0.373989165,-0.2929713,-0.312125236,-0.230666384,-0.28255716,-0.223522916,-0.3336392,-0.2848817]],"weights":[[[0.06915492,-0.0572314821,0.052226752,0.0241665021,0.159334928,0.00230330531,-0.24874869,0.161700591,-0.060564667,0.01930249,-0.4155846,-0.0336325839,-0.09705849,0.136221632,0.143664047,0.226192564,-0.06478884,0.468919575,0.319029957,0.0141606424,0.5349554,-0.118266523,-0.2901066,0.236919135,0.01588333,0.293211967,-0.0303366482,0.165579632,-0.09707746,-0.04595801,0.06349968,-0.103870347,0.20611012,0.0178713,0.156343579,-0.275806129,0.207386822,0.360784024,-0.132769987,0.219352722,-0.31785804,0.1738878,0.206578761,-0.12872164,-0.33535853,-0.108999386,-0.0119942036,-0.25998944,-0.03944821,-0.0447349362,-0.12458688,0.0111860093,0.00399566349,0.09615817,-0.108127221,0.261642367,0.358396083,-0.192459479,-0.0602334328,0.195929766,-0.100136384,-0.112328179,-0.0514491,0.133224413,-0.04382335,-0.125150815,0.355134845,-0.235083416,0.0463381335,0.0433292054,0.261511415,-0.123986371,-0.230767444,0.169154257,0.1724694,-0.0395246632,-0.0796898,-0.27573818,-0.09047229,-0.26215446,0.0240046456,-0.106372975,0.06678581,0.325221479,0.155525416,0.008638577,-0.059968695,0.177841157,0.431931168,0.08349743,0.04782235,0.170692816,0.189464554,-0.04104355,0.212615937,0.127132475,-0.08080088,-0.0438401625,-0.08409848,-0.183523238,-0.249173731,0.182942092,-0.127494365,0.07479443,0.162521482,0.100485995,0.06538343,0.0217923447,-0.0322918929,-0.05208134,-0.0152212633,0.0262164753,-0.240564764,-0.286454439,-0.0344778374,-0.09093323,0.13850826,-0.167397767,0.0237336773,0.02352168,-0.147371486,0.3105496,0.118613116,-0.192806423,0.151153,-0.025822632,-0.120520167,0.206212536,-0.233143955,-0.01894076,-0.315941483],[-0.0125615131,0.128428683,0.0403516,-0.2690048,0.117815748,0.0466275848,0.00535454834,0.193940237,-0.08003224,-0.181749478,0.05573456,0.160365179,-0.0400500968,0.01589611,-0.22530961,0.0723844841,0.115706369,-0.0523426235,-0.0298201125,-0.30931294,-0.130861342,-0.258917451,0.021521287,0.430664778,0.08900574,-0.16747354,0.0866268948,0.180339143,0.18010363,0.114523068,0.0502691753,0.2399275,-0.201997161,-0.133801535,-0.133768171,-0.264774352,0.0236684643,0.4211887,0.1446059,0.230071247,-0.0215307847,0.10019099,-0.4005315,-0.0725926757,-0.160385609,0.263844222,0.08949146,-0.0327262469,0.012750404,-0.163093761,-0.116676129,-0.04285774,-0.186940387,-0.0267120469,0.0315510035,-0.2979903,-0.005303838,-0.09371526,-0.409885019,-0.06276651,0.00932678953,0.022267092,-0.0272378586,0.178477541,0.0107915914,0.0481254831,0.07277758,-0.1032287,-0.15683417,0.3520208,0.200668424,0.10601788,0.263043374,-0.0698722452,0.09838007,0.028338382,-0.03597494,0.4688029,0.0613134,-0.153478727,-0.182821959,-0.176456213,0.1530512,0.311387748,0.202683613,0.012447061,0.214874968,0.0352028757,-0.03380739,-0.2056239,0.00748106837,0.09691386,0.08517997,-0.204699427,0.02434724,0.237122163,-0.14346911,-0.254693866,0.153948039,-0.0382399932,0.2102305,0.112392358,0.137645334,-0.0337846167,-0.0166482255,0.456192523,0.2784345,0.210010663,-0.00219228654,0.119205311,0.07054685,-0.0788553953,0.232214615,-0.179612786,-0.002896324,0.0225026589,-0.0613810234,0.04721412,-0.109254405,-0.234786525,0.00163545506,0.103641212,0.241131589,-0.06626814,0.311623037,0.09552515,0.04741636,0.0985718742,0.06354696,-0.04731175,0.335005641],[0.00710839964,-0.356271684,-0.158480182,-0.0223626643,0.249829844,-0.04870621,-0.150047556,0.0336522162,-0.1365031,-0.104434781,-0.06009337,-0.097629,-0.042984996,0.0413145944,-0.04837048,0.03406803,0.1586734,0.109938651,-0.0595469251,-0.152357131,-0.09582413,0.0652134046,0.0578802377,0.0190328676,-0.108006172,-0.080786936,-0.03429241,0.254736066,-0.08128191,0.106750406,-0.314373374,-0.245450541,-0.271033525,-0.3094673,0.05457052,0.0503932461,0.00741846627,0.21962975,-0.105598435,-0.09644685,-0.112374626,-0.222888365,-0.322069764,-0.09748422,-0.08489367,-0.30784145,0.00551091554,0.0834619552,-0.146614343,0.0845486745,-0.143047765,-0.0929801,-0.164252281,-0.06515315,-0.01418101,0.030213533,0.124570489,-0.187446371,0.118862629,-0.07512271,0.00197917456,-0.119783238,-0.123180963,0.05584051,0.06328537,-0.03764947,0.1653333,0.06551503,0.1581106,-0.111509554,-0.04123345,-0.160343066,-0.04737624,-0.0531186461,0.09698498,0.115896732,0.0648923144,0.186489686,-0.149236679,-0.1293487,-0.0856717452,-0.3899683,0.3329485,0.291600764,0.1359883,0.141099766,0.14917703,0.00585411349,0.129861951,0.07109969,-0.06946696,-0.124815755,0.1424737,-0.14984338,0.0857588,-0.08380293,0.004281068,-0.0620880835,-0.0554651581,0.151326478,-0.0238877609,-0.08757353,-0.134741619,0.126313612,-0.01832521,0.211729273,-0.06934139,0.008206165,-0.1021223,-0.200744718,-0.09795533,0.156222329,-0.106653236,-0.217365071,0.259559155,0.369151056,-0.130275071,-0.03997893,-0.06937749,0.110176094,-0.0685970038,-0.0106150946,-0.108469605,-0.0486673862,-0.01452867,0.0404413678,0.07999701,-0.06982363,-0.106806166,0.181931227,0.358714],[-0.00780030759,-0.218445957,-0.172539368,-0.02688749,-0.05560776,0.139517546,0.0140548972,-0.00667888671,-0.1804693,0.07841791,-0.147028878,0.09109864,-0.1082999,-0.09787191,0.002877734,0.05254512,-0.147932485,-0.746078432,0.210566044,0.174567744,0.135333732,-0.09753862,-0.074578315,0.151336223,-0.09383688,0.490423769,0.254542947,0.241913423,0.368697941,0.3161701,-0.0516697541,0.0249155965,0.0926867053,0.208777234,0.09803741,-0.225865975,0.1606844,-0.1277096,0.00633131247,-0.106579453,-0.00703493366,-0.131433323,-0.166094527,0.101255335,0.138715312,0.305376858,0.0165675953,-0.12992233,-0.110241063,-0.06865299,-0.142720684,0.041655384,0.160081685,0.170989469,0.121040553,-0.0245347451,-0.03888716,0.513884664,0.471914232,0.290928125,0.03622398,0.3648174,0.09055594,0.0126682669,0.1266345,0.0478512943,-0.0513549447,-0.150375009,-0.09574743,0.201660618,0.236580938,0.146260038,-0.169325575,0.06812617,0.0004923323,0.009696734,0.0166673772,-0.172013238,0.07717657,0.0129759833,0.0871859044,-0.0705744252,-0.330514461,-0.0301242732,-0.238811255,-0.08900848,-0.07259587,0.195356771,0.229855925,0.0286256857,-0.0730783641,-0.230503127,-0.008119933,-0.0211536437,-0.0730388463,-0.160234883,-0.0542272367,-0.06333989,0.06524043,0.0567504,-0.181630284,0.198302656,0.008717613,0.06737516,-0.04248575,-0.0209561121,0.0142749492,0.217919782,0.14353402,0.0818421,0.0673360154,-0.0873123556,0.274054676,-0.452755928,-0.13725926,0.165487513,-0.276891828,-0.0294855684,-0.243366748,0.07806666,0.0931703448,-0.2314861,0.02337882,-0.09646522,-0.0606116019,-0.0606807,-0.181833088,0.0469191559,-0.00235849712,0.1862612,0.19123365],[-0.104627147,0.259240478,0.0439733639,0.0132299587,0.02059429,-0.113865778,-0.04698329,-0.07623567,0.128873631,-0.197809115,0.00208848622,-0.0176735688,-0.0739143,-0.267270982,-0.26996392,-0.03702603,-0.05352045,0.0638515353,0.278826654,-0.0559235029,0.07103944,-0.155293718,-0.196621686,0.149534568,0.218425989,-0.194510311,-0.214865535,-0.03553626,-0.30075866,-0.3254131,-0.0455778949,-0.139637977,0.186364621,-0.0207840633,0.08516303,-0.225520462,-0.05148967,-0.019632278,-0.0556231365,0.183279008,0.0388337336,0.188876092,-0.3320665,0.0196353421,-0.0598394126,-0.188654914,0.0994726047,-0.0687063,0.0494561978,0.319953471,-0.0796873,-0.128157929,0.523653865,0.0765216053,0.0223866738,0.433079123,-0.102416076,-0.0213460866,-0.379152954,0.232972652,-0.218186259,0.102296762,0.09884115,0.05936345,-0.04221528,-0.0201201979,-0.229175791,-0.2428051,0.113542922,0.07784444,-0.333642244,-0.04224931,0.15029721,-0.008241009,0.0976906,0.2322846,0.067014344,0.184363142,-0.121058516,-0.104116149,-0.342729449,0.0575177744,-0.02525917,-0.08555304,0.005721635,0.162204579,0.00443293853,-0.0447396338,-0.0189140923,-0.123492539,-0.0240178648,-0.171355486,-0.0246710852,-0.03514581,0.06966572,0.09399648,0.140141562,-0.211541936,-0.10505753,0.290150076,0.666832447,0.08234607,0.104071826,0.051228635,-0.226795956,-0.264454722,-0.197683722,-0.09335725,0.103096247,0.154970959,-0.158113718,-0.06639353,-0.03163485,0.5229064,0.008351985,-0.0151966438,0.0003786381,0.13040252,0.0181842819,-0.105613023,0.194894388,0.008313082,-0.08958103,0.0350649953,0.168607414,0.0128553547,-0.180839285,-0.0296174269,-0.195047945,-0.00107879692,0.369788021],[0.4668846,0.280921429,0.153589338,-0.120206028,0.141616777,0.0332753621,0.139822111,0.0290557332,-0.140851319,-0.05332949,-0.101878889,-0.03230282,0.0254660677,-0.0367251448,0.2689735,0.0151315574,-0.154505923,0.2240245,0.11332266,-0.2540082,0.212730691,0.148286983,0.221600786,0.320037,-0.003264419,-0.02363723,-0.0488006435,-0.156834051,-0.0413519628,-0.0784647241,-0.293387324,-0.258835644,0.0543482453,0.0391097739,-0.2862259,0.29028824,-0.162232757,-0.08867399,-0.241251186,-0.061496824,0.03976105,-0.03275736,0.06487327,0.07663917,-0.214061588,-0.153711155,-0.312485784,0.09776378,0.0114772394,-0.0492871664,-0.2566369,-0.04764329,-0.164169788,0.0009697232,-0.09807927,0.115043938,-0.0832145438,0.180011377,0.199968338,-0.110540636,0.122755624,-0.189613923,0.3251857,0.115645573,-0.289887816,-0.125493661,0.00786477,-0.139840737,-0.251908034,-0.0011517005,0.308364749,0.0526478365,0.264418155,0.0823414847,0.0401583277,0.160295427,-0.198031723,-0.09030583,0.104600929,-0.171497479,0.08469153,0.114691146,0.0252166,-0.25704357,0.0111351125,-0.0479773842,0.0132279694,0.09150512,-0.3653512,-0.104709737,0.5421775,0.140870467,-0.067563884,0.1290406,-0.0371276028,0.07747693,-0.282705843,0.201007783,0.03855188,0.1467326,-0.09752666,-0.09770228,0.00315337069,-0.279368043,0.10601522,-0.119382352,-0.0342185162,-0.2313362,-0.118485123,-0.140310228,0.154661953,0.0416472256,0.112459622,-0.22220467,-0.044579614,-0.0540452264,0.0587871745,0.30820936,-0.177259609,0.052466508,0.118745483,-0.00386697031,-0.17485629,-0.0415784,-0.1352236,0.174781173,0.0203180872,-0.113781862,-0.101349518,0.267236382,-0.242791563],[0.417934716,-0.133176342,-0.118630104,-0.0256619267,0.109910838,-0.0384612866,0.0448121764,0.0109718749,0.124953732,0.116540916,0.169913664,-0.0335240625,-0.08374749,-0.0124364886,0.03726639,-0.178225651,0.10229069,0.234076887,0.03168133,0.153733239,0.1831344,-0.000472543528,-0.09770429,-0.302952647,0.166539982,-0.0152878212,0.111766815,0.156063691,-0.0324472673,-0.119224548,0.230532646,-0.018484341,0.0196827538,-0.3465321,-0.111864567,0.0928432345,-0.03361725,-0.219975621,-0.4307859,-0.033031486,0.290554345,-0.248685986,0.235576391,-0.293675154,0.0259884167,0.146825239,-0.0177312512,-0.0962944552,-0.213243157,0.323892117,0.0321990661,-0.04221804,-0.09690529,-0.140344739,-0.206431329,-0.07118107,-0.169727951,-0.0158403832,0.510353148,0.215287372,0.39440605,-0.0198819172,0.0420599654,0.230499536,0.268738657,0.285141081,0.149620324,-0.2260716,-0.128627524,-0.151442513,-0.3665979,0.09978474,-0.121424854,0.334406525,-0.267688274,-0.001939662,-0.130670279,0.185807779,0.09317976,-0.333296567,0.00459360052,0.041247163,-0.127173677,0.155819729,0.3027565,0.111253992,-0.01117606,-0.167756215,0.035053134,-0.26868242,-0.222778261,-0.169133544,-0.13532865,-0.190899611,-0.214803234,-0.0835466459,-0.0229221862,-0.0955697149,-0.07482973,0.164556876,0.6830115,0.0973108262,0.224320471,-0.105491079,-0.250413358,0.0114215128,-0.278591931,-0.3593635,-0.0395120643,-0.7023445,-0.2949869,-0.150081053,-0.0628856,0.636012733,0.162737057,0.06292614,-0.054847762,0.106628932,0.0175675973,0.264782935,0.0356765948,-0.165860474,-0.206883371,-0.0316389538,-0.27528742,0.153134882,-0.0316888541,-0.0270718839,-0.06161284,-0.03995011,0.213306],[0.0270154625,0.02872128,-0.06149211,0.06168025,0.20090656,0.1350788,-0.1179375,0.0108702863,0.3333877,-0.0214559678,0.02820342,-0.142857656,-0.165275037,-0.0228850245,-0.0432836525,-0.13414754,-0.07700102,0.00534960441,0.04171153,-0.020885203,-0.0989679545,-0.14043051,0.187663615,0.210888878,0.215011269,-0.0385076553,0.148800835,-0.06785319,-0.0487196743,-0.07200186,-0.227005988,-0.0207763482,0.160204485,-0.08271918,0.009526296,0.236073464,-0.06669058,-0.140250146,0.151947737,-0.129418448,0.05373422,-0.198181614,-0.0655223951,-0.00771077,0.0148692168,-0.113560952,-0.230909556,-0.1782578,0.03410348,-0.128795817,-0.176770091,-0.33926627,0.210310072,0.214183033,-0.06791386,-0.0304197818,-0.274577439,0.0236320086,-0.16347304,-0.0229315329,0.0448681936,0.0222872868,-0.04235051,0.0746813938,-0.00332842418,-0.067412816,-0.20386979,-0.0863067061,-0.1332913,0.141720712,-0.004185331,-0.03183834,-0.138503015,-0.275743663,0.0115808891,-0.177003145,0.208143115,0.29863748,0.0108440528,0.2307005,0.08081361,0.127726957,-0.03285776,-0.141063526,-0.126508638,0.002378608,-0.0427771062,-0.26362738,-0.2862363,-0.129647791,-0.296349376,-0.202869654,-0.42196998,-0.008766597,-0.211287662,0.00100351311,-0.08886214,-0.0483330823,-0.00390036055,0.0239750948,-0.26406166,0.0441004634,-0.14953661,0.137230441,0.03690859,0.1540287,0.08794763,-0.192621,-0.06526361,0.06801829,0.230871856,0.218531221,0.124614008,-0.315253556,0.318039149,-0.1278057,0.006061997,0.0164333116,-0.198252633,0.01299449,0.3560907,-0.0529123,-0.0523268878,0.2677451,0.183444247,-0.08003677,0.116469182,-0.0105687249,0.246198922,-0.0773002,0.3637776],[0.0545159541,-0.3385393,-0.08339704,-0.03263772,0.173136592,-0.0172101464,0.008542097,-0.111215219,0.0454914533,0.0524220839,-0.0217337254,0.0188662838,-0.157875523,0.2224994,-0.2411091,-0.03321414,0.1274028,-0.0511475019,0.148365647,0.0397745036,-0.039004378,-0.129580766,-0.0475018956,0.204086125,-0.14657715,0.03502887,0.1553762,-0.152958944,-0.0361801162,-0.125975549,0.199051723,0.08370679,0.166192055,0.174220026,0.117283039,0.110398427,-0.0857721344,-0.08777187,0.305095553,0.1640156,-0.18072769,-0.171432957,0.08731453,0.00845222548,-0.0104797175,0.118164234,0.130203992,0.08889432,0.138411239,0.118601754,0.0212301463,-0.1457525,-0.132638961,0.236757681,0.10548301,-0.300899237,0.098596476,0.131164625,-0.04729092,-0.0515117571,0.289959282,0.07322814,0.349795669,0.0635191947,-0.04543335,-0.0006830885,-0.1093782,0.00104127859,0.023758838,-0.01167283,0.450338423,0.06180333,-0.0538654141,0.212918371,-0.179708987,0.130015686,0.06299948,-0.05694818,-0.173728272,-0.180566728,0.118193917,0.002881914,-0.016795408,0.1094317,-0.282180846,0.0316739827,-0.0732786953,0.181914657,-0.180652052,-0.06998407,0.421484381,-0.0914183,0.320684075,-0.110150814,-0.09071868,-0.1082132,-0.196676046,0.09643608,-0.0454293676,0.175596744,0.05325229,-0.05611047,0.00613161735,0.03344934,-0.01029713,-0.0637677237,0.177056879,0.181044117,-0.10474135,0.201014891,0.263063073,0.216011152,-0.101840675,0.270454526,0.00604144344,-0.0586695746,0.16217272,-0.125187561,0.0926770344,0.107034408,-0.03439955,0.072365135,0.0644151,-0.05796159,0.0406303778,-0.1294444,-0.059809152,0.150052279,0.0599733777,-0.06331217,0.10627462],[0.09627761,-0.0604838431,0.249848172,0.127671272,0.09171717,-0.0250543244,0.0636451542,0.114466481,-0.117583759,0.07383122,0.105031237,-0.116915412,0.07081555,-0.1837442,-0.07346188,0.00114922132,0.126090109,0.561554849,0.106343716,-0.07126738,-0.07785021,-0.118161649,0.1653067,-0.0141320033,-0.00319883041,0.0383952744,0.109855935,0.17144084,-0.233867913,-0.213410869,-0.0234396253,-0.234539643,0.102875754,0.178891361,-0.121755011,-0.134920627,0.0127147706,-0.008883019,0.0335762054,0.00301371282,0.0864231437,0.0335999057,0.317016184,-0.0480930135,-0.129748777,0.09233197,-0.230545729,-0.0698810145,0.0518578626,-0.212113425,0.0394291356,-0.149470508,0.215546742,0.127561256,0.37861684,0.00529442029,-0.198654026,-0.00131589524,0.157452166,0.0113637606,0.071705766,0.0626979,0.0372489877,0.256653935,-0.0117972512,-0.0314808376,-0.158908978,-0.0692061856,-0.2271117,0.04155678,-0.1343462,-0.0787348151,-0.233929753,-0.0614000149,0.228809208,-0.00594187,0.34358,-0.1637145,0.5097378,0.14309606,0.07539927,0.434770167,-0.03388679,0.237499774,0.0275623444,0.3153158,0.0380555056,-0.09539743,-0.2628314,0.230537817,-0.4136686,0.2946075,0.102124475,0.235196412,0.531476855,-0.0596319176,0.09610287,-0.0368791781,-0.08783383,-0.09489835,-0.101723365,0.004051377,0.2790028,0.217891037,-0.004100606,-0.2678157,0.0953503251,-0.036614228,0.11938706,-0.173534855,-0.105910175,0.2733147,-0.3754066,0.125992268,-0.021458989,0.0378535166,0.145026967,-0.164291441,-0.0217469428,-0.08369513,-0.0890505761,-0.326191455,-0.05445274,0.106780335,-0.18155928,-0.2024775,-0.00286935573,0.108689308,0.06867804,-0.0601509549,-0.206853315],[0.565639138,0.0846290961,-0.0370987244,-0.105464384,0.106255129,0.126966536,0.07176315,-0.0852908045,-0.183472231,-0.0188529529,-0.00676212553,0.149867028,-0.162975758,-0.181664079,0.05313122,0.135103539,0.0433011949,0.2953977,-0.2563893,-0.124979578,-0.0656472743,-0.08559097,0.125646457,-0.120158777,0.252291,0.107581526,0.364696771,0.2119216,-0.008700754,0.0486294739,-0.07265409,-0.174832657,-0.224640861,-0.214787751,-0.0614729747,-0.210992277,0.036908742,-0.0388311744,0.16293706,-0.255321056,-0.0257988349,-0.339472175,-0.176781163,-0.04567481,-0.0715809241,0.11449901,-0.170128852,-0.28438592,0.1511637,-0.483076245,0.0820229053,-0.0814768746,-1.22432661,0.102626763,-0.0249843132,0.0433220081,0.144993156,-0.155579492,-0.645722747,0.174062237,0.08130633,-0.170271054,-0.04408056,0.07296225,0.06271153,-0.104382828,-0.08475745,0.227134436,0.00917437952,0.1477941,0.198751375,0.178718209,0.07204404,-0.133623049,-0.307076275,0.028538201,-0.0147038614,0.162253171,-0.06776704,-0.07464843,-0.1382526,0.0298576057,0.2371759,0.407692432,0.0609290339,-0.2059276,-0.09551382,-0.08431778,-0.122155234,-0.0324749053,0.303054333,0.04139237,-0.03190572,-0.10404598,0.167760253,0.2431166,0.0717442557,0.2672169,-0.1473269,-0.249305055,-0.524021149,-0.3618568,-0.0363472179,0.146708891,0.0379381068,0.08242248,-0.0873724,-0.244931072,0.16512008,0.03872499,-0.2781864,-0.115187243,-0.188593686,-0.145427987,-0.142740309,0.09459326,-0.200214967,0.0113106854,-0.321165651,0.0115772858,-0.0794095844,-0.0918798149,0.0545525849,0.5777017,0.001632261,0.239696458,0.0775122941,0.114595942,-0.0955475,-0.0992386639,0.2872262],[-0.204428777,0.150346622,0.07181169,0.193026647,0.19529666,-0.214165509,0.05869087,0.0588438176,0.07821394,0.2498878,0.298783749,-0.168301523,0.4285905,-0.00149539439,0.010542674,0.0785302147,0.0545845,-0.179264426,0.0248950534,0.04314304,-0.199456155,-0.122099943,-0.11257796,0.08177364,0.009949769,-0.0164132379,0.3799519,-0.260696083,0.4939668,0.10542383,0.193284541,0.07710188,0.170577422,0.05799511,-0.09661392,0.412536681,0.109101668,-0.0457523465,0.108157627,0.00342437113,0.239255369,0.363975227,0.1825709,-0.00536087248,0.06997595,-0.103973411,-0.011030037,0.07368273,-0.260978758,-0.296540856,0.025830131,-0.08592566,-0.13139683,0.0536357164,0.107830696,-0.134678155,-0.3073115,-0.317075551,-0.100869842,0.177567586,0.179077744,-0.0702307,-0.180993617,0.16997695,-0.1976163,-0.0490775444,-0.11174871,-0.0869358,0.2464142,0.05364345,0.186567679,-0.08201399,-0.122805178,0.0257946216,0.07452126,-0.120827809,0.3153965,-0.0634224862,0.226329923,-0.09288922,-0.143022329,0.002709018,-0.09356395,-0.03656141,-0.07898504,0.155893967,-0.146187469,-0.072308585,-0.125369743,-0.1046766,0.1857181,0.144333422,0.122773752,-0.251622677,-0.1690058,0.15887019,0.007436946,-0.158712208,-0.3428772,0.10010802,-0.0505029261,0.26377,-0.282607168,-0.212079361,0.363578528,0.3464062,-0.126356885,-0.163699165,-0.143869579,-0.115421183,-0.0312818661,-0.00171642913,0.164641991,-0.114382394,0.102366529,0.1453273,-0.0734330043,0.06606337,-0.08934094,0.152465478,-0.121348791,0.06315694,0.0741407,0.0325116925,0.402272582,-0.114339463,0.09633248,-0.08631792,-0.157440141,0.307339638,-0.1665574],[0.249904647,0.0547539666,0.0830241144,-0.07552811,0.0311975516,0.112829655,-0.288210839,0.0142655885,0.2690204,0.0547744855,0.0476865023,0.0892117247,-0.289175838,0.28963992,-0.009423801,0.163306519,-0.246261492,0.6237815,0.0733082,0.157555252,0.271007627,-0.2188784,0.107858934,0.201694667,0.06836838,0.258316934,-0.0892102,0.108194657,-0.0147079062,0.181261972,-0.135585248,-0.244538561,-0.0438384227,-0.07998871,0.122097649,-0.10783571,-0.08133607,0.193718,-0.132130131,-0.0145858219,0.09323098,0.1366875,0.158930987,0.2656364,0.113456108,0.06098322,0.249865711,-0.354258239,0.0559577867,0.286774129,0.09372253,-0.0511600375,0.25756678,-0.008049757,0.2988892,0.170194328,-0.138331652,0.0598142631,-0.0152400294,0.174741477,0.125278547,-0.103515379,-0.0264692847,0.116611578,0.101245366,0.131357133,0.20860064,-0.174524412,-0.13796778,0.119968757,0.184829548,-0.0577294528,0.306414366,-0.005316124,0.0584976226,-0.0149915107,0.205671072,-0.244085118,-0.188035,0.0137573415,-0.06711899,-0.07000279,-0.232700154,-0.130203724,-0.121477962,-0.121556982,-0.0551253,-0.00150774245,-0.24384065,0.166240588,-0.213253617,0.161488876,-0.0511825942,0.0515599474,0.04245548,-0.004976539,-0.024136493,0.09110816,0.0141732264,0.187766641,0.5674379,0.285579056,0.163949519,-0.054964792,0.034540616,-0.235627562,-0.1661081,-0.07030493,-0.07436655,0.190506384,-0.07424061,-0.028826315,0.212448716,0.351262867,0.0125632873,-0.010517898,-0.3691354,0.09712458,0.3014283,-0.189938709,0.0534689873,0.04999602,0.104627833,0.08840789,0.0199717339,-0.0176676568,-0.0270333067,-0.0138458386,-0.0923445746,0.00318056182,-0.22968474],[0.05090031,-0.2919635,0.03334535,-0.08409836,0.13814941,-0.115143739,-0.08893446,0.0981514454,-0.00366985914,0.00996327,0.05808131,-0.0135537619,0.07411824,0.26596114,-0.0701807439,0.0483154878,0.115889959,0.453948319,0.05789128,-0.127366439,0.150178179,-0.0169768929,-0.0341091,-0.06480924,0.0201110486,0.038767077,0.22855255,0.109573036,0.18948102,0.296872348,-0.003173468,0.04802982,-0.0325901136,0.483270735,0.0280276071,-0.274683237,-0.0979476,0.10089317,0.009819884,-0.021153057,-0.121249571,-0.1571368,-0.05658822,-0.363938332,-0.07621675,0.1350922,-0.163885877,-0.111290157,0.0535438135,0.0386046022,0.297241628,0.136090532,0.587865055,-0.08671711,0.04514874,-0.0910408348,0.0257359315,-0.109204672,-0.3306976,-0.21695672,0.04951949,-0.0039944,0.1692274,-0.295334041,-0.06092965,-0.156055078,-0.177385211,-0.08098489,0.07989248,-0.05161536,-0.08708892,0.15736641,0.140037015,-0.142352238,0.231319174,-0.05977801,-0.08888796,-0.248035178,0.238071859,0.012009549,0.237423345,-0.147449434,0.129913539,-0.07757615,-0.3789955,-0.213068038,-0.2038632,0.05263424,-0.14906314,-0.02111226,-0.313415855,-0.102230594,0.09743952,-0.07953161,-0.0773267448,-0.303392,-0.0153255295,0.0779892653,0.05539543,0.056421265,-0.259194285,0.10077706,0.07566796,0.187006518,-0.008967312,-0.03739061,-0.0744634643,0.07583768,0.221679226,0.37936148,-0.271992981,0.3763129,0.176351577,0.146223024,-0.0163129885,-0.02501977,-0.238385022,0.008850786,-0.219449922,0.03384119,0.0669788644,-0.09910663,0.09734844,0.052867692,0.2602575,0.0613845438,-0.129755765,-0.0582730472,0.0300630946,0.17621927,0.0386956371],[0.561023831,0.106371731,0.05353198,0.05050277,0.18124257,-0.175767839,0.01958317,-0.181839049,-0.324560255,0.004121291,0.155702174,0.05893545,0.068128936,-0.06414348,0.272647619,0.275456876,0.05399234,-0.340672672,0.2672582,0.0341114253,0.314041585,-0.0191843733,0.10988877,-0.214839771,0.124110661,0.1285234,0.157991022,-0.0533000156,-0.1707537,0.343083322,-0.174448922,-0.114630505,0.0328692459,-0.197742581,-0.2073367,0.131243244,0.04209645,0.000133678492,0.39382714,0.122342423,0.305231,0.00616286276,0.0775835738,-0.1470504,-0.06605802,0.0298407637,0.455262959,0.369465053,0.309611142,-0.141409874,0.3416064,0.321702957,0.399298638,0.195900887,0.246691942,-0.0602591969,0.0349913351,0.0780584738,-0.16148749,-0.107388355,0.2950617,0.169518426,-0.012909078,-0.0304809846,0.0172535777,0.0492448434,-0.0437615626,0.0624914952,-0.219692558,-0.3163603,-0.149621546,-0.18233,-0.585054755,-0.188881651,-0.187550917,-0.199199751,-0.19369483,-0.377296627,-0.1296297,0.126067311,-0.0283409953,0.01921772,-0.278066933,-0.018335497,-0.09116401,0.096309,0.2866244,0.039252162,-0.03803068,0.4055771,0.17873624,0.06664156,0.201558232,0.283556223,0.321203232,-0.179807618,0.170839578,0.03800388,0.108438924,0.116682231,-0.3448462,-0.176301539,0.0177540481,-0.03249066,0.0304706078,0.07598215,0.0126050729,-0.0403615162,-0.4271119,-0.349036753,-0.3579083,0.0139232473,0.131305128,0.385084867,-0.103819013,0.153253883,0.223747775,0.368274152,0.1684135,-0.131474867,0.1745679,-0.133532584,-0.274550855,0.06114109,-0.03107093,0.0658393949,0.09154442,-0.195464626,-0.181585789,0.0154586826,0.1386441],[-0.305646062,-0.0278176088,0.2069741,0.0448836461,0.169972464,-0.2167106,0.006610622,0.08700143,0.3038008,0.106903933,0.0293751,0.141979977,0.194899976,0.0414566919,0.009682767,-0.2872026,-0.104479738,0.05657761,-0.146059632,0.00271236547,-0.144313723,0.07481944,0.0240071658,0.07346263,-0.274024427,0.146598518,0.03185377,0.05701184,0.0997168645,0.0761519,0.283960372,0.2471704,-0.0593872927,0.0168614052,0.005422075,-0.229548216,-0.173937738,-0.117760427,-0.220707491,0.375145465,0.25096938,0.189331427,0.0325904451,0.1728405,0.186559632,0.00739292055,-0.138627768,-0.0457176529,-0.011707237,0.0277598184,0.176425412,0.2345145,0.131412685,-0.17833218,0.139096782,-0.190717936,-0.07704878,0.142190009,0.511085,0.204378575,0.08285935,-0.04022004,-0.215316728,0.162298635,0.08430879,0.03912544,-0.195010155,-0.0851184949,-0.0496692955,0.0488723926,0.112867877,-0.06342825,-0.11563012,-0.5140801,0.01137143,-0.25605616,0.128459245,0.1385554,-0.1778025,-0.000480211049,-0.245887265,0.0260448065,-0.172064513,0.0603529327,