{"contexts":["default","chitchat","user","person","story","book","call","calendar","calendarAdd","wordSoccer","ticTacToe","RPS","guessToTen","rndNum","quote","search","news"],"contextIndex":0,"intents":["indefinite","about","preferences","greet","mood","weather","residence","sugestSearch","interjection","approval","call","calendar","calendarAdd","wordSoccer","ticTacToe","RPS","guessToTen","rndNum","quote","rndStory","battery","time","search","news","TTS","rndQuestion"],"bow":["Hi","who","are","you","hihellohowdyhow","nice","to","meet","hey","what","up","I","am","7","year","oldhey","read","a","new","book","yesterday","where","do","live","andriy","and","how","feel","right","now","like","Do","is","your","favourit","call","me","pleas","could","have","in","calendar","for","on","anyth","today","Is","there","tomorrow","make","note","an","appoint","add","en","event","callendar","let","s","play","word","soccer","tic","tac","toe","rock","paper","scissor","want","guess","number","pick","random","quot","give","from","some","stori","someth","worth","of","rememb","much","batteri","left","mani","percent","the","time","clock","outloud","can","say","pronounc","english","tim","search","train","internet","news","was","happen","world","got","xxxmanpancarboatsimpeonewordsampl","textarachnophobialet","els","stop","OK","quit","don","t","anymor","ř"],"context":{},"contextNetwork":{"biases":[[0.608035564,0.491114676,0.0780848563,-0.0630224,0.6022337,-0.163438618,-0.01736885,0.0487099327,0.228343964,0.0658364743,-0.0168689489,0.394591451,0.225335792,1.0269475,-0.287392676,0.0341010727,0.764329851,0.4516075,-0.237938076,0.359930426,0.139353111,0.237608269,0.325948834,0.07632107,0.0308957342,0.332842171,0.21842815,-0.123563647,-0.247101441,0.0341684669,0.277121216,0.145798236],[-0.195567384,-0.373315871,0.28756544,0.3318364,0.543447435,0.305616677,0.13302128,0.258003563,-0.0333010666,-0.08530175,0.371945441,0.187268555,0.138460755,-0.191816434,-0.0248436853,0.110966191,0.0462115221,-0.40830943,-0.153533608,0.2355507,-0.02002173,0.4171009,0.303905964,-0.2356724,-0.08746249,0.315865576,0.164354384,0.241552949,-0.05526516,0.5254944,-0.108354956,0.166979834],[-0.00541970041,-0.8495168,-0.6338052,-0.75099206,-0.8063437,-0.506666064,-0.3616902,-0.5114446,-0.5055693,-0.404900759,-0.568668365,-0.7155573,-0.662602663,-0.5629207,-0.591387868,-0.7377589,-0.623479366]],"weights":[[[0.476234049,-0.000438635558,-0.01939207,0.0813986659,-0.0378922448,0.217790291,0.1790281,0.264421374,0.2287425,-0.222457245,-0.004401195,0.234094381,0.247459337,0.04072561,-0.06576516,0.0252653472,-0.139415368,0.10735961,0.3636255,-0.196341291,-0.02566332,0.09141122,-0.022192724,0.4560786,-0.024658395,-0.0194545239,-0.136115611,0.2162132,-0.323989242,-0.5232222,-0.100473739,-0.039315097,0.143127874,0.1312939,-0.125641108,0.43902573,-0.007691391,0.0394281,-0.394941568,-0.178996578,0.216229767,-0.08159176,0.2601364,-0.079441905,-0.280388653,-0.260243237,-0.06092682,-0.00648892159,-0.08269343,0.155806541,0.0187017918,-0.176949963,-0.585237145,0.154492214,0.0982082039,0.0219834372,0.13633737,-0.207877547,0.7689414,-0.103308462,0.0306822732,0.127928153,-0.2990802,0.0376118049,-0.0620470643,0.190627337,0.227522314,0.137733936,0.279839426,0.255835921,0.3117022,0.5071853,0.6204114,0.2484175,-0.0356238633,0.1577376,-0.191302821,-0.161982313,-0.561378539,0.105858356,0.000394625269,0.181482136,-0.106483713,0.0041626,-0.2675061,-0.301510721,0.1430391,0.0359289721,-0.01586762,0.3434165,0.13246803,-0.001064142,-0.0466085374,-0.0126562016,0.0142885027,0.229485035,0.00560152764,0.0525015779,0.190384075,-0.259221256,0.05681038,0.169416666,0.05792794,-0.128430679,-0.124212928,-0.172952682,-0.0757597,0.204391748,-0.0223123077,0.06581403,-0.049797006,-0.201811388,-0.0279818214,-0.5768322,0.1368436,0.0155938556,0.03381164,0.0725453645,-0.09485415,0.156829044,-0.238792241,0.102784246,0.06619857,0.205765009,0.293713421,0.143446013,0.23045288,0.283002973,0.183435574,0.243471622,-0.0391204879],[0.129085615,-0.184447825,0.0253311265,-0.516136348,-0.212266147,0.0004615412,-0.153887644,-0.171975777,-0.07340093,0.290832,-0.0954271555,0.254327327,-0.08427683,0.0336990654,-0.177287087,0.228136942,0.241734132,0.313366383,-0.13557227,0.3043282,0.6824521,-0.12944825,-0.127445579,-0.245647714,0.236123651,0.09100947,0.0939155743,0.212552652,0.214122936,-0.0813879743,-0.0540530868,-0.205721423,-0.0120274,0.252991825,0.365496,-0.5897745,0.0267091636,-0.01772486,-0.255614877,0.294793278,0.109218851,0.060221944,0.166809157,0.151885331,0.0330548659,0.177793086,0.108453296,-0.0267014876,0.2778956,-0.0528395,-0.119910263,-0.106964134,0.3298576,-0.09845193,0.09257098,0.00392754935,0.229238942,-0.572731256,0.271909952,-0.10354802,0.0291203409,0.301547945,0.210403368,0.288543433,-0.0802119449,-0.0192814041,-0.124409355,-0.116335876,-0.221698865,0.122587129,-0.35459888,0.0161170457,-0.10993062,-0.100064181,0.153164253,-0.207612142,0.239504844,0.31282112,0.133153066,0.157148734,0.08040546,-0.0565531738,-0.110589169,-0.195087224,-0.116285048,0.115749583,0.09168904,0.308927,0.310013145,0.272110879,-0.443761438,0.101489812,0.370925,-0.294280052,-0.223199233,0.03708074,-0.103676118,-0.0853326,0.041637633,0.0703808,0.0615167543,-0.08440982,-0.156639189,-0.0160610452,-0.310318351,0.254017264,0.340974957,0.0509071574,0.0196853187,0.3617436,0.207936481,-0.16483736,0.09095221,-0.649248838,-0.202804521,0.0228514336,0.199404046,-0.04729674,-0.00178943842,-0.08940984,-0.382655,0.08164166,0.07769603,0.126346037,0.225684017,0.120890222,0.114054158,-0.115900546,-0.0272540618,-0.0509872623,0.179920062],[0.0817857161,0.117023952,-0.142532617,-0.06681693,-0.006686118,-0.18226023,0.08742221,-0.252080739,0.130305842,-0.242403984,0.0478639863,-0.403934,0.0789909139,-0.1618305,-0.392896444,0.136872768,0.0258227326,-0.3361841,0.1912354,0.0466877557,0.2480292,0.08483649,-0.178518161,0.139689833,-0.127769515,-0.104811981,-0.178214,-0.1970893,0.1777665,0.06493142,0.295559376,0.320574433,0.213026136,-0.159774765,-0.03201045,0.07831678,0.05289223,0.215330765,-0.0535266958,0.0275220815,-0.226522,-0.19776009,-0.0730884448,-0.105923668,-0.104106329,0.19756031,0.08010152,-0.007918415,-0.262064427,0.1095693,-0.07923052,-0.0367864,0.3833406,-0.1218243,0.006493372,0.02241085,0.119249769,-0.105090186,0.119531117,0.0619666465,0.046248205,0.10322421,0.040904846,-0.07448859,0.0427851826,0.122352965,-0.190753236,-0.00750065455,0.0171872675,0.129773781,-0.008443177,0.09148822,0.06575602,0.08031091,0.148925513,0.00536993472,0.430329323,-0.1776186,-0.09484229,0.05748868,0.1376047,0.0859763,0.4697542,0.437315017,0.750195742,0.284338176,-0.202528566,0.2903091,-0.0429261066,-0.25670138,-0.15981254,-0.204305947,-0.159345224,-0.0993990749,0.0617588125,0.0208051037,0.03310975,0.105779566,0.0433876254,0.2004264,-0.139589876,-0.290837139,0.05302325,-0.009306356,-0.0371356346,0.07474315,-0.06931648,-0.160548285,0.07517371,0.0333857723,0.2674515,0.039453622,0.07183313,-0.111234836,0.07669971,0.2785706,-0.150670916,-0.209868759,-0.168615669,-0.120343395,0.169376716,0.106923074,-0.105808176,-0.188695863,0.07825666,0.0331313,0.248992577,-0.0964346752,-0.0877401754,0.195109814,0.122707061],[-0.347722083,-0.258616745,0.118261,0.003390599,0.234556392,0.0997020453,0.119088449,0.00745048746,-0.259056658,-0.00784485,-0.118346818,0.0254097544,-0.06348587,-0.073149316,0.115373977,-0.11066135,0.07925441,0.399883777,0.111822508,0.282302022,0.263490915,-0.0153453993,0.005805053,-0.176369369,0.15054056,0.235618725,-0.277410477,-0.132782355,0.0747295,0.113565065,-0.140330672,-0.01513122,-0.106601119,-0.227594957,0.175447464,-0.009563589,0.0858705342,-0.0292960871,-0.07929705,-0.00657451572,0.236474842,0.134563461,0.005615478,0.133633792,-0.197200641,0.09321094,0.231340557,-0.03291341,-0.344863534,-0.174192771,-0.00742208725,0.15454492,0.009716096,-0.03188018,0.132205278,0.0570733175,0.08609078,-0.06807987,0.3448454,-0.193697959,0.203880891,-0.290124238,0.0800814554,-0.0594484024,0.07781851,-0.12948826,-0.04783021,-0.0849539,-0.112857893,0.2207078,0.0169202965,-0.1532197,0.0244188476,-0.360939771,-0.208377853,0.147163868,0.3335783,0.04122324,0.143610522,0.0351684168,0.0656848252,-0.292111665,-0.0170722324,0.309144944,-0.0753963,-0.09515859,-0.002994978,-0.094816044,-0.02690612,-0.128208548,-0.363846451,0.007763027,-0.129654378,0.21281454,0.1648395,-0.0544028133,-0.0403852537,0.202508867,0.100892566,-0.00127179234,0.331112623,0.208919823,0.04938036,0.15380466,0.12671712,0.191075951,-0.228132531,-0.09425333,-0.13361606,0.0229013972,0.08512383,0.164291725,-0.0238617025,-0.0154086128,-0.0252621789,-0.17138952,0.123274051,0.1878252,-0.203311741,-0.176274329,-0.146612331,-0.200259268,0.07367022,0.257219762,0.14278537,-0.138791874,0.109456718,0.08257063,-0.185753837,0.00132174778,-0.08496977],[0.0367613137,-0.1184624,-0.0790851042,-0.14537093,0.0153327882,-0.2824821,-0.0420147851,0.175930455,-0.04112608,0.4745095,0.3857927,0.116241857,-0.130031839,-0.126832888,-0.1272536,0.133265287,-0.100838736,0.238163754,0.0867121443,0.16742675,0.239247739,0.0233953781,-0.112163827,-0.220237672,-0.106939957,0.181869537,0.2851964,0.2872122,-0.09317835,-0.3298388,-0.3768412,-0.428134084,0.0054019643,0.115960322,-0.0277413279,-0.232421085,0.1146604,-0.02566202,-0.0192638543,0.209482566,-0.0297949724,-0.200773314,-0.224763,0.153905839,0.232071176,0.135858759,-0.005679833,0.107315943,0.08857473,0.3568449,0.272646874,0.0708687454,-0.597356737,0.237792373,0.439918876,0.0214231852,-0.16830942,-0.687022567,-0.3264886,0.273165524,-0.112776019,0.112769477,0.06926216,0.228188246,0.415708154,-0.06591307,-0.07298449,-0.31052953,-0.04452007,-0.1997196,-0.410809875,-0.02041177,-0.2732909,-0.2627095,-0.302722275,0.173321754,-0.190744683,-0.0149505511,-0.119156949,-0.2330613,0.06864731,-0.0118905818,0.143246859,0.0105016772,-0.03849603,0.06443803,-0.150199085,0.166327268,-0.133923322,0.355820835,-0.634996,0.222071141,0.04405629,0.009815657,0.3389587,-0.140524581,0.06714362,-0.3986759,-0.136795849,-0.103449717,0.158408284,0.0383598655,-0.0356488,-0.120892689,-0.0572397038,0.3257609,0.3124491,-0.0634506047,0.270854861,0.237771347,-0.04572988,0.158527,-0.07460477,-0.6233822,0.05433811,-0.114487462,-0.0132382521,0.148863912,0.0486659966,-0.3585606,-0.338524133,-0.02560275,-0.165677845,0.27298528,0.124487095,-0.134143412,0.0254532751,0.06019711,-0.08957361,-0.00566004124,0.7738329],[-0.02182835,0.01972823,-0.0376110747,-0.154136,0.14768061,0.365144432,-0.0254456121,-0.145732969,0.141165,-0.00148237357,0.3348929,0.145352736,-0.0150415618,0.0209491123,0.0162023176,-0.154768884,0.0485179126,-0.14419426,-0.0132192681,0.0275247972,0.336154133,-0.182361081,0.156666085,-0.166315049,-0.08237721,-0.250096142,-0.108854629,0.02494612,0.298617929,-0.195134118,-0.1752279,0.0268821176,-0.149117455,-0.0317680463,0.072466284,-0.347196877,-0.210170209,0.05056349,0.02974585,0.035754066,-0.1501092,0.0030733773,0.58808744,-0.07502763,0.0595714226,-0.259895742,0.142354071,0.08419077,0.133728221,0.0427180752,0.343755424,0.120108694,-0.162909657,-0.197973087,0.007318124,0.0246476624,-0.0784569457,0.304888517,-0.247232541,-0.2743645,-0.312603652,0.234885171,-0.07011751,0.222370908,0.1497746,0.168491915,-0.06707581,-0.1279668,-0.0450123362,-0.209209651,0.07956216,-0.208877638,0.0845098943,-0.015934268,0.0723680556,0.06996366,-0.116372406,-0.116009317,0.049091,0.07310542,0.08045973,0.4404456,0.134144336,-0.01839489,-0.156639576,0.0271125566,0.08562707,-0.0223304871,-0.03542459,0.147498459,-0.04925077,0.108026877,0.18274489,0.3605034,0.35805583,0.03988816,-0.3756238,-0.0948636,-0.07532933,0.00126492023,0.03000195,-0.136413619,0.195984766,0.09900105,-0.253498316,0.08379236,-0.109467395,0.210467532,0.17037341,-0.137408718,0.19247289,-0.121411383,-0.132816032,0.0481169969,0.003229017,0.00622261455,-0.0430642776,-0.12493138,-0.273931831,-0.00524512958,0.191050127,-0.181818,0.07095337,-0.2375095,0.193435445,-0.09677435,-0.118102878,-0.0592107624,0.0582061335,0.07396577,0.0588799566],[0.00305141532,-0.0122943521,-0.226216808,-0.03196941,-0.0624618568,-0.07669133,0.217409775,0.14086464,0.0636924058,0.17501919,0.1705226,0.011892519,-0.009191292,-0.09828466,0.03203571,-0.0791890249,-0.0188295227,0.300718457,0.1561254,-0.03797432,-0.07119602,0.160092,-0.05660313,0.4160679,-0.0529032,0.2018328,-0.0148609821,0.174485892,0.09876997,0.09408727,-0.03247306,0.148858055,-0.161907777,0.127350122,0.16771245,0.09678395,-0.127198264,0.20719327,-0.12401367,-0.04495772,-0.0114654275,-0.20028773,0.131614953,0.0301000867,0.0203298721,-0.175131,-0.1470455,-0.07971323,0.07280707,-0.108715676,-0.05975762,-0.322064131,-0.06927923,0.216907665,-0.05540573,0.241494834,0.242414162,0.272585064,0.0144772,-0.104350373,-0.11351981,-0.0609040521,0.232134432,-0.170760691,-0.0308347289,0.205584452,-0.06463498,-0.125551388,0.153471336,0.0476918444,0.3498536,-0.00160883251,0.3886732,-0.09002618,0.221117482,-0.162299111,0.21735619,0.03327396,-0.08105123,-0.00967288,0.231463,0.0269829147,0.06560638,-0.113791026,-0.248458847,0.28637287,0.310741663,0.337506384,-0.07031486,0.166475564,0.11953748,-0.005199666,-0.300893843,0.218525529,-0.0805927441,0.0151291452,0.149155408,0.150898591,-0.112410516,0.1189075,-0.0597083,0.385450035,-0.257585973,-0.009264052,0.117696851,0.0403035246,-0.259942323,0.08797374,0.1869559,0.3213844,-0.0353385955,0.06991905,-0.164255753,-0.07891708,-0.286961347,0.129263669,-0.0270606428,-0.051834438,0.3194091,-0.09096364,-0.13570556,0.1635304,0.054046277,0.09203894,-0.2826021,-0.05448908,-0.09583106,-0.217193723,0.09587634,-0.04395058,0.0441277],[0.267466754,-0.07092857,0.05099603,0.102999419,0.187339067,-0.181119189,0.0192973781,0.08081296,-0.0223412011,-0.111434095,-0.06630525,-0.134130672,-0.0112237511,-0.228708476,0.03143646,0.185412392,-0.0541722365,-0.2507604,-0.278956026,0.109924816,0.139351547,0.037408676,0.189320356,0.26200375,-0.0167825781,0.301780671,-0.05699981,0.0654233843,0.212453038,-0.07692649,0.063149,0.204334214,-0.06466328,-0.0179213341,0.267081767,-0.197301254,0.219758,-0.06958686,-0.07203479,-0.19951728,0.1818309,0.0645212159,-0.09120266,0.293469548,0.02271531,0.251148731,-0.09768777,-0.0219173077,-0.0262118969,0.1292574,0.144726917,-0.0107078273,-0.316202283,0.11182043,-0.0129945837,-0.139934465,0.0130177466,-0.09963175,0.3008121,-0.0699726045,0.2206042,0.133413136,-0.05406749,0.004671181,-0.0376196243,0.16474244,-0.137248337,-0.155589819,-0.0497923866,0.1833063,-0.0175843909,-0.152061284,-0.118845686,-0.212428674,0.165180638,0.131899357,0.238785729,0.292679429,0.6070228,-0.131855249,0.299646825,0.1672978,-0.22347571,-0.0489043146,-0.0568083376,0.294111222,0.0201571565,0.0495579578,-0.0587183572,-0.0146068428,0.4514903,-0.05741938,-0.06714144,0.286820322,0.137066156,-0.33062458,0.0176210757,-0.376079023,0.0684290156,0.1310196,-0.09573095,0.008320705,0.009192294,-0.211010367,-0.05154124,0.102073744,-0.122840151,0.295359671,-0.253934652,0.273237944,0.167632982,0.0143276379,0.186822221,-0.0371427462,0.230006352,-0.07436525,-0.0287602,0.08822733,0.160066217,0.05588929,-0.2144437,0.0749942139,0.012621982,-0.0115971714,0.0993503556,-0.200580448,-0.05368022,-0.08566344,-0.0847124,0.100060306,-0.258692235],[0.5841318,0.05937499,-0.179573387,-0.0595757365,-0.00561705,0.103145428,0.122979827,0.244055942,0.2887001,-0.01943959,-0.130451068,0.103331059,0.034745492,0.06324421,0.131900772,-0.194116563,0.121171586,-0.295243144,-0.0138488226,-0.3896518,-0.3423414,0.1497187,-0.01979638,-0.03834488,-0.263219267,-0.241465285,0.215222672,-0.0847761,0.34100908,0.5755892,0.241637468,0.141268656,0.022142306,-0.04609023,-0.428749532,0.5136465,0.009480135,0.261205167,0.29140076,0.058409024,-0.03872516,0.308875382,-0.3112665,-0.122698642,0.123226039,0.312053651,0.1681215,0.02577817,0.00309349038,-0.517975569,-0.2721127,0.0380442552,-0.04976454,-0.151466861,0.06773615,0.6375873,-0.137043566,0.255487621,0.468433619,0.0343591459,0.08998939,-0.259485871,0.00115105207,0.0266617164,-0.316145033,-0.02277555,0.339836657,0.179751724,0.165567547,0.157864526,0.373239934,0.148929432,0.4494246,0.1914166,-0.021671867,-0.0377491042,0.285464346,-0.372865766,-0.0728186443,-0.152281672,0.488557369,0.350787431,0.168725818,0.195648447,0.334759533,0.113458484,-0.0208526738,-0.117671549,-0.155769989,-0.286402345,-0.46332106,0.03090665,-0.120670088,-0.0753432,-0.238465667,-0.0173091,0.08061396,0.0387299247,-0.125123486,0.092708,-0.38584885,0.04940276,-0.00293292222,0.0244538542,0.274741,-0.185747489,0.171575591,-0.103663422,0.07361794,-0.07147138,-0.09329153,0.0138838654,0.263076216,1.06739652,0.125675142,0.250952661,0.18941693,0.101714306,-0.115382694,0.4249073,0.182057068,-0.0755012557,-0.071312204,-0.343946,-0.263883382,-0.2935985,-0.111932255,0.358925581,-0.0157101825,-0.177449763,0.18200168],[-0.1804596,0.186881959,0.02121066,-0.04235754,0.2284722,0.384388715,-0.0823498145,0.049576547,0.09739528,0.1364455,-0.0407247134,0.178452626,0.250519365,0.140712664,0.148883656,-0.136415884,-0.235692158,0.00168939156,-0.2306774,0.07636542,0.1283349,0.135499626,0.0162620489,-0.0846245438,-0.195697412,-0.0115731815,-0.26742515,0.140257835,0.149212524,-0.0186202079,0.105618834,-0.09089491,-0.2134403,0.132078812,-0.0288460553,0.06893622,-0.202473834,0.102522545,-0.309346259,-0.134859309,-0.15937987,0.0848852843,0.299197,0.1597886,0.3771965,0.165548876,0.04815349,-0.0654847,0.435353369,0.09688472,0.3203119,0.0668584555,0.0171395727,0.055102,-0.01951344,-0.06814774,0.225514591,0.155500621,-0.107808962,-0.359648317,0.066966325,0.07033347,0.03307981,-0.124512881,0.01837849,0.280407965,-0.0423624329,0.101340391,-0.0920734555,-0.186443985,-0.171795756,0.000243453236,-0.253627449,0.151927531,-0.0373914279,-0.218711212,-0.05515145,-0.1522959,0.161619663,0.286721855,0.104021415,0.104354188,-0.116618223,0.0142386667,-0.199855343,0.157059968,-0.26349932,-0.4577719,0.0574337281,-0.174805492,0.415119559,-0.007855131,-0.152329385,-0.200929388,0.0378073119,0.1858967,-0.209096447,-0.07899472,0.117018983,-0.1628717,0.0168353971,0.06284951,-0.0768174157,-0.07490877,0.007117817,0.136388183,-0.215684384,-0.04944718,0.2674455,-0.12332,-0.151294351,-0.0037538365,-0.174699023,-0.1388127,-0.0647563,0.0331698433,0.132619485,-0.373371,0.121356994,0.05594009,0.215366274,-0.176307172,0.0330842137,0.0281312969,0.0958347842,-0.109428212,0.158643261,0.318355024,-0.0460427329,0.07232341,0.0544796325],[-0.09275499,-0.0205079317,-0.249229178,-0.158771917,0.2545386,-0.196653262,-0.206648767,-0.0359191932,0.0381465144,0.2244409,-0.0161561333,0.144796744,-0.00214694813,0.08838525,0.146788552,-0.07093676,-0.210098,-0.201455578,0.213786781,0.04257047,-0.200157553,0.008038831,0.133143947,-0.149365321,-0.187519833,0.03452627,0.1790714,-0.0181801952,-0.131066829,-0.20225355,-0.148996219,0.0405041054,-0.2530023,0.000851399032,0.263492018,0.0107824067,0.1911487,-0.09843563,0.0376620963,0.0413177237,-0.0602239631,0.157594576,-0.193155259,-0.173389122,-0.0823801756,0.182292059,-0.191185176,0.04336322,-0.07807723,0.0152260028,-0.246968687,-0.194121674,0.157155409,0.00186668138,-0.0396999344,0.07742656,-0.009774571,-0.152335376,0.0678413361,-0.05137304,-0.458573639,-0.165401444,0.0356833637,0.040122427,0.0724049956,0.0200566817,-0.06324486,-0.282612443,0.04471287,-0.183387816,-0.1543645,-0.1356115,0.03795053,0.100441709,0.293305635,-0.0588225275,0.08426453,0.111288123,0.495723873,-0.03471347,0.05869283,-0.185452744,-0.07274015,0.0516685769,-0.186569557,-0.0184275582,-0.0304167178,-0.38882792,0.208878025,-0.137591809,0.34830904,-0.07920903,-0.014589549,0.159784943,-0.0750228241,0.114130825,0.0272666067,-0.0704190955,0.237530231,0.0364039168,0.0589048453,-0.0360888131,0.05521851,-0.109148376,-0.2418942,0.0564226,0.179712057,-0.256498426,-0.121869348,-0.154956117,0.21731697,0.1651074,-0.3093793,0.113397054,-0.138748869,0.014314332,-0.281866223,0.06619082,0.285144418,-0.0277965385,-0.2953442,-0.101470262,-0.0453205742,-0.159669966,-0.0443154462,-0.07176478,0.08522269,-0.003668842,0.28287676,0.191480219,0.004563034],[-0.362059,0.00755306752,0.354054928,-0.07125307,-0.193534777,-0.06495951,0.0564519539,0.0980505943,0.0312675424,0.276991665,0.353018135,-0.0180274937,0.211547986,0.2336281,0.113606647,0.161957219,0.09834799,0.334924459,-0.201970622,-0.239259377,0.03408423,-0.10982886,0.208269656,0.09211037,0.115574509,-0.09520667,-0.130845815,-0.0634463057,0.193133533,0.13689886,-0.0439856648,-0.141250134,-0.04338977,-0.0373010859,0.0302727111,-0.164121434,-0.178369224,-0.06773601,-0.2971937,0.411290854,-0.24607186,-0.2912845,0.142715544,-0.0913710445,0.222844183,-0.194499359,0.301225781,0.161898673,-0.0170819219,0.09034125,0.0192926843,-0.166417122,-0.0325282142,-0.0368639044,0.232098162,-0.09642982,-0.263207972,0.0527602,0.0107537527,0.210680336,-0.00130974094,-0.2372165,0.3155849,-0.255107582,-0.231070429,-0.00660040462,0.009495024,0.177458659,-0.169350937,-0.113687016,-0.303758353,-0.02207368,0.06607847,-0.234253317,0.0887075961,-0.135209844,0.07062186,-0.376892418,0.06581332,-0.215414271,-0.00173410983,-0.2373923,0.391001523,0.301754355,0.2848542,0.0433697775,-0.2855301,0.173214138,0.312275171,0.213151857,-0.033089757,0.358382136,0.139351055,0.377487361,-0.01853804,0.215150192,-0.135278866,0.198056862,-0.172791079,-0.265855134,-0.0531084724,-0.220021322,-0.16165778,-0.0204891935,-0.645232439,-0.226594508,0.326359242,0.340971172,0.0380771831,0.3434007,0.114257924,0.158322275,-0.104872152,-0.628063,-0.3316064,0.114335112,-0.02280503,0.205244884,0.1647537,0.08114015,-0.04908398,0.0221376978,0.007124129,0.0781161,-0.117988169,0.271796018,0.348801136,-0.16032505,0.130878553,0.01763754,0.9170866],[0.104834147,0.1752294,0.176302746,0.122641645,-0.19010736,-0.109457344,-0.0312256683,-0.141743422,0.0664154962,0.118297,-0.135598063,-0.0285876133,-0.009230788,-0.0366770849,-0.158238485,0.16742745,0.051488407,-0.132859081,0.085079506,0.140987024,-0.08780948,0.264462233,0.02318593,-0.145660073,0.23105669,-0.2581849,0.274388522,0.396232516,0.3986387,0.241174981,0.317704529,0.198327333,0.139890835,0.177309766,0.352570325,-0.208039254,-0.09040924,-0.09350355,0.07337507,0.0240667332,0.0595362261,0.199902073,0.04492284,0.09379346,-0.288814366,0.0521808341,-0.0263986848,-0.18711485,-0.0506411,-0.115626134,0.240163147,-0.074220404,0.502906144,0.1271072,-0.139367789,-0.178105563,0.0607626662,0.107641645,-0.330166161,0.159906834,-0.0306653921,-0.06641111,-0.0247244015,0.364824861,0.06782978,0.03724663,-0.20952861,0.0186855253,-0.162825584,-0.127252892,-0.033791218,-0.159253508,-0.001993212,-0.208123922,0.1611643,-0.0823812038,-0.499773681,-0.33769238,0.256332159,-0.07781458,-0.189561263,-0.0480493419,-0.044512663,-0.243499324,0.2544861,0.13497369,0.6520291,0.388062418,-0.3235419,-0.115500055,-0.322152376,-0.103362948,-0.108367994,-0.052755516,-0.04622814,-0.0562091656,-0.09549737,-0.07004321,-0.08230859,-0.09109174,0.178552911,0.192939848,-0.0627250448,0.127943128,0.00469304947,-0.0800332651,-0.192995384,-0.118730173,-0.134240583,-0.281648248,-0.166374475,-0.11149516,0.4215911,-0.191887274,0.111007512,-0.113965042,-0.06455998,-0.304629058,0.00966004748,-0.318033218,0.286175221,0.248463973,-0.006624576,0.00471339235,-0.166913927,0.169942692,0.250664771,0.18473044,0.1170274,0.04216417,0.276066631],[0.12653929,0.09208031,-0.0390336849,-0.137500554,-0.00491622137,-0.192171559,0.089483425,-0.08953182,0.07235964,0.2858494,0.09681561,0.122816138,0.167240649,0.220885873,0.2080342,0.2871155,0.107244357,0.0475955345,0.1347217,-0.04948658,0.476076841,0.0824249759,0.0187692866,-0.0329430252,0.228316441,0.274586529,0.09143096,0.135664091,0.234294668,0.157053709,-0.136027589,-0.220948815,0.160996154,-0.157978177,0.07717077,-0.306861877,-0.159598485,0.118186384,-0.0192021467,0.5046748,0.100344695,0.0343114138,0.210533187,0.474992782,-0.150551811,-0.130895123,-0.02713853,-0.179980427,0.2146472,0.200691164,0.344007969,-0.0937636644,-0.239535749,-0.0205098912,0.268529922,-0.0976346359,-0.205669656,-0.124636948,-0.2108863,0.103888832,-0.396565884,0.168365285,0.136026546,0.255395621,0.193192482,-0.236979023,-0.378642231,-0.18304415,-0.00199390133,-0.07831959,-0.161035448,-0.032750655,-0.23242636,-0.228934243,-0.191476524,-0.00490427669,0.008005267,0.225393772,-0.0714885443,0.187761053,0.158494979,0.07993224,-0.184382871,-0.374999076,-0.269849032,0.236319736,-0.528678834,-0.17037192,0.103312708,0.06469592,-0.1292139,0.306584537,-0.0376704223,-0.14995499,0.1390121,0.236114815,-0.09052049,0.006814644,0.104725525,-0.1722017,0.386725932,-0.00760424137,0.217614129,0.136620551,-0.297139317,0.0975800455,0.109783657,0.236768663,0.207344577,-0.296153426,0.240243912,-0.07530818,0.2488449,-0.5293568,-0.22332485,-0.110749654,0.2889448,0.139394358,0.174700826,-0.02112323,0.0173193924,-0.06813064,0.21863915,0.273338258,0.5206934,0.08691872,0.1316309,-0.139183149,-0.225286886,0.2609655,0.2320835],[-0.135203391,0.0135545153,0.181425869,-0.238820344,-0.11032559,0.07405039,0.113736689,0.0162532516,0.575396359,0.121231288,-0.157677,0.08497524,-0.114446193,0.1040156,0.106177561,-0.1180222,0.123585328,-0.0273383763,0.06263317,-0.268037856,0.187915325,-0.285691947,0.192036375,-0.139872566,0.0969788358,-0.09371224,0.0562913939,-0.0723861,0.09330309,-0.211527079,0.259472072,0.0620107,0.0381296128,-0.190366432,-0.06465016,0.138657779,0.01611091,-0.144667611,0.146369785,-0.109438628,-0.129783764,-0.114710115,-0.137597322,-0.0622280538,0.05118856,0.184007525,-0.134190127,-0.08235896,-0.171678022,-0.116425857,-0.113542259,0.27518338,-0.0855609551,0.0124932285,0.0901213437,-0.258190453,0.00200284552,0.06716402,0.2584093,-0.146532565,-0.03541685,0.103783578,-0.290244341,-0.307530046,-0.120695055,0.2722223,0.224916026,0.06284033,-0.138103038,0.128921539,0.206566453,0.200775638,-0.0392386466,0.17805545,-0.0557964742,-0.0524092838,-0.348346382,0.132245466,0.104859337,-0.0557636768,0.117542133,0.12749292,0.02768284,-0.216633126,0.07558428,-0.168043256,-0.153220221,-0.06513018,0.00482480228,-0.3001976,-3.66196036E-06,-0.261257321,0.216874942,0.427195936,0.13100642,0.150208354,0.0123597756,0.05022185,-0.11482425,-0.126675725,0.132400438,-0.155634835,-0.195064828,-0.0304635726,0.2730614,0.08645344,-0.0502711833,0.059910655,0.0308504775,-0.0153442491,0.08184037,0.008120496,-0.09974397,0.042914547,0.07345591,-0.016273817,-0.228065327,0.05014378,-0.0102933925,-0.183695361,-0.012923291,-0.09959063,-0.216713756,-0.06741116,-0.0690408,0.152320817,-0.07383093,-0.136096731,0.257447839,-0.0344332457,-0.124126889],[0.171230465,0.03362027,-0.161500365,-0.138059422,0.339243263,0.1756608,0.08950854,-0.181244388,-0.05975144,-0.255383849,-0.219330952,0.119582362,-0.0277129542,-0.3618078,0.113497339,-0.0126384459,0.0118237687,-0.0423751734,0.1829451,-0.0434619747,-0.204768091,-0.2104314,0.0492562279,-0.0666224957,-0.05574165,0.1727628,-0.111053638,-0.121263027,0.418773234,0.329116046,0.4585641,0.330799639,-0.08341043,-0.1731726,-0.104744822,0.7001289,-0.09259863,0.0531939231,-0.298008323,0.180230349,-0.0883554,0.4019872,-0.108504288,-0.129219055,0.0513399057,-0.218209952,0.139230326,-0.111693583,0.09708556,0.117778167,-0.1437249,0.0292151235,-0.147533312,-0.008576171,0.0749518,0.190626457,-0.108082011,0.05978668,-0.218623161,-0.2419566,0.202333152,-0.0331152044,-0.216421336,-0.07941274,0.18972899,0.0655733943,-0.1396297,-0.1560177,-0.137087017,-0.08175167,-0.103396423,-0.02273089,-0.04049731,-0.180442035,-0.4461981,-0.000482268049,0.05302036,-0.08045188,0.0980093256,0.0366032235,-0.0199198555,-0.149080172,0.2525468,0.176682651,-0.128439054,0.1742053,-0.0314730778,-0.000956740638,0.1372731,0.13587296,0.256904572,-0.0115305884,-0.00715347147,0.0191154871,-0.09252855,-0.115235522,0.184356824,0.124243021,-0.03756656,0.184522018,-0.00943924,-0.146607131,0.02032787,0.0014641335,0.0769737959,-0.0940635353,-0.04559473,0.217413768,0.189752921,0.112610728,-0.0190974865,-0.255731672,0.192694247,0.0238190219,0.139396369,0.3376203,0.197546124,0.0376020968,0.242747754,0.05978682,0.369206965,0.148520067,0.217566088,-0.0246740486,-0.08639063,0.357024223,-0.08406048,0.226356387,0.00779606,0.0506849922,-0.130035177],[-0.0440279171,0.128202215,-0.195606023,0.220248878,0.164501175,0.0166191012,0.05310184,0.3436598,-0.220787048,0.3323163,-0.154352322,0.183775991,0.254809469,0.09543766,0.2618123,0.167060331,0.254302174,0.0433983356,-0.205123723,-0.0320418738,0.0161706917,0.0173972119,0.419148684,-0.242445916,0.679648042,0.231307954,0.0110348044,0.157418266,0.403393984,0.224219948,-0.113693558,-0.154472858,0.0871430859,0.138208732,0.153020412,-0.420647264,-0.0272945557,-0.125194,-0.131690308,-0.127833754,-0.09690109,0.123084657,0.221235991,0.06432182,0.119341239,-0.07221447,-0.06954191,0.111582644,0.0338585041,0.293021,-0.02381439,-0.00734410342,-0.720021665,0.216159746,0.187885359,0.128906742,0.253376484,-0.04149577,-0.3205521,-0.0185524765,0.183392361,0.4331298,0.134155989,-0.0558420755,0.04754047,0.105064675,-0.0119725019,-0.391783774,0.178619862,-0.08688082,-0.280900329,-0.134209439,-0.03692704,-0.09688808,0.289892763,0.043785397,0.125529811,0.243318617,-0.131795034,0.345750779,0.343528777,0.0681456551,-0.202563852,-0.184130132,-0.07017744,0.122323088,-0.07685948,0.0535008758,0.286548972,0.363668919,0.188555419,0.38155973,0.184966549,0.0540543348,0.255153418,0.202637836,0.167084053,0.298053861,0.0390479043,-0.0159602,-0.160795778,-0.00659526652,0.234375939,0.327163219,0.0337621272,0.4004687,-0.0155980559,0.08855404,-0.127005,-0.107607894,-0.0417496972,0.02532378,-0.06990394,-0.125419766,0.1164194,-0.145792648,0.1747794,-0.181227848,0.141621992,-0.09726738,-0.468672544,-0.207879663,-0.115099713,0.286032915,0.5215006,0.198885188,0.0549835935,-0.191793844,0.131077364,0.1361927,0.58314544],[0.479986429,0.06987761,0.1162398,0.162848279,-0.234545454,-0.151451945,-0.144040912,-0.224441215,0.01668797,-0.0533949025,-0.01955878,-0.08619035,0.134447768,-0.145649821,0.0302326735,0.04441614,0.0511814,-0.245272368,-0.01115321,-0.0836715,0.212280348,-0.0566063672,0.158240587,-0.07735104,0.0122202868,0.0960822,0.3544796,-0.1495475,-0.393010229,-0.0196583159,0.116763391,0.248793244,-0.1277339,-0.09045263,-0.04073549,0.324810117,0.326725274,-0.09362266,0.06648652,-0.26180914,-0.0093412865,-0.131553113,0.07722817,0.00466616,-0.196585715,0.233953133,0.205200911,0.363563031,0.09774588,0.00866545,-0.116898209,-0.00434815744,0.119497128,0.13983272,0.112576216,0.123691551,0.08822449,0.171850413,-0.2808001,0.0627681,0.0278682113,-0.2136834,0.178783134,0.0546585545,-0.334175527,0.06073837,-0.364609748,-0.275811017,-0.07598636,-0.201241955,-0.252237916,-0.307892174,-0.704843,-0.237957925,0.09627703,-0.19439429,0.5760992,0.49138,0.197852537,-0.0991293043,0.0235404521,0.229401663,0.0410507657,0.133624122,0.103634223,-0.100729428,-0.240878478,-0.117354281,0.161531925,0.09767814,-0.02602619,0.00308830314,-0.22278057,0.206282914,-0.120053209,-0.0892879,0.157581359,-0.202209368,-0.04509434,0.165320188,-0.05635072,0.3327524,0.008928268,-0.182011828,-0.107127748,-0.00292971521,-0.169689149,-0.5652987,0.173147008,-0.09299093,-0.365397841,0.0420843028,-0.0622954741,0.121990494,0.101847269,-0.05226335,0.357720673,-0.0220604446,0.34806025,0.157262012,0.07025649,0.00535520772,-0.207692921,0.05708183,0.264545083,-0.2007122,0.149307251,0.0446210653,0.0520280153,-0.0820839,-0.325507671],[0.140082568,-0.0161168147,-0.0508689769,-0.224238232,0.214033574,-0.197805271,-0.0623094738,0.04436876,0.0488410071,0.0333369672,-0.100824334,-0.1925743,-0.22845529,-0.04295181,-0.0862735137,-0.133206263,-0.07570749,-0.04877294,0.16249235,-0.0905330554,-0.09061317,-0.135390267,0.198737875,0.388374537,0.10916198,-0.174201459,0.05507886,-0.001737433,0.0173598882,-0.294140667,0.0382364765,0.137675464,-0.09451141,-0.134065658,-0.0203131549,0.1341579,-0.121865,0.176016644,0.08225934,0.0015744539,0.110783756,0.250793666,-0.114880577,-0.0107486481,0.0226505529,0.0176494755,0.0347219668,0.08232015,-0.2747247,-0.463487834,0.1313916,0.148596644,-0.07937972,-0.0485755131,0.146402851,-0.3228346,0.166726187,0.465811282,-0.0433196723,0.09286137,-0.04306318,-0.236592114,0.0125116687,-0.0664284,-0.09545628,0.0106166387,0.0944347,0.09995308,0.360207,0.222779736,0.213954836,-0.0577857681,0.270867169,0.248679161,0.285989583,-0.207014486,0.8462782,0.194776922,0.24484846,-0.356381267,0.143268287,-0.0407880433,0.450550854,0.0870172754,0.298748761,0.066648066,-0.3139374,0.117393814,-0.168520033,0.135856614,0.09768698,0.183244467,-0.215295419,0.305349946,-0.1242209,0.108385473,0.0375902839,-0.1495171,0.2257703,-0.0842026845,0.07049184,0.0038001053,-0.3042516,-0.268438935,0.159327552,-0.0609507635,0.1898507,-0.209853828,-0.072613,-0.124489427,-0.142049,-0.13021186,0.07868943,0.14668794,0.106415451,-0.176614881,0.2696883,-0.0440636,0.4032619,0.163008556,-0.0674824,0.168860957,0.108778052,-6.9083595E-05,0.290032655,-0.02399969,-0.08150449,0.1178861,0.104451232,-0.2505967,0.213801369],[0.03380763,0.236018226,0.03207918,-0.263473064,0.176236182,-0.06035387,0.22948432,0.0110193444,-0.118820854,0.0323439538,0.029343782,0.248776,-0.0155088427,0.216377333,0.140811,-0.08239061,0.2631027,0.0409724452,-0.0410635248,-0.153423131,-0.1976881,-0.06802981,-0.04698585,-0.141587391,-0.0266400967,0.003517089,0.423057675,0.20988889,-0.07665135,0.155499279,-0.009014517,-0.04462582,-0.189080164,-0.2499774,0.445586234,0.32525,-0.00800292753,-0.405439824,-0.385424435,0.0820422843,-0.172652245,0.318551421,-0.124119893,0.0169593766,0.0531375557,0.00263642566,0.268775523,-0.127202734,-0.0133755179,-0.214159727,0.134064823,0.139359668,0.355575651,-0.220078275,0.0354585461,0.09925557,0.261047482,-0.144208863,-0.161477551,0.114696451,0.1443932,0.299015552,0.191163912,0.100599431,-0.007359527,0.241591364,-0.2706315,-0.228141233,0.04040598,0.0641910657,-0.174461752,0.162042052,-0.5138346,0.0124991648,-0.0333563127,-0.00217807083,-0.09460441,-0.0408173539,0.07843616,-0.177670151,0.0301387981,0.00472678244,-0.166525155,0.115724452,0.0416893251,-0.1748952,-0.267812937,-0.166125685,-0.07196455,-0.0265629832,-0.1584287,-0.06006784,-0.018726116,0.00202290853,-0.0573713034,0.313847363,0.119036205,0.217027828,0.149212375,0.02755196,0.317740649,-0.185988456,-0.141299084,-0.05484893,-0.237371355,0.211478367,0.0296403933,0.01954604,-0.209027424,0.1557611,0.03057579,0.120102182,-0.138535634,-0.223307773,-0.0475726835,-0.1204184,0.0360714234,0.225594953,-0.124815091,0.161318839,-0.03689236,0.0898391753,-0.03368573,0.006071822,0.257993728,0.09003916,-0.146566585,-0.163305283,0.02799694,0.0358689837,-0.497241467],[-0.047976736,-0.0318136029,0.353664726,-0.188086271,0.08800345,-0.115123883,0.25175035,0.218494192,-0.16181837,-0.215387151,-0.09526554,-0.112678088,-0.415079027,0.264505982,0.1695801,-0.125196308,-0.139722213,-0.06854309,-0.199087083,-0.23912631,0.010004309,0.0241200123,0.223415688,-0.27638486,-0.273547053,-0.0184633825,0.4256803,-0.07078443,0.221006691,-0.226272523,0.0324933976,0.0293619111,-0.0364299379,-0.0942674,-0.116766147,0.121380478,-0.200649053,-0.04031402,0.171614408,0.39162,0.229438141,-0.00509438943,-0.170155838,-0.17354624,0.127969489,-0.0259828661,0.132319272,0.03586443,0.111881472,0.22944808,0.06891256,-0.04621777,-0.150232539,-0.185787156,-0.145148858,-0.264590085,0.05625822,0.07681802,-0.091377154,0.200338542,0.0124734361,-0.0230293181,-0.210685,0.0221647825,0.0467324778,0.2721876,0.0442330725,-0.155475333,0.0724446,0.248702064,0.2174415,-0.169958442,-0.0352296,0.192159548,0.115267344,-0.055247236,-0.231445149,0.257834464,-0.08004863,-0.142431885,0.139668673,-0.116827935,0.2382724,-0.0647650957,0.0192253832,0.0397785231,-0.04073315,0.08500534,-0.0776052549,-0.116675079,-0.384792,-0.09896384,-0.0136721451,0.154419884,0.03882165,0.1520226,0.0178594552,0.15960823,0.259277552,0.0208667386,-0.0106056891,0.135739267,-0.110786811,0.1102775,0.009026618,-0.302770317,0.214304328,0.167499781,0.232517317,-0.163547039,-0.1740757,-0.122382276,0.126038671,0.24466002,-0.07662698,0.09745236,0.326390952,-0.001983242,0.129862234,-0.0414202362,0.07787227,-0.06415995,0.07813153,0.21421054,0.1292371,0.0128766159,-0.16329819,0.153752819,0.04212719,-0.08144222,-0.1853514],[0.4193274,0.03140386,-0.1925938,0.360425651,-0.324163228,0.0239325669,-0.108903557,0.246043265,-0.07223898,-0.110405006,0.0955395,-0.07308217,0.119317114,-0.002258415,0.213347808,-0.262970239,0.199852481,0.18670021,-0.2182464,-0.126880988,-0.23997426,-0.06390401,-0.112217389,-0.3394856,0.102988526,0.0264695864,-0.0812965259,-0.08820467,0.347784758,0.16062744,0.16379784,0.322515666,-0.2268527,-0.388299823,-0.03956769,0.3160456,0.03349536,-0.0505893975,-0.764099061,0.327847153,0.131751016,0.28250885,0.007554486,-0.187952578,0.242945865,0.404883,-0.0392083749,-0.137163728,0.132341474,0.0977701,-0.187437758,-0.0973889,0.08898972,0.185625508,-0.129007488,-0.233083382,0.392000467,0.168791249,-0.004184754,-0.148463085,-0.208307549,-0.1377936,0.320544571,-0.114316642,-0.144241527,0.239824489,-0.148102522,-0.03417065,-0.119245872,-0.354984373,-0.313165426,-0.08280226,-0.81813556,-0.0114284474,-0.182748288,-0.018529471,-0.0612481944,-0.0143929264,-0.04406962,0.163988918,0.07957912,0.1359322,-0.2862047,0.0338338464,-0.19711484,0.0568183437,-0.0403617769,-0.479868382,0.007682205,-0.3734978,-0.6572688,0.12964268,-0.0232691821,0.312105834,0.120288469,0.06452196,0.0469818935,0.1255049,-0.228530675,0.166716039,0.17592898,0.156859368,0.0162526146,0.017748503,-0.379800528,-0.3349152,0.1848491,-0.276545227,-0.114923485,-0.123182446,-0.0546632633,0.21895358,0.03833794,-0.158635154,0.177629367,-0.175291315,0.345436543,0.153841645,0.114112526,0.115665674,-0.0615206249,0.131761044,-0.11633949,-0.116446815,0.380867451,0.125341311,0.0543032475,0.0574641526,-0.09997865,-0.05502456,0.0595116355],[0.149781719,-0.145653814,0.07472989,0.148329929,-0.05322031,0.08449192,-0.06835857,-0.091065824,-0.170541137,0.06755258,-0.08787579,0.125877857,0.0816644356,0.0139304828,-0.07578531,0.004069167,-0.118956387,0.317534834,0.06328569,-0.2926634,0.271447867,0.159061432,0.298683435,0.203800529,-0.0732592344,-0.0875802562,-0.0308160521,0.115646742,0.312761158,0.217711732,-0.119891062,-0.214703366,-0.304661423,0.212158278,0.10203135,-0.165149465,0.00114170334,-0.0747365654,0.668252051,-0.43010053,0.001744294,-0.115311384,0.260146946,-0.0132031869,0.0386847369,-0.0228773411,0.186960742,-0.08447878,-0.04155553,-0.188957125,-0.130286515,0.07314854,-0.0284980312,0.0533752553,0.288484871,0.416732132,-0.231359392,0.438883781,-0.308507979,0.334780276,0.255937874,-0.0566657446,-0.00396000035,0.11410439,-0.178166062,-0.116188347,-0.112468451,0.1344174,0.0115922345,0.00136262458,-0.0384194441,0.354996622,0.2695842,0.117914304,0.016449932,0.0250676163,-0.0597291365,-0.03580341,0.197399512,0.06627159,0.03213091,-0.117924511,0.0510342568,-0.198528439,-0.195293576,-0.04258839,-0.263953477,-0.05179916,0.328207374,-0.13590996,0.05743517,0.0605356842,0.07790029,-0.0378397,-0.129725039,0.21532014,-0.04693202,-0.01406628,-0.08560633,0.09953826,0.20634377,-0.105472676,0.08693001,0.0448707752,0.392915934,0.03650921,0.166054741,-0.2915429,0.06934627,0.029301418,-0.0268091243,0.05927839,0.6460319,0.5674025,-0.049335923,-0.08537463,-0.182101369,0.162616789,-0.003237565,-0.143085584,-0.104516178,0.0113751236,-0.09472177,-0.118987344,-0.168349266,0.178305864,-0.07755928,-0.230445564,-0.226807326,0.01104439,0.9710405],[-0.269765377,0.239445284,-0.0645212159,0.08867202,-0.08953591,0.0978426859,-0.06540834,-0.0500183329,-0.0320259556,-0.0473967269,0.0404538,-0.0476730578,-0.107007317,-0.0177849028,0.09169255,-0.03139516,-0.17199406,-0.0189584028,0.05637846,0.167718351,-0.101996057,0.0965068042,0.152889729,0.07627718,-0.126107037,0.109586261,0.203516021,0.4234932,-0.03941949,0.140345454,0.1975484,-0.1392066,-0.09859852,-0.003325905,-0.161733165,-0.151069865,-0.311091274,-0.175730854,0.173619777,0.190071762,-0.104011312,0.0419419,0.0341168828,-0.0244432073,0.09715342,-0.131658912,-0.181168,-0.0504756831,0.2647065,-0.237288,-0.147687152,0.09472494,0.117777929,0.0606184825,-0.179584742,-0.1104081,-0.036882557,0.0240964815,0.0757458955,0.258614749,0.06341605,0.147876292,0.3734996,0.0216547064,0.132207215,-0.116320409,-0.0607525744,0.154840887,0.09445051,0.211719066,0.0206648987,0.16436933,0.174709648,-0.00801143,-0.201838687,0.08952039,0.1276893,-0.3131319,0.0526165366,0.0550967976,0.04787535,-0.0960556939,-0.0101459343,0.0563130639,0.0501458868,0.154322788,0.005732962,-0.128481343,0.1631266,0.204348117,0.163095072,-0.109470278,0.2870851,0.182652354,0.151112631,-0.0306916852,0.218132183,-0.136173457,-0.127829477,-0.09597746,0.188851655,0.07965902,0.144842222,-0.304125279,-0.03427631,0.306935221,0.1656127,0.0229561366,-0.0779160559,-0.006562574,0.03761186,0.22901471,-0.06019496,0.145697609,-0.09902539,0.0920663849,0.215982124,0.12874192,-0.0188050251,0.05365745,0.0343814,0.07883153,-0.0612686649,-0.052601546,-0.06278974,0.214481622,0.07782752,-0.136368066,0.08730995,-0.113467865,-0.322935045],[0.0554937869,0.0563315749,-0.144155592,0.191561028,0.0856335,-0.0766671747,-0.222297847,-0.135815561,-0.3874627,-0.1833741,0.159532562,-0.0970947742,0.000473662425,-0.0114948479,0.2907587,-0.144050509,-0.184846625,0.185359508,0.0477294736,0.349438548,-0.257305771,0.06529238,0.01820912,0.03147119,-0.04794622,-0.0474226922,0.06466226,0.0261968262,-0.00473898463,0.21343562,0.0011938503,0.0323503576,0.103454739,-0.17348209,0.08495709,0.0798186,-0.145036414,0.0437533632,-0.294081271,0.118725471,-0.0270300433,0.0999849,0.253610462,-0.04937563,-0.6009036,-0.22786884,0.141007,-0.002623601,0.1299055,0.112252131,-0.0461302772,0.09071545,-0.08629849,0.244082034,-0.162470073,0.03722679,0.09534929,-0.008662662,0.0514708571,-0.16095607,0.101478085,0.00661026966,0.160718948,-0.170054734,0.202073082,0.139317736,-0.0951165259,0.185855031,-0.2013447,-0.2592148,0.144727558,-0.111850649,0.1030504,-0.474767119,0.01622526,0.06696436,0.133810118,-0.281292737,0.044906158,-0.137630582,0.06408498,-0.13246356,0.04707144,0.30512175,0.106201924,0.247469828,-0.01033496,0.0159711763,0.222991675,-0.09749223,0.4453193,0.159562945,-0.219465867,-0.111079805,0.196485341,-0.116426371,-0.381189018,0.185652256,0.09551555,-0.102496505,0.151651442,-0.09504941,0.0180922113,0.243610576,-0.242176116,-0.199796319,0.259311169,0.149548039,-0.180805638,-0.0592569821,0.0725063,0.0290990062,0.194246039,-0.0148733789,0.471717268,0.201729983,-0.204448134,0.0952130854,0.172413871,-0.024145497,-0.08705187,0.0113363937,0.03926654,0.2751327,0.195515946,0.225630373,-0.0390545,0.0230776928,0.221766844,0.38716203,0.0411154851],[0.112982407,-0.0295525026,-0.05152069,-0.332182884,-0.0687807947,0.1534444,0.0694942549,0.133615911,-0.223308966,0.04651226,0.145424977,-0.1104293,0.1613077,0.0626048148,0.000987091,0.07192797,-0.09026918,0.114675567,-0.0380442,-0.10714449,-0.03037602,0.019418098,-0.09987392,-0.170631573,-0.2867281,-0.0911646858,0.115395091,-0.00652135955,0.142370552,0.135384187,0.120002747,-0.0501053929,0.0406120829,-0.0779255,0.09495516,0.308765173,-0.04489961,-0.0534564964,0.08201532,-0.056656424,-0.109336495,0.0916087851,-0.156055525,0.0278140549,-0.163562179,-0.0369807072,-0.12861979,0.161338165,0.05286536,-0.0453164876,0.0822858661,-0.336445779,0.2591567,0.112558819,-0.180248454,0.105097212,-0.0482998937,-0.205418065,-0.1546717,-0.293972522,-0.1456305,0.196802586,-0.1066592,-0.02786826,0.0504401624,-0.24687466,0.0198752843,0.018613467,-0.216660887,-0.234936833,0.04034262,0.03948406,-0.0348537751,0.149608254,0.345057219,0.06427886,-0.0258918721,0.106868073,0.106332757,-0.0860088542,0.05633229,-0.0496436432,0.236603752,0.395482272,-0.100640632,-0.3444648,-0.0820672,0.225416452,-0.06392311,-0.172901437,-0.445601225,-0.004526966,0.03062487,0.0202972721,0.01276677,-0.278180331,-0.0508024357,-0.13970153,-0.243170783,-0.137242,-0.12920557,0.0301748589,-0.19945626,0.0555648766,-0.0389931351,-0.113986582,-0.0509765,-0.09058252,0.173215672,0.0453383252,0.0305932052,-0.0498245321,-0.15107806,0.1113414,0.289842129,-0.0176152363,0.130271345,-0.0909105837,0.047717005,-0.09524595,-0.003398128,0.181045085,0.155122355,-0.3748168,-0.06859379,0.108915307,-0.3257445,-0.0713404,0.101562969,-0.200764209,-0.2102244],[0.4645006,0.204773441,7.33273964E-06,0.07769781,0.0906945243,0.1039276,-0.189460337,0.218086466,-0.258629978,-0.0663338,-0.125115052,-0.09234627,-0.1874416,0.0454226173,0.07881731,0.0254440326,0.100752331,-0.0341759175,0.00328202732,0.09938468,0.240489811,0.00281857466,0.0352870263,-0.145273462,-0.006821045,0.0616917834,0.05428441,-0.0369536728,-0.115450233,-0.0161103662,-0.128060624,0.05943408,0.0191200152,0.0138051426,0.11329028,0.495075583,0.078097485,-0.101509981,0.212823272,0.0602719262,0.03512478,-0.174403,0.353732735,0.151577309,0.238772541,0.104837053,0.0733548254,0.139220461,0.159969538,-0.1207275,-0.148026,0.0112615107,0.1738446,0.130137622,-0.175492436,0.188417464,0.001223482,0.294868976,-0.4895366,-0.016793767,0.153751612,0.009044403,-0.208592847,0.144948989,0.112000428,-0.0916706249,-0.279790223,0.0120465523,-0.298982769,-0.02746997,-0.26737836,0.0388255,-0.602698565,-0.204448178,-0.07942665,0.03596659,-0.0151272807,-0.4614364,-0.126885414,0.304032952,0.11486014,0.06910278,0.0439596027,0.193276182,0.276183128,0.181061029,0.05415348,-0.112019852,0.0531580448,-0.1471654,0.465564728,0.15660651,0.121232785,0.264935464,-0.00306778052,-0.201164916,-0.37062186,-0.02920087,-0.125267774,0.194315284,0.05533698,-0.0142401112,-0.118412472,-0.00345727615,0.478559524,-0.08076928,-0.009693266,-0.05095537,0.1345213,-0.2625034,0.000776407949,0.144434214,-0.01360657,0.356760025,0.114320084,0.359616667,0.1954053,0.127424911,-0.033883553,0.244482026,0.039506793,0.06914476,-0.00811392,0.0472318828,-0.064937,-0.239480361,0.0461603664,0.243316337,-0.00234798575,-0.0543075241,0.0552534349],[-0.01357164,0.06402576,0.012491256,0.06315882,-0.314930141,0.0912092254,-0.0242749453,-0.05148704,0.0924138054,0.00121493649,0.123096362,-0.09923004,0.1155606,-0.02754699,-0.243433937,0.161684021,-0.138698369,-0.0232496522,-0.287436366,0.168356359,0.1308561,-0.165578634,0.009052005,-0.211833641,-0.23619692,-0.107911274,-0.101397559,-0.0485546254,0.0307326745,-0.243739426,-0.06378306,-0.1823897,-0.4023599,-0.0212608445,0.019193111,0.290819645,0.104461648,-0.1295386,-0.06412807,-0.122653134,-0.3017684,0.085632585,0.003042072,0.19346346,-0.165725186,0.2186269,-0.06940834,0.243868008,0.2545158,-0.141662285,0.0548087731,0.117453456,-0.07816618,-0.116673142,-0.00543505,0.120619096,0.131073833,0.118854471,0.01947646,0.0813931,-0.0242826771,-0.076232,0.0605874173,0.121664263,-0.0287836753,-0.237129375,0.0008421277,-0.00643024733,0.005572473,0.1374965,0.0926300958,-0.0362084173,-0.152093381,-0.0836321339,0.0839991,-0.06061481,-0.053528294,0.08348747,0.3257521,0.1979638,-0.0646499246,-0.09566755,-0.06386286,0.2192009,0.0132788345,0.01130316,-0.0215436462,0.164474055,-0.07022501,-0.129504874,-0.336674184,0.13912566,-0.0288551711,0.05937924,-0.232347876,0.285683542,-0.07131993,0.184950814,-0.360049456,-0.18059665,0.162079528,0.0458756573,0.07383024,-0.144605711,-0.187370673,0.0235113762,0.06483454,0.255684137,0.157407492,0.0171885863,0.137946874,0.107160389,0.29848972,-0.0151486862,-0.0146824289,0.1196618,-0.0203334764,0.134616151,-0.159531876,-0.112844512,0.24487482,-0.0370079651,-0.0289458111,0.09008845,-0.0277767,-0.0126549313,0.03734436,0.115841888,0.208008051,0.0368189849,-0.09477955],[-0.21422267,-0.128122836,0.10017699,0.154659376,-0.124157734,0.129512042,-0.0308779459,0.2080046,0.165045962,0.04917887,-0.2145634,0.0994476154,0.08258751,-0.176781282,-0.187234521,-0.0230081975,-0.189684987,-0.259094924,-0.245153457,-0.0882143155,-0.0846957043,-0.158845052,0.134412512,0.121305145,-0.0863874,0.0329695679,-0.142722309,0.0442273133,-0.132797927,0.505579948,0.06511313,0.0285085477,-0.07735091,-0.165361941,0.153203309,-0.1010683,-0.233705223,0.5066287,0.0145423859,-0.271095574,-0.120165452,0.056566,-0.178437069,0.140910923,0.289059669,-0.0373145938,-0.183989584,0.2842911,-0.124486804,0.0183150955,0.03852462,-0.000684339961,-0.101603284,0.0136131085,-0.105253428,0.1991849,-0.205823541,0.1559328,-0.0442821868,-0.05526636,-0.11567793,-0.153772309,0.2392318,0.104957864,0.213987574,-0.164799631,0.242456019,0.257511765,0.08849911,0.0381184481,-0.132261142,0.08888176,-0.0372664221,0.20084092,0.268274,0.0133597208,-0.142418385,0.1586381,-0.160360992,-0.191655248,0.250754327,-0.110287413,-0.0481713936,-0.0794393,-0.1660821,0.105773881,-0.506399155,-0.06439304,-0.3673979,-0.162768424,0.0577381924,-0.08784054,-0.345869362,0.00790125,0.1373161,0.0551662445,0.1512842,-0.0183371846,0.116743714,0.030630935,0.0446913168,-0.136473358,0.125271812,0.124177948,0.0454161465,0.04798877,0.0729147047,0.0816597044,-0.197592542,-0.212257132,0.110891461,-0.097636424,-0.08224656,0.206783235,0.08281412,0.1455133,-0.1723151,-0.03187594,0.102754436,0.0907607749,-0.08048632,-0.0508285463,0.121898986,-0.12419939,0.138800353,-0.04081395,-0.134942919,0.214428708,0.224646375,-0.005277436,-0.05628196],[0.2451732,0.153330564,-0.134413943,0.19033511,-0.169662118,-0.1474703,0.3044761,-0.365031868,0.239305437,-0.0374831669,0.00457240548,-0.0846753,0.241445318,-0.351676941,0.147140041,-0.158884048,-0.149492577,0.273845136,-0.0410963222,0.100709356,0.0274580475,0.172954932,0.0209783614,0.04058418,-0.008684626,-0.148378029,0.04018685,0.1359348,0.03526139,-0.0357046723,-0.0124542806,-0.1245157,0.09002548,0.006920894,-0.0179518815,0.5105119,0.146892324,-0.233726278,-0.2471743,0.0941712,-0.0503085852,0.0786528662,0.0887641162,0.03580324,0.000250807556,-0.114490755,0.08708328,-0.153647676,0.0763449,-0.2770368,-0.07821,0.163476691,-0.287345082,0.0481235869,-0.06772264,0.108079955,-0.160329416,0.0454182066,0.0498439521,-0.226495534,-0.09014853,0.0018681928,0.1031154,-0.105451085,-0.10483519,0.0217274986,0.237695888,0.339728653,0.05669122,-0.0214395877,0.428171784,0.03690516,-0.2006009,0.403024584,-0.0172589477,0.124872342,-0.38940683,0.0127196247,-0.0892063,-0.0589219332,0.0720496252,-0.117110208,-0.118898928,-0.161557689,0.191054329,-0.176854923,-0.2988228,-0.00263132527,-0.08842774,0.201848909,-0.279229671,-0.0420993865,0.190650314,0.448422849,0.123757154,0.07832521,-0.0768993348,0.186109424,-0.14589043,0.163402691,-0.0937525555,-0.05430967,0.177059829,-0.107392542,0.206320852,-0.156530872,0.106586479,0.160839,0.0407733545,-0.192536324,-0.161056921,-0.108561113,-0.05019707,-0.008794939,-0.00102124,-0.260693461,0.5679388,0.50117594,0.184042215,0.3371555,-0.117077932,-0.06992607,0.06843777,-0.181757376,-0.106940255,-0.0648593456,0.228132069,-0.154358819,-0.08875547,0.07724432,-0.0152781913],[0.643884063,0.06608938,-0.0173985362,-0.311315447,0.201219544,0.10725946,0.2538879,-0.02440545,0.120866321,-0.3367479,-0.217460945,-0.143001869,0.1071255,-0.180693612,-0.114451855,-0.180657446,-0.08896497,-0.08014874,0.0826666,0.0260581784,-0.279349446,-0.112167358,0.122967094,0.398875922,0.03102293,-0.218916491,-0.300646454,-0.08047924,0.1519335,-0.0599760376,-0.103038251,0.0331286453,0.0306060165,0.08483474,0.4823471,-0.0379909463,0.28279832,-0.08539654,0.2419443,-0.286879718,0.146568671,-0.1999431,0.0268775318,-0.0221479014,0.06388691,-0.2052301,-0.148858383,0.02343507,-0.181652367,-0.590834856,0.122143552,-0.173135743,0.3588245,0.1742137,-0.112418182,0.059416905,-0.102775209,0.209702134,-0.0362590365,0.118497811,0.108778588,-0.0589784943,-0.234104291,0.001512922,-0.284032255,-0.0561361238,0.319738,0.157266021,0.0571416654,0.1644166,0.6131063,0.0157366376,0.6218471,0.121061049,0.384191334,0.218624681,0.387682885,-0.214584529,0.2217865,-0.07238562,0.07284703,0.146708712,0.54550457,0.2832095,0.316792935,0.3599562,0.4127648,0.433862716,-0.107227921,-0.1254876,0.551573932,0.011409943,-0.233355284,-0.274127126,-0.08342116,-0.120598361,-0.0604060255,-0.0654666349,-0.1584502,0.02903006,-0.0759653747,-0.132295638,0.0318892449,0.321092635,0.124480054,-0.158397958,-0.304366946,0.0607454069,-0.219784752,0.0189328324,-0.0943084,0.028261831,0.3404113,0.2557879,-0.142972916,0.23775959,0.08789879,-0.04386111,0.23982352,0.06652701,0.05322801,-0.0543755367,-0.0119207241,0.0455392674,-0.119163476,0.182408348,-0.192217574,-0.0100970538,-0.195728466,-0.137968287,-0.192184478],[0.05566654,0.179521814,-0.187213063,0.260555983,-0.115383931,0.08665877,-0.146719918,0.09634485,-0.0169643052,0.09359024,-0.03686343,-0.04542803,0.130785838,0.137966186,-0.1591725,-0.397258431,-0.02497352,0.108825088,-0.166766554,-0.0725070462,-0.105985634,0.25987497,-0.1427477,-0.17833966,0.0323680677,-0.0495958067,-0.104187064,0.107101925,0.240863234,0.0206586532,0.39815852,0.351021975,-0.0470643863,0.295488,-0.0213963557,-0.245454311,-0.0609483868,0.105562359,-0.258648425,0.007145566,0.190359265,0.179913834,-0.0801732,-0.06672709,-0.0374585763,-0.0453085229,0.2626698,0.021321062,0.1882918,0.1468156,0.2420472,-0.0447055139,-0.172940418,0.0242303368,-0.191022217,0.192455113,-0.02299138,-0.340675265,0.5295183,-0.183845624,0.156826437,-0.10224466,-0.0516371056,-0.263709038,-0.111171789,-0.02878441,-0.0434204936,0.0176024213,0.116049878,-0.259789437,-0.175324947,-0.03354902,0.104244791,0.0635168552,-0.12643379,0.132231921,0.06284768,-0.326903552,0.06340723,0.101545326,-0.30952695,0.0977816,-0.1327252,0.240028828,0.395744443,-0.299339056,-0.04168604,-0.0874452,0.0427778475,0.07068619,0.383983076,-0.0407893322,-0.01030716,0.268740863,-0.123298585,-0.04330889,-0.291573137,-0.179623485,0.0783345,0.03280124,-0.0587795377,-0.0333052,0.09177584,0.181572765,-0.264777571,0.126534134,0.07693946,0.0526065528,-0.120122232,0.223935142,0.129311338,-0.192464933,-0.003701342,0.2255828,-0.137004226,0.1371256,0.460577875,-0.3665466,0.06659482,-0.01708544,0.318090141,0.0371762551,-0.2725248,-0.251958758,-0.156410322,-0.0658275858,-0.0414778478,0.192349166,-0.0198497828,-0.0439251028,-0.235195711]],[[0.03415688,-0.6304584,0.126976743,-0.174555764,-0.1758445,-0.111411467,0.0263590962,0.140635073,0.7392889,0.08957573,0.06995919,0.0997691751,-0.423402518,0.0623283535,0.151438132,0.281425655,0.163928837,0.43830803,-0.025487382,0.0803335756,0.156883389,0.5645676,-0.261257261,-0.209690362,0.1348133,0.1921497,0.0694177151,0.06306071,0.31063208,0.5374148,-0.472534239,0.412184328],[-0.0360978954,-0.225781381,0.08918867,-0.5776572,0.5338104,-0.224222034,-0.3043772,-0.257549226,-0.2701298,0.0783556253,-0.143321022,-0.445015043,-0.018780686,0.0153801907,0.2659991,0.169795915,-0.419032961,-0.242851555,-0.158788025,-0.228388414,0.636888564,0.367343158,-0.174258769,-0.257994771,-0.00589424744,-0.232872546,-0.0418727733,0.0754511654,0.1292266,-0.267336845,0.245603085,0.551095843],[-0.0507197939,0.4944098,0.43693006,0.2515823,0.5441849,-0.3026199,0.2649807,-0.122877084,-0.139323816,-0.267735362,0.280996054,0.9893057,0.704574347,0.6111514,-0.03540559,0.358154058,0.41159457,-0.107035495,0.136460215,0.64101,0.14232716,0.6643139,-0.0554948747,0.09254981,0.0154136671,0.337049246,-0.237997234,0.0733357146,0.03984605,-0.242173672,-0.7009086,-0.146379367],[0.365407318,-0.0756151,0.0805117,0.0421983153,-0.0260426141,-0.2378531,0.300126463,-0.324894547,0.4909105,-0.09322342,-0.0379274264,-0.2965492,-0.331683,0.328721762,0.0438895449,-0.129192144,0.0232355483,0.195682272,0.3944193,0.14038454,0.114075527,0.242390931,0.06437188,0.122328274,-0.035581883,0.8843208,-0.208553359,-0.123163365,0.230030388,-0.177213,0.2790706,0.132920474],[0.7945066,-0.0703734,-0.893336833,0.415373385,0.720250845,0.488370836,-0.300006956,0.179149777,0.0182910487,0.233173266,0.0780597851,0.07920963,-0.614967942,1.00825012,0.484164029,-0.0880334154,1.13311481,0.09938657,-0.3030791,-0.5617263,0.4081731,-0.2919424,0.398028135,0.299352735,0.220755443,-0.1491911,0.100212336,0.09708698,-0.0198665615,-0.218211964,-0.345056325,-0.0266632773],[0.248629868,-0.279221,-0.115976244,-0.08843591,-0.843641639,0.0752839446,-0.04931096,-0.2771341,0.820132732,-0.154229611,0.114378974,-0.5896412,-0.24631992,0.509103358,-0.4259106,0.4314708,-0.0978150144,0.0585327037,0.484080255,-0.0365730934,-0.187453166,-0.137961626,0.341850042,-0.14340806,-0.0162446164,-0.352191061,-0.14247945,0.19737272,-0.117736943,-0.306595147,0.5350085,-0.400514573],[-0.3284058,-0.5963973,0.09390582,-0.01117508,0.408612341,-0.228793561,0.308998048,0.0863342658,-0.1350459,-0.2584372,-0.217157915,0.1419399,-0.553731859,0.177172452,0.160872072,0.578012943,0.274286151,0.610789,0.1811613,0.101658523,0.668844461,-0.00108529325,0.351398557,0.08500867,-0.02650649,0.140132725,0.6827836,0.341086924,0.509735167,0.263132185,-0.10693761,0.06774808],[-0.535552442,0.5878066,-0.293530375,-0.05621622,0.02204931,-0.213178128,0.200288326,0.0889662653,-0.00216644676,0.118979178,0.00778095843,-0.47666055,0.8688013,0.322615176,-0.008402484,0.0284172781,0.7629334,-0.09786881,-0.682498157,0.385025144,-0.149558961,-0.0648960248,0.405281484,0.1202551,-0.0478292331,0.2735968,0.7033977,0.0219568051,-0.429036468,-0.5896857,0.110433348,0.0585055873],[0.204291552,-0.385941535,-0.0370757245,0.07245805,-0.15769124,-0.127738,0.171327323,-0.204561144,0.278990775,-0.02806869,0.348026574,0.281842947,0.2316631,-0.190833673,0.1443183,0.474882,-0.00424695527,-0.36547336,-0.189280286,-0.171888933,-0.06125188,0.124206476,0.31897974,-0.1014113,-0.02602442,0.3049225,-0.0703288838,-0.09113745,0.278888881,0.472079426,0.169379711,-0.2847783],[-0.0142714772,-0.04922025,-0.0449525267,-0.141580656,-0.167879909,0.164328426,-0.156014115,0.377894461,0.09639758,0.411662728,-0.1579967,-0.6989731,-0.126855239,-0.404388756,-0.3509064,-0.103627019,0.08885648,0.176595747,0.3557194,0.160641074,0.01568837,-0.236457035,-0.273985058,0.117136993,0.3569764,-0.2454389,-0.3891542,-0.104508922,-0.008351381,0.101084806,0.05686515,0.4132652],[-0.163740531,0.9171839,0.208337024,-0.0361296423,0.871513546,0.0189099442,-0.209044978,-0.09287692,-1.108603,0.4866016,-0.0487938821,0.8140541,0.373440474,0.757281,0.0903524458,-0.272811949,0.397890329,0.10656675,-0.4425711,0.8728514,0.411658138,0.216746464,-0.0112525979,-0.0368563645,-0.09315305,-0.5588331,-0.1452829,0.507115662,0.418208122,-0.1829466,-0.589182258,-0.375683129],[0.39183566,0.0214172471,0.09936289,-0.39677307,-0.4435338,0.241969779,0.6050799,-0.173300758,-0.358524352,0.07977775,-0.478041977,-0.01605741,0.483965844,-0.200854018,-0.141924754,0.445217282,0.140047386,-0.472274154,0.08140158,-0.54323864,-0.278487176,-0.6766466,-0.113346063,0.256177723,0.02142672,-0.07689808,-0.259726822,-0.208804533,0.07010101,0.231068477,0.832052231,0.0429174937],[-1.05058646,-0.261935979,0.193979859,-0.151142254,-0.385601729,-0.08671123,-0.5092353,0.12781997,0.597766042,-0.322966039,0.6168752,-0.2079084,0.299645036,0.461353034,0.0321681723,0.124552578,0.2523797,0.9388973,0.339258045,0.303679,-0.0935681462,1.00144982,0.323249459,-0.2156844,-0.3326701,0.117022268,0.1006901,0.04245031,0.400958031,-0.111978963,-0.144634739,0.18572171],[-0.048960425,0.3513424,0.6307174,-0.2959106,-0.08440258,-0.134357661,-0.05198038,0.28630954,0.101035707,-0.327679366,0.293425649,0.370424747,0.507358134,0.0687455162,0.117628679,0.1941946,0.8790159,-0.195079476,0.2202337,-0.453834474,-0.0379978456,-0.213851959,-0.0817689,-0.169932842,0.3924381,0.09725938,0.129061654,-0.185210541,0.299446017,-0.3996973,0.6201582,0.054638017],[0.349465519,0.5381225,0.442643464,0.333083421,0.423920274,-0.276759237,-0.102091774,-0.124942623,0.287670463,-0.2722815,-0.507068455,0.234161675,-0.164893255,0.154619187,-0.0103266155,0.221227825,0.000394512434,-0.04327395,-0.192974716,0.217505053,-0.130733624,0.0417061746,0.174275458,0.07606253,-0.522859335,0.313475579,-0.355729282,0.139476791,-0.07594787,-0.193704873,-0.253512859,0.6954814],[-0.210275427,-0.0113804294,-0.144994974,-0.6118098,-0.244476154,-0.604737937,0.09844489,0.3266818,-0.160032555,-0.193215013,0.0120496377,-0.0122573851,-0.724011362,0.229375556,0.03811809,0.371528864,0.0860328749,0.245334119,-0.0113973916,-0.03412739,0.2920733,-0.414053023,0.274720043,-0.513809,0.008378475,0.181253627,-0.03883699,-0.036809206,0.07536469,-0.3013778,0.350502461,-0.0342013724],[0.633420765,0.298175752,0.08180007,0.314275473,0.665994465,0.08249753,-0.1599936,0.08506522,-0.198464945,0.411871016,-0.294855148,1.17117357,-0.384549737,0.204871148,-0.263709754,-0.2564065,0.56192553,-0.4031581,0.218830809,0.109603137,0.0161765739,0.5085669,-0.242238954,0.431191266,0.0118207838,-0.15554522,-0.0786359459,-0.188315138,0.319176644,0.3797442,-0.124834463,0.20316577],[-0.367327243,-0.0268993974,-0.125516549,-0.225095659,-0.439115822,0.289135754,0.241832227,0.186501145,-0.222313553,-0.00501616672,0.03339909,-0.140071258,0.22044979,-0.281219274,0.1791457,0.200031847,0.0378635935,-0.154725283,-0.22495383,-0.0190044083,-0.277029,0.0157141685,-0.2086101,0.403590083,-0.300797045,0.0184039846,-0.570972264,0.289313316,0.169033617,0.09663372,-0.1074549,-0.04424319],[-0.148478046,0.139698863,0.286374122,-0.4036846,-0.09572791,-0.07266885,-0.08187794,-0.0684195757,-0.056620542,0.16052556,-0.09140789,-0.0813138857,0.0194462352,-0.05277351,0.223910987,-0.03343167,0.2714632,-0.0236733984,0.281834424,-0.07490249,-0.49083057,-0.5623239,0.0385024324,0.115160421,-0.184440032,-0.162087888,0.201143429,0.161196187,0.210892335,-0.3665027,-0.6202817,0.273770154],[-0.1328323,0.0766257644,0.137200132,-0.200906634,0.2532246,-0.0568455346,0.289836138,-0.16208376,0.9481357,-0.3126146,-0.322428346,-0.340092719,0.4810527,-0.452745557,0.104844317,-0.404726923,-0.0183871239,-0.581378043,0.5970395,-0.998002946,0.169414848,-1.0161984,1.30722761,-0.225946471,-0.267784685,0.252044171,0.09234274,-0.01818965,-0.08654691,-0.193298727,0.9042069,-0.789126158],[-0.3536636,0.4321377,0.125009984,-0.315114915,0.8689941,-0.433323264,0.108155593,-0.37988162,0.0435336754,0.152928233,-0.120039307,-0.09785261,0.0360693075,0.343079865,-0.162049681,-0.411179543,0.254083425,0.0676630661,-0.153737828,0.228026241,-0.26431343,0.135128826,0.56255585,-0.398626477,0.07797926,0.2647789,0.153962389,-0.28231,-0.131367326,-0.0657277256,-0.1754847,-0.256007135],[-0.0395923443,0.236587912,-0.376205683,0.2058828,0.407318145,0.2801057,-0.128210932,0.000694049464,-0.6199248,0.112036325,-0.290752321,0.226175591,-0.0505369976,0.5499116,-0.70753336,-0.72514087,0.2519006,0.5842161,-0.5279525,0.04414932,0.311606973,0.0176434219,0.660562754,0.166873872,-0.147174522,-0.138506427,0.6107362,0.357251346,0.051688768,-0.4983346,0.151267946,-0.6210827],[0.7399804,-0.3920434,0.0890263,-0.081821464,-0.331041336,-0.323666364,0.0118620917,-0.161581635,0.604219735,-0.272120267,-0.110630043,-0.5549794,-0.0414856747,0.2512295,0.101623312,0.27021,-0.0343358442,-0.188232347,0.003736852,0.0564824343,0.08647566,0.28283897,0.389565974,-0.0413825326,-0.156979918,-0.463610172,-0.0965034142,-0.205002159,0.6512221,0.3521802,-0.2404068,0.122089446],[0.0199228451,-0.230426386,-0.116598614,-0.360653162,-0.5323481,0.165590346,0.04734655,0.152198151,0.368688852,0.139994934,0.134566352,0.337651372,-0.1842057,-0.363964349,0.209138885,-0.475311875,0.152489245,0.0165209156,0.20320268,0.3068429,-0.102876626,-0.0307118241,0.008719044,0.2786391,0.134039983,0.07384012,0.0270284619,0.129020542,-0.213626936,-0.25827834,-0.2928135,0.09562793],[0.292944431,0.05474393,-0.027505178,0.239062265,-0.0244971663,0.170980215,0.260511458,0.03397089,-0.0433754139,-0.235722736,-0.0162862875,-0.0531606078,0.432969451,0.5192189,0.308411658,0.0897496343,-0.0777599141,-0.0833896846,-0.087134324,0.0661473051,0.232457682,0.400553018,-0.370295316,-0.206277356,-0.0455261,0.511919,0.22586669,0.0776806,-0.08538842,-0.0324843265,-0.0254966281,-0.186816],[0.372792721,0.9446834,-0.363740146,-0.3340714,-0.143313244,0.279130548,0.363574177,0.9843603,-0.316698432,-0.490988046,0.0621262565,0.0600388162,-0.451109052,0.481898,-0.228192329,-0.2811285,0.278592318,0.257896155,0.35017994,-0.271557629,-0.237861961,-0.149279878,-0.030363651,0.2868791,-0.0559568964,0.007139782,-0.729499936,0.0100163044,-0.03901221,-0.150188178,0.416908,-0.2066616],[-0.234729022,0.4980013,0.02609435,-0.164313644,0.453003764,0.382709026,0.32950902,0.0491964445,-0.52260226,-0.239780977,0.0393219255,-0.222953975,-0.08857286,0.496519536,-0.126168609,0.1857407,0.7066954,0.149177134,-0.05948981,0.109355956,0.138191879,0.186432153,-0.109815978,0.09268281,-0.1669903,-0.202566668,0.005522311,-0.181212708,-0.20631814,0.007951609,-0.2711506,-0.454892874],[0.4713113,-0.349289984,0.004349965,-0.367475182,0.320725828,0.227346525,-0.108665779,-0.486031026,0.234946191,-0.01288167,0.147130743,0.554969847,-0.016457051,0.202628657,0.0213348921,-0.0196978785,0.285279572,-0.317365438,-0.08364379,0.0192948,0.3691196,-0.3095467,0.197421342,0.09948069,0.197776467,-0.07490936,-0.325714469,-0.282043159,0.230495721,0.1278821,0.2236591,-0.352877021],[0.0939094,0.193055019,-0.2835767,0.0630961955,0.02716618,0.3427098,-0.18511875,-0.109726779,-0.108207583,0.0541720428,0.388263255,-0.4549354,-0.07107124,-0.10424266,0.212839812,-0.114594869,-0.132107764,-0.3802479,0.08825404,0.0179211255,-0.3063737,-0.03592169,0.15824312,0.6030224,-0.03302239,-0.170698509,-0.197184458,-0.4119917,-0.4425695,-0.318912566,-0.0268693063,-0.151084974],[0.9754895,0.292728,0.495572984,-0.7271085,0.200702861,0.2939872,-0.09041063,-0.408022374,0.32874155,-0.312244326,-0.236642852,0.640289843,-0.2339777,0.410662353,-0.0459825546,0.134383053,-0.20560497,0.747815549,0.2711384,-0.0243683774,0.299446225,0.135449141,-0.402733415,-0.130025223,0.190895632,0.2563382,1.01238775,0.00569983339,-0.112677515,0.475403428,0.4175829,0.336972117],[-0.0918383,-0.02799205,-0.1298182,-0.254007339,0.2481346,0.260210156,0.05515717,0.13523142,0.4674507,0.06339339,0.115077622,0.0456171632,0.03071545,-0.110365763,-0.139186129,-0.160992891,-0.380921721,-0.322407633,0.07513401,0.0417663381,0.06837055,0.0454807766,0.03956273,0.1410516,-0.219031587,0.118206233,-0.473056346,0.3951989,0.128726169,-0.295314848,-0.253076643,-0.08402186],[0.140237421,0.355742335,0.122640349,-0.06324054,0.4004972,0.010763539,-0.0845661238,0.0577634946,0.0479551144,0.101093784,-0.09378429,0.46766448,-0.174038365,0.3438236,-0.216894358,0.008145954,0.5451412,0.0191557072,-0.300338477,-0.1718904,-0.0935061648,0.247244537,-0.177048817,0.23027584,0.181823909,0.2304262,-0.300823033,-0.0665242,-0.0326502,0.1092389,-0.5819936,-0.151239648]],[[-0.01571354,-0.0216720179,0.7982352,-0.6212665,0.353913754,-0.961537957,-0.2706755,-0.151781008,0.0388755724,0.1268606,1.500124,-0.6049606,-0.6598328,-0.38090995,0.07511071,-0.0601849258,0.7404388,0.170541257,0.0484974645,-0.9174957,0.65142864,0.8613359,-0.654362261,-0.0343519822,0.164640278,0.0249812827,0.544569433,0.195209637,0.109962963,-0.82618314,0.06409696,0.65348953],[-0.00377128413,0.338942945,-0.225616574,-0.173631132,-0.316040665,-0.440193236,-0.184689984,-0.321160436,0.0290417653,-0.05069947,-0.316702664,0.116464041,0.2696768,-0.0637519658,0.389808983,-0.08296063,-0.135253876,0.2845912,-0.0517609753,-0.2250053,-0.117840119,-0.0270020645,-0.08465416,-0.149285868,0.012440905,0.012462399,0.102604233,-0.28300187,0.2343169,-0.610755444,0.219657764,-0.156862691],[0.3187731,-0.100123376,0.612912953,-0.260017157,-0.8057432,0.203401342,-0.381758928,0.34611398,0.438776016,0.165119842,-0.3117165,-0.3610882,0.5914352,0.263150662,0.2244845,0.113095857,-0.292144865,-0.121613182,0.0002018419,-0.790013731,0.141207054,-1.140651,0.356187671,-0.022807749,0.0344063938,-0.4416492,-0.0262070335,-0.6599299,-0.104971305,-0.796000838,-0.0002954857,0.1343356],[-0.232450962,0.1251494,-0.3349325,-0.203629583,-0.34456557,-0.29818517,-0.2817961,-0.07576828,-0.07192022,-0.269460231,-0.03003549,0.06562646,0.04110361,-0.201925263,0.102645732,-0.200080588,-0.219746009,0.263040662,-0.0686430261,0.087603,-0.115481712,-0.115865208,-0.344684571,0.151240721,-0.379895955,-0.106450319,-0.205445826,-0.06198319,-0.1472327,-0.6237816,-0.1413765,0.08538752],[-0.08929515,0.120607391,0.0213457868,-0.23817119,-0.3652748,-0.188723475,-0.0885695,-0.06706582,-0.005766917,0.00574394,-0.422986627,-0.2803277,0.0313227922,0.0769082,0.0314391181,-0.16045171,-0.4763267,-0.08827184,-0.0108804721,-0.255421937,-0.03621599,-0.181744859,-0.0820196047,0.06640442,0.231934473,0.294724077,-0.0246103965,-0.206636712,0.165539593,-0.8055938,-0.130400643,-0.1295656],[-0.179556578,0.113942459,-0.09972838,-0.105151087,-0.457653046,-0.08521246,0.0129690683,-0.457573354,-0.0496338,0.0133916605,-0.167608961,-0.06343507,-0.600714564,0.180377543,-0.109234288,-0.138701677,-0.166900292,-0.018153172,0.1274719,-0.3774014,0.008598296,0.0532820225,-0.0463552251,0.02272673,-0.002164247,-0.268366933,-0.210418358,-0.260130376,0.147283539,-0.2034653,-0.0786523,-0.07731834],[-0.5918463,-0.257880747,-0.0330800749,0.158778742,-1.16465247,0.4819877,-0.6109021,0.166339636,-0.228752822,-0.08235732,0.0215795673,-0.17145063,0.3737463,-0.4976947,-0.11107064,-0.304912329,-0.5682026,0.03752439,0.102610141,-0.217554018,0.221184283,0.353079081,-0.3205651,0.136067286,0.324303865,-0.304675639,-0.155214682,-0.4976635,0.06017915,0.16579996,-0.320739985,-0.368562132],[-0.103043705,0.00171378255,-0.25878793,0.129519388,0.120282441,-0.0611230321,-0.73727864,-0.37477684,-0.434740126,-0.09366861,-0.597149551,-0.7624329,-0.284707934,-0.07205789,0.568305552,-0.315674633,0.09706452,-0.2662423,0.1495047,-0.8305671,-0.304031879,-0.264767349,0.197561264,-0.0182995461,-0.0904025659,0.432307661,-0.6224871,-0.268791676,-0.08229802,0.05359901,0.08629028,0.1724796],[-0.07385713,0.02085492,-0.755707145,0.172278851,-0.259633,0.6827621,-0.6005604,-1.0331099,0.3672966,-0.04364018,-0.596170545,0.5524558,-1.199088,-0.5328096,0.04466982,0.06514323,-0.147372618,0.269219,0.211636677,0.353982657,-0.176082417,-0.153481662,0.550116,-0.06023071,-0.199501157,0.169570029,0.0248028468,0.369286537,0.137479991,-0.2655907,-0.298392624,-0.274768],[-0.5954405,0.102429524,-0.232422948,-0.03771701,-0.498953819,0.3596411,0.009567679,-0.34530282,-0.231899321,0.199628279,-0.100296572,-0.3226567,0.5440936,-0.0106586684,0.3097136,0.524047852,-0.613106132,-0.0941696,0.209853858,-0.3073769,-0.460351259,-0.1810506,-0.392609149,-0.09089863,-0.384326,1.14753783,0.0285847448,0.106136709,0.125470862,-0.7071105,-0.0650259554,-0.164227262],[0.112597488,0.0893696547,0.105006054,-0.349607557,-0.295266867,0.0484595224,0.05468916,0.114642948,0.09910124,-0.0289224945,-0.07337467,-0.08109741,0.005258777,-0.0157470163,-0.427947164,-0.14090693,-0.153207585,0.321791768,0.147131965,-0.443014,-0.270356655,-0.126431555,-0.389546424,-0.313817382,0.07842617,0.06374578,-0.130225316,-0.2055252,-0.0540143773,-0.5530266,0.121232383,-0.306811869],[-0.2437879,-0.108025469,-0.104020782,-0.02398672,-1.45557475,0.02099139,0.06907325,-1.13630223,-0.16666922,0.104997315,-0.0427258052,-0.1396308,0.0183332823,0.5156431,-0.2002396,0.1122856,-0.139905453,-0.0128175318,-0.04969936,0.262881,0.298437566,-0.273870617,-0.490830749,0.3293347,-0.383714527,-0.3811512,-0.174760386,0.0519662648,-0.123225659,0.268526167,0.27306512,-0.372873425],[0.151575923,0.1052859,-0.176309422,-0.205690771,-0.767357767,-0.5914555,-0.4136411,0.4795442,0.0381828435,0.139040321,-0.3883969,0.8389565,-0.63781625,0.188693449,-0.2317125,0.060762424,-0.469774723,0.3135495,0.0184596479,0.274986565,-0.02723232,0.0102097271,-0.337761074,-0.190542072,0.2979451,0.219445512,-0.112588666,-0.0840267241,-0.0447544754,-0.354983479,0.271711618,0.199731946],[0.02060558,-0.03623325,-0.490213752,-0.475860357,-0.408180416,-0.366966516,0.2138317,-0.043850366,-0.214588076,-0.121482052,-0.574034631,-0.205333725,-0.25661844,0.122444138,0.09610967,0.0466365144,-0.115513138,-0.123713136,0.23852168,-0.260172546,0.04371383,0.00457503833,-0.09388292,0.0245890822,-0.189060986,0.0309875179,-0.488509566,0.278719723,-0.332922578,-0.4363371,0.2888956,-0.122285634],[-0.308227122,-0.03653888,-0.9232319,-0.3913894,0.460535318,0.18580769,0.174744189,0.276643068,-0.369939417,-0.07388093,-0.532660961,0.0235127918,-0.328809172,0.370866865,-0.376642883,0.4372733,-0.190032512,-0.122402772,-0.0182202458,-0.770158947,-0.5222074,0.3712983,-0.0522398651,-0.08433505,-0.18117632,-0.0605316758,-0.444938779,-0.0465307869,0.06087406,-0.0255897678,0.162944779,-0.4194329],[-0.156612813,0.0546954647,-0.5470766,-0.257090032,-0.125004947,0.334028572,0.134011626,0.384469956,0.207000718,-0.0563182421,-0.770890355,-0.447247922,0.461720824,-0.37105155,-0.1259851,-0.02573363,-0.8370017,0.267594516,-0.1973384,1.3430655,0.705624759,0.3640358,0.0350743569,0.133563161,-0.5198319,-1.03733408,-0.234849378,-0.211568758,0.106021263,-0.8980603,-0.16381827,-0.244112685],[0.596918344,0.242772222,-0.179142341,-0.16529721,-0.3130933,-0.195521325,0.635104358,-0.5044631,0.0413958058,-0.117479526,-0.873423,-0.424434334,0.47415334,-1.20547831,-0.1732776,0.0112204645,-0.0548487045,0.246737212,-0.269547343,-1.2651186,-0.3154226,-0.275613934,0.160513788,0.07649472,-0.05323013,-0.8499811,-0.291865766,-0.247836918,0.199020118,0.566677749,0.07645099,-0.244928747]]],"layers":[131,32,32,17],"Cost":4.985046E-07},"intentNetwork":{"biases":[[0.3483824,0.191127211,0.2519833,0.7534752,0.4202546,0.3227783,0.243602023,0.186719447,0.291282,-0.0207494833,0.08376909,0.8500055,0.344750941,-0.0558092669,-0.0190730318,-0.09152007,0.2866093,0.07750573,0.284020215,0.61580056,0.2217927,0.324740767,0.2470906,0.148984283,0.07595909,0.0765289143,0.0148410713,0.363931954,0.436733216,0.373293281,0.08749987,0.0132876392,0.361599118,0.283481419,-0.0139252916,-0.074684374,0.216782227,0.0629223362,0.66485846,0.220249191,0.366107345,0.209037736,0.023804592,0.04419253,0.048840303,0.393162757,-0.0485896729,0.351888031,0.182414725,0.07430912,0.585169554,0.224532992,0.17605634,0.182883635,0.139653563,0.5247951,0.00971082,0.101853088,-0.108085096,0.5508137,0.17900598,0.196669027,0.039624013,0.238476783],[-0.0278280452,-0.278722763,0.03748351,-0.06177761,0.125415921,0.17871514,0.03463634,0.044256568,-0.0871596,0.06410233,0.183752,-0.135127872,0.2424014,0.020107748,0.186369464,0.2666534,0.095881395,0.008766711,-0.07028694,0.131412819,-0.07623003,0.126685441,0.07541104,0.167367592,0.666999459,-0.116201244,-0.0218088683,0.193813175,0.041182518,0.111485146,-0.05053238,-0.05146769,-0.0251351651,0.432125956,0.200873882,0.164787978,-0.0536069423,0.5783797,-0.0325131156,0.03793773,0.219280154,0.226563349,-0.231991038,0.3624047,0.1299408,0.04331094,-0.03612949,0.147683039,0.07864823,0.2604759,0.288429022,-0.03172161,0.20039919,0.436665744,0.238283,0.3899623,0.5001612,0.382501036,-0.229621291,0.0588747859,0.00938059948,-0.0115986029,0.650664032,0.0208208635],[-0.302036375,-0.6598641,-0.218065947,-0.295088321,-0.429123372,-0.5417929,-0.6040766,-0.5391226,-0.6690505,-0.100805312,-0.48052597,-0.50434804,-0.363398582,-0.511095464,-0.57565105,-0.5535619,-0.473183841,-0.5515522,-0.4665038,-0.412755877,-0.277231544,-0.410484523,-0.3718246,-0.3728443,-0.6117907,-0.5218408]],"weights":[[[0.218792021,-0.02648659,0.1847632,-0.157776535,-0.118578181,0.1689066,0.1178584,-0.14616856,0.06046869,0.03549651,-0.0823504254,-0.0509591624,0.125991642,0.233060181,-0.1762698,-0.012272804,0.0227980521,-0.09482518,0.04932458,-0.095598,0.01696421,-0.08591098,0.121077962,0.07652595,0.396346658,0.167612389,0.0207662,0.2609144,-0.314162463,-0.07514406,0.04604527,-0.00145523448,-0.07010459,-0.128504679,-0.137056485,0.273489147,-0.251744747,-0.0860674158,-0.177060917,0.1672925,0.1470352,-0.109727249,-0.08466873,-0.0626689643,0.00719270064,0.1009454,-0.3045819,-0.082567744,-0.141268224,0.138331473,-0.195614085,-0.005456498,-0.307161927,-0.0645112544,-0.405281,-0.2831173,-0.107468791,0.0238132328,0.756183863,0.159674734,0.0324412137,-0.178244889,0.1381607,-0.314364552,0.03152004,-0.24904868,0.05579919,0.07789256,0.199668646,-0.0196887981,0.02704859,-0.221435368,0.198217258,-0.0101178363,0.0188351385,-0.1270309,-0.0475375652,-0.196844161,-0.136689842,0.227275982,-0.263658464,0.201952651,0.128226787,0.150003046,0.120437227,0.238731578,-0.08688016,-0.08250368,-0.0211924575,-0.40249753,-0.334361732,-0.116787389,-0.165063292,0.021600293,-0.185270742,-0.175483316,-0.10520985,0.09514806,-0.09350485,-0.0283923149,-0.39030543,-0.00602202537,-0.04109946,-0.189150617,-0.236579388,-0.08396466,-0.1407563,-0.174014479,-0.159956,-0.0271432027,-0.0582300238,0.07090701,-0.136523992,-0.009542238,-0.186698139,-0.0405089371,0.07318719,-0.03163137,0.07705972,-0.00511568459,-0.17648074,-0.00412744936,0.136584535,0.121682435,0.200400174,0.227762252,0.218080148,-0.02955861,-0.224237382,0.03026512,0.490743726],[0.103926525,-0.1270979,0.236473113,0.181536347,-0.14545463,0.0267720278,0.0347104,0.217370138,0.124253795,0.09530922,0.210088238,0.163200572,0.260513216,0.20752193,-0.21062161,-0.2570539,-0.0191473253,0.371411383,0.0113873892,0.0171186924,-0.3227211,-0.00207923073,-0.0825994462,-0.08563132,-0.0381920636,0.199239716,-0.122827075,-0.180474266,0.4787672,0.3745186,0.0705263,0.06512003,0.133365452,-0.08708163,-0.220178455,-0.294214427,0.0652684,0.115613706,-0.20265305,0.09226151,-0.32764715,0.147764325,0.1847197,-0.191628426,-0.0212297756,-0.007846979,-0.05127258,0.179851443,-0.1326453,-0.06886631,-0.0792534947,-0.106324196,0.0281451326,0.0377532244,-0.0284809284,-0.009490878,-0.186238065,0.0470568649,-0.201361611,0.0199560039,-0.120964475,0.143866658,-0.112563625,-0.238967627,0.04151712,0.09842882,-0.08327626,-0.151722729,-0.00169163628,-0.0583218858,-0.0916600451,-0.221668988,0.07448684,0.0790351,0.09102456,0.109850317,0.0614786036,-0.0535755567,-0.311529279,-0.06292251,-0.3940874,-0.008491851,0.1453512,0.261561573,0.122166142,-0.00708466629,0.04512432,-0.00253180182,0.0832090452,-0.0174368136,-0.1661604,0.0301277339,0.07012029,-0.02684752,0.243739456,-0.112790108,0.140879259,0.009267652,-0.06014661,-0.0572874732,-0.0575700775,0.137641087,0.0559335276,0.221856326,0.139473528,-0.0218856838,0.09687727,-0.0238441713,-0.07124807,0.00144423614,0.09033292,0.188132212,-0.07906294,-0.1194274,0.02676565,0.002374067,-0.121287376,-0.105119318,0.0101561788,-0.139977708,-0.147022441,0.121319748,0.0165175851,0.202544674,-0.141312584,-0.3081043,0.195208773,0.08262528,-0.287120461,0.222701713,-0.06698244],[0.625547349,0.06371296,0.040893808,0.0648032948,0.2850146,-0.3602303,0.0158948284,-0.0800628662,0.120572142,-0.111517295,-0.144492045,-0.232636869,0.0517435446,0.05516882,-0.0131634837,-0.114957035,-0.214158908,-0.135659978,-0.06177483,-0.261927,-0.4176242,0.118253216,0.149367124,0.476832569,0.09148991,-0.141547486,-0.2651939,-0.0236791931,-0.143650487,-0.110152572,-0.0326819532,0.0102776606,-0.13684912,-0.05592717,0.0008585326,-0.0582900941,0.0120419,0.101182513,0.0552352853,-0.0624490827,-0.05050736,0.0217455458,-0.217589751,-0.14327541,-0.196123421,-0.124872677,-0.141119555,-0.08851323,-0.235460982,-0.101708822,-0.198734239,-0.127909184,-0.125486284,-0.0382083729,-0.21902205,0.107484676,-0.00826141,-0.1409224,-0.564578,0.05343468,0.0209726226,-0.37910676,0.124484912,0.221676692,0.1589552,0.008321987,0.35269928,0.0512420125,0.19012472,0.30980435,0.502904,0.150630832,0.5384993,0.102996074,0.1144215,-0.19263868,-0.102603495,0.355176777,0.0244798735,-0.2831064,-0.0260356888,0.04832233,-0.240201235,-0.2462142,-0.239001229,-0.193870023,-0.00567124924,-0.1280613,0.237332821,-0.224992812,-0.284723,-0.331317663,-0.200076908,-0.164279729,-0.2722349,-0.028035095,-0.0114067858,0.204553276,-0.196950644,0.05778224,-0.218781412,-0.101961583,0.04198771,0.151743218,0.2357135,0.124155074,0.3729778,0.232698813,0.30598563,0.5300375,0.206177771,0.07710621,0.1280914,-0.105492406,0.134287521,-0.0180343762,-0.270732552,-0.279040843,0.009948712,0.1104064,0.0709013939,-0.204424575,-0.02592574,-0.0323942341,-0.07016682,-0.306920826,-0.201456055,-0.07872767,-0.158813864,0.0315052159,-0.189373508],[-0.3276186,0.2662704,0.158812135,0.1593554,0.05174411,0.09969749,0.149968833,-0.054911714,-0.146515861,0.272809178,0.133534253,-0.145609215,0.179695144,-0.0138821341,0.191109255,0.249278709,0.0023882247,0.187012121,0.0435932651,-0.103332818,0.0122119058,0.00420598825,-0.08117022,0.3584425,-0.07030445,0.08384587,0.185767308,-0.117305554,0.5344722,0.0612069778,0.4002563,0.328523785,-0.2467226,0.631171167,-0.034755867,-0.1326288,0.265282631,0.0390752144,-0.1388636,0.200341865,0.08055895,0.415919244,-0.1959659,0.264705658,-0.0224478636,-0.07490983,0.05044959,-0.000231730985,-0.08504962,-0.06577417,-0.0165219475,-0.2709682,-0.0398908742,-0.0121124759,0.269325972,0.2008071,-0.249539182,-0.273687154,-0.243354172,0.2322703,0.121285819,-0.0185255855,-0.0427615456,-0.173134938,-0.169295043,-0.197314,0.0920675,0.231694013,0.0893278345,-0.0337805152,0.343850166,-0.221101686,0.5022581,-0.38462317,0.258951068,-0.217094034,0.07016379,0.0195009653,0.423171341,-0.122184388,-0.373305768,-0.450302958,0.0131151471,0.129322037,0.0292243473,-0.110630013,0.118983604,0.285307,0.190604359,-0.0332893543,0.3017501,0.1564615,0.0323647149,0.05966634,-0.5344873,0.324344218,0.136639744,-0.313043684,-0.127001584,0.159443721,-0.08982531,0.173518836,0.07269534,-0.0789589062,0.23676002,0.161876529,0.271608084,0.337223,0.232101083,0.5328538,0.420410752,0.250898778,0.110575959,0.3526778,-0.03774832,0.030461723,0.128810957,0.247017711,0.151846513,-0.06439052,0.0256855134,0.0899661258,0.00263844081,0.237936169,0.618797064,0.434424132,0.194278285,-0.0400217362,0.008116001,0.134007171,0.00360791944],[0.126649126,-0.128972635,0.20412077,0.0187849,-0.125376835,0.06399109,-0.1142783,0.04375085,-0.133764416,0.00212387065,0.231953248,0.220712647,-0.0242593419,-0.169692069,-0.251235,-0.220251948,-0.07224701,0.5998624,-0.141647235,0.193866864,-0.111183226,0.0488385931,-0.3474615,-0.1429974,-0.198895618,0.543162465,0.07069292,0.107038826,0.397314847,0.359084755,-0.00357285771,0.102177031,-0.233200848,-0.0324667357,0.0310939029,-0.1476161,0.210770115,0.07311387,-0.599344432,-0.006504411,-0.123619854,-0.0417043641,0.11763332,0.219424814,-0.07768323,-0.101323053,-0.0264158025,0.252401739,0.00192026235,0.0746473446,0.2543738,0.1538455,-0.121145904,0.03940583,0.1899792,-0.122265689,0.3016254,-0.281358927,0.7594149,0.31545487,-0.0669321641,0.0557501875,0.197112188,0.08092027,0.319729835,-0.0154532017,0.0760737658,-0.08877769,0.286013246,-0.0116636651,0.204885513,0.0478548929,0.5468311,0.359518856,0.07909064,0.220709,0.0861381739,-0.532624841,-0.287738651,0.353981465,0.357990056,0.172949091,-0.204306856,0.1221136,0.137633026,0.0185509752,0.11411754,-0.006627501,0.118979,-0.105845951,-0.174979538,0.0275317039,0.0204766039,0.00134898257,0.239974737,0.08089846,0.061036814,-0.223476514,-0.134980425,-0.06789766,0.3048052,0.208927184,-0.03141933,-0.0235802364,-0.005604385,0.209010214,0.6129005,-0.145201728,-0.0226322971,-0.147287861,-0.166747242,-0.117282927,-0.0694989,-0.188094482,0.109530315,-0.168740377,0.127667025,-0.08814117,-0.0254369527,0.0407914557,-0.396832645,0.1927857,0.316515923,0.0892817453,0.18623732,0.194473892,0.102227233,0.202874616,0.113270693,-0.177235886,-0.364205062],[0.293701023,-0.0613351464,0.0943719,-0.04855489,0.0117438128,-0.05866063,0.165050045,-0.259822816,-0.006942044,0.159907639,0.04371392,-0.0866931751,-0.161697969,0.08025445,-0.083352156,0.17091161,-0.06838772,-0.09464489,0.317449182,-0.130313531,0.251323849,-0.0439060479,-0.3919769,-0.184906989,-0.144400135,-0.371342659,0.102440692,-0.113844231,-0.1248352,-0.00400463026,-0.02961797,-0.0191115942,-0.06359652,-0.0226449557,0.115836717,0.481745481,0.199308231,0.0314903222,0.312133372,0.595044,-0.102765337,0.0320595056,0.05078298,-0.365434885,-0.171070814,0.05329872,-0.00746633532,0.1993945,0.155827165,0.0781515241,0.119726419,0.102475479,-0.0523654222,0.22132419,-0.06902087,-0.323022,0.212365478,0.5561772,0.732781231,0.158698663,0.1220871,0.171105936,-0.09217195,0.0448142029,0.0731683,-0.0293688048,0.0197335482,0.178620741,0.215482369,0.00273552071,0.0797361657,0.0112969214,0.1516169,0.348267943,0.314237535,0.09596498,-0.551436,0.02779055,0.10783007,-0.264819235,-0.09833682,-0.117097519,-0.06925193,0.0297744758,-0.06430926,0.0343869552,0.199189961,-0.0006815556,-0.1589521,0.105026156,0.215749532,-0.004980699,0.0850831,0.346234322,0.195618436,-0.112260759,-0.2846178,0.0929863751,-0.152414739,-0.126275748,0.03320859,-0.2987029,0.167872056,0.121238649,0.132621944,0.06755176,-0.140441522,-0.2318431,0.0220547747,-0.241455778,0.184334666,-0.203628108,0.312404335,0.4721771,-0.0553977452,-0.191658825,0.223411158,0.197080851,0.08046212,0.06879254,-0.0278693736,0.142624244,-0.113204,-0.06243957,-0.208154768,0.128262118,0.291029125,0.142434344,-0.305552065,-0.108529389,-0.302642882],[0.2567931,0.0274860375,0.189654991,0.110852271,0.128796741,0.02870865,-0.006987253,0.09894349,-0.05067817,-0.09901835,-0.128559172,0.0421617664,-0.1194849,-0.0143928537,-0.356620461,0.333469838,0.0583486,0.6025394,0.1615391,-0.239365116,0.482555747,-0.03609444,-0.0464767255,0.05512542,0.154676512,0.166014031,0.05495547,0.11981836,0.10280174,-0.09055969,0.00129145919,0.23669976,-0.0211180784,-0.07722407,0.078262344,0.103740841,-0.206016466,-0.0503463745,-0.254092842,0.009154019,0.13742426,0.22115545,0.527970135,-0.152181476,-0.132800087,-0.06732084,-0.1437262,-0.213842109,0.003708675,0.04217012,0.115550466,-0.0280971378,-0.118894361,0.122957423,0.08572707,-0.04756798,0.225466281,0.177669942,0.103493087,-0.00574285164,-0.188859761,0.07485476,-0.139907062,0.113798179,0.291651756,0.0970658362,0.145353213,-0.1086088,-0.132463261,-0.215570763,-0.114194773,-0.08441557,0.004180477,-0.327073842,0.205754563,0.0138369622,0.212233141,0.175091326,0.227339953,0.114802085,-0.156678423,0.04002368,0.12304505,0.0451098345,-0.146287456,0.2357335,-0.0821499452,0.206427753,0.182286829,0.204161376,0.6233526,0.163862959,0.4374208,-0.150241986,0.146095514,-0.049297858,0.08348765,0.232160091,0.0252004918,0.277692527,0.5275186,0.124271557,0.123508923,0.0480725728,-0.120526895,-0.435614079,-0.3086338,-0.0391345173,0.07714941,-0.1892413,-0.0898062959,-0.182794467,-0.0140271559,-0.2737547,0.113183707,0.185612738,0.11576774,-0.055338297,-0.03591206,0.04482981,0.376395226,0.138595089,0.06581516,-0.009683482,-0.1337741,-0.1365434,0.0202535279,0.251181334,0.0214985367,0.002428957,-0.192573428],[-0.1570379,-0.0976197943,-0.0807330459,-0.135395885,-0.155100256,-0.178232342,0.11952471,-0.107814521,-0.0021456196,0.178271741,-0.0309956521,0.1633866,0.359914184,-0.0397130661,0.316470444,-0.07533978,-0.135120749,0.104060322,0.422092259,0.291345268,0.61386317,0.0421475731,-0.287210852,-0.04375637,-0.0128032677,-0.0240045041,0.084511824,-0.250243723,0.0279688425,-0.09065443,0.125013292,-0.125484169,0.0198070034,-0.199427336,-0.08127973,0.000396292628,0.06352199,-0.0157384519,0.0430572256,0.122855172,0.07909007,0.0332031362,-0.00100401533,-0.4795551,-0.138169885,-0.102375932,0.0120318709,0.177540213,0.0377933122,-0.0246858336,0.344121218,-0.0570089333,1.4401691,-0.0630725846,0.118097819,0.0845533758,-0.140901208,-0.173250869,-0.0202655569,-0.129937485,0.00639338559,-0.122412257,0.00386922876,-0.06721028,0.0208708476,-0.3163827,0.003739355,0.118358165,0.04613977,0.310870916,-0.0197598711,0.0446629748,0.399806231,0.00139614916,0.2405995,0.112440713,0.336631477,-0.0527530536,0.0898811,0.09657193,-0.17658174,0.161853537,0.326566,0.4159969,0.229126513,0.197748467,-0.24105002,0.0299819577,-0.0700943545,0.0358008,-0.201154962,0.283523828,0.211602271,-0.010406971,-0.164850071,-0.284558535,-0.008347458,0.0115151918,-0.2574594,0.269668281,0.0264142212,0.211327374,-0.08228521,-0.01999813,-0.285720348,-0.0305419359,-0.0323647968,-0.111290738,-0.195490673,-0.01396527,0.236972317,-0.179089561,-0.0167527739,0.238464653,0.156825677,0.0387617052,0.0592256039,-0.208618134,0.249761447,-0.0534813069,-0.07737829,0.07897694,-0.0468824729,-0.000747112965,0.0674218,0.09361586,0.0673452243,-0.144704044,0.0568783171,0.08443127,0.1821873],[0.106722571,0.0892565846,-0.0200176425,0.296283156,-0.180714875,-0.0730273053,-0.0518780351,-0.0194815211,0.0307289381,0.18607606,0.0550126843,0.137734175,0.345248222,-0.141218409,-0.221440077,0.297557145,0.11042209,-0.399535418,-0.210652322,0.006176505,-0.220241562,-0.004083587,-0.280344933,-0.0346442275,0.13598159,-0.1775945,0.120316885,-0.268386155,0.172982067,-0.3359749,-0.120087966,0.0735376,-0.201966,0.2594214,0.169540346,-0.0125150168,-0.178641051,-0.097135365,0.445662051,0.0216975063,-0.137932718,0.169934139,0.104802996,-0.186373234,0.316258073,-0.03349873,0.1674344,-0.0009811966,0.050880596,0.112850249,0.00717489142,0.07816234,0.104423434,0.141445562,0.2084931,-0.1480926,-0.0445936844,-0.109730653,0.357264727,0.16097571,-0.0119372448,0.009063763,-0.1904526,0.298107445,0.120890826,-0.0371519178,0.14802359,-0.243831486,-0.107336536,-0.0845994,0.4662978,0.131585419,0.289420366,0.216193125,0.238314,0.220056489,0.169301212,-0.07623284,0.07133776,0.100718275,0.0715899244,-0.094822146,0.0397307426,0.06721726,-0.2803345,-0.101607025,0.08715117,0.128938988,0.24354282,0.0950128958,0.222355559,0.0246008914,0.200215831,-0.320564032,0.127382427,-0.193842411,-0.0358450525,-0.279074371,-0.09200487,0.108531728,-0.0586000681,-0.118296877,0.0520850532,-0.119837649,0.137039632,0.286699951,0.48508364,0.101780951,0.109686449,0.272372454,-0.08920405,0.0316562057,0.242741913,-0.160717368,0.0188771114,0.1556015,0.03766804,-0.3229799,0.005502045,0.136676908,-0.0314666629,0.106442131,0.31084466,-0.08770615,-0.0232049134,-0.06770984,-0.0863428861,0.0306792967,0.105952337,-0.107156754,-0.237382963],[0.2289449,-0.0050586327,-0.0864947438,-0.110505648,-0.140063837,-0.1341489,0.186570048,-0.13917765,0.0641901344,-0.07391044,-0.03071025,0.0753231,0.00334818754,0.100924782,0.216608435,0.08807308,0.2549536,0.122081175,0.107606128,-0.160991311,0.483753651,-0.0244959667,0.0211578626,-0.133848965,-0.00455255574,0.0324260145,0.06363051,0.0385752469,0.158012137,0.236280814,-0.06831339,-0.0238907766,-0.09571024,-0.242225677,0.0431611352,0.2677801,-0.00398615142,0.108973421,0.2775361,0.161171049,0.157003164,-0.07233543,-0.0216916576,0.0662633255,-0.0899074,0.139678642,0.04566951,0.3309337,-0.1788028,-0.127232626,-0.0196760669,0.0198856369,0.466043353,-0.24535495,0.0425151959,-0.231517553,0.152957365,0.3541238,-0.109237194,0.0926265344,-0.218348324,0.227936268,-0.05911911,0.06476605,-0.09678165,0.1287444,-0.08532725,0.102711469,0.166248158,-0.3792851,-0.12008623,0.0241915584,-0.00905344,0.04226449,-0.136177361,-0.12690571,-0.16150564,-0.131201774,0.107768871,0.005975904,-0.0254201666,-0.08909751,-0.230900735,-0.08143606,-0.0900944844,-0.0477196835,0.004713724,-0.06560426,-0.01230014,0.0559968725,0.2814928,0.03620198,0.164479166,0.0794717446,-0.0679194257,-0.241029128,0.0950139239,0.09333284,-0.129728943,-0.0478846431,-0.208818063,0.189757913,-0.00244026212,-0.323720664,0.0282499343,-0.00197568326,0.217205465,0.3633669,-0.253819853,-0.0201876778,-0.0830757543,-0.06642536,0.175169542,-0.11436265,0.129456371,0.0532250069,0.2677636,0.00554902665,0.1322393,0.0223770682,0.114019632,-0.113274626,-0.01744039,0.201414376,-0.2243765,-0.0129431086,-0.0347001962,-0.0566576123,0.0941864,-0.00429851376,-0.19281663],[0.09894709,-0.213959187,-0.0482428,-0.169768229,0.219919324,0.144998387,-0.1155099,-0.006108331,0.116218768,-0.00391725358,-0.194276467,-0.197761089,-0.202747121,-0.02396403,0.269699454,-0.167896017,0.0227984451,0.279264063,-0.0189651549,0.182778,0.128042758,-0.1485483,0.3167916,0.192009181,0.0183168221,0.352303326,0.06660083,-0.0175481346,0.15276058,0.196844161,0.345289,0.391883045,-0.05147417,0.455797285,0.1698506,-0.183861151,0.184364557,-0.0591042563,-0.5322617,0.119314894,-0.0839041844,0.3780039,0.0527831577,0.193416685,0.0297728162,-0.17909725,0.0265450552,-0.104875945,-0.152534932,-0.14166902,-0.06572207,0.102031454,0.445972681,0.218679324,0.06431643,0.154450774,0.1301292,-0.06725835,-0.137282044,-0.09554618,0.00050826784,-0.176607668,-0.171317652,-0.052632127,0.199726984,-0.07908255,0.0501291342,-0.216756269,0.0500154458,0.106711142,0.156162456,-0.06950186,-0.1242347,0.05276278,0.324182928,0.0425381623,0.3792465,-0.183855876,0.2206832,-0.15219149,0.06328454,0.0462132134,0.354343623,0.485651553,0.155916944,-0.128344372,-0.05095973,0.11463733,0.303651661,0.06462298,-0.185682282,-0.2829006,-0.08388571,0.2848582,-0.221189961,-0.158393726,-0.0515891,-0.175247833,-0.358860075,-0.02113378,-0.194629639,-0.101274446,-0.150698364,0.08804027,-0.305577576,-0.007080317,-0.0434474237,0.2270288,0.06813048,0.237890765,0.106723323,-0.20942238,0.239493862,0.136523053,-0.0974106342,0.229475677,-0.3011204,-0.05974429,-0.0004038464,0.2554187,0.07787028,0.0205152873,0.158822745,0.0515634827,-0.0393011123,0.118991762,0.0195426177,-0.07167836,0.006784308,-0.207448319,-0.09783728],[-0.364424735,-0.104928195,-0.199888855,0.04595637,0.03887286,-0.276477754,0.105502494,0.248984024,0.248706251,-0.03061624,0.264789015,0.133730367,0.127438664,0.1323077,-0.122937396,0.07288605,-0.0289627854,-0.285828948,0.109073393,0.0276941,-0.07630234,0.0118674021,-0.044165574,0.276092738,0.236114919,-0.0492611341,0.12214379,0.154107869,0.198993549,-0.356326044,0.0294945464,-0.06759815,-0.00762684224,0.0106121572,0.1530866,-0.293410838,-0.270432174,0.09604592,-0.328419477,0.2850428,0.246195436,0.0142709985,-0.146101132,0.04616727,-0.207001731,0.148260385,-0.22233282,0.218240127,-0.05271739,-0.126320869,0.21723488,-0.07544463,-0.04522559,0.0366974436,0.3592892,0.0779375657,-0.0739519149,0.07590581,0.150425419,0.145685941,-0.135038927,-0.132276833,-0.0493644141,-0.167439833,-0.132662162,0.1768336,0.115653664,-0.3304755,-0.17907095,-0.03269358,-0.0283439327,0.243684575,0.03241263,0.220813319,0.167327538,0.167705163,0.06451594,-0.206797376,-0.0297723822,0.0339064561,-0.145406455,-0.005851683,-0.133177489,-0.108971484,-0.323756158,0.18528837,-0.132361352,-0.2574646,-0.233955383,0.0589885451,0.0258290116,0.107589796,0.2747453,0.261402041,-0.1204918,0.5650697,0.0827887,-0.1814493,-0.0901545361,-0.04871565,-0.2699768,0.0665742,-0.0203456841,-0.063195914,-0.20446299,0.240192249,0.224173233,0.316656977,-0.0397607,0.548867643,0.429409236,0.159063771,-0.0773880258,0.213080034,-0.0516570173,0.04663642,0.171777576,0.0271733683,-0.0132395439,0.2344353,0.2746387,0.130457982,0.117889822,0.491814822,0.566978931,0.208731443,0.392938077,-0.131609008,0.152289689,0.340347767,-0.191649392],[-0.07498502,-0.0927976444,0.247851238,0.07413501,0.159472123,-0.09431416,0.142933235,0.215864271,-0.0398815647,-0.143585593,-0.0490467176,-0.07292358,-0.138707325,-0.201414585,-0.364226162,0.07338777,-0.290082037,0.04429971,-0.221500322,-0.06697064,-0.0259033982,0.202263966,0.2572924,-0.09838303,-0.152714223,0.2882227,-0.06295771,0.0571751148,0.04349586,-0.291330546,-0.148318067,0.3010577,-0.004008956,0.200408131,-0.18077147,-0.08732302,-0.0750385746,0.116834752,-0.0221775789,0.0190269835,0.06470769,-0.112512328,0.1795957,0.0842207,0.08849591,0.182457119,-0.0225994922,-0.145263612,0.01612284,0.044772163,0.02621204,0.023586655,0.177243054,0.183855981,0.212644771,0.07420974,0.08798045,0.139930874,-0.219335049,0.08383722,-0.0749044344,0.09648388,-0.1846507,0.115903087,0.1191023,-0.02485974,-0.144670367,0.125437886,-0.241564631,0.0212913,-0.193822831,-0.390088379,0.08724996,-0.03905616,0.07011623,0.163710654,0.2857756,-0.35386613,-0.176199764,0.2286571,-0.07208541,0.11808838,0.3083856,0.229971185,0.0138877789,-0.07671555,-0.232525915,-0.0862821862,0.0515806265,0.204297885,0.253466636,0.351746768,-0.05197624,0.0508066863,0.393795,0.0524879545,0.263800144,0.163146868,0.0468395241,-0.149305359,0.08041031,-0.170896113,0.2544876,0.09742825,0.0234887376,-0.227886036,-0.107978985,0.04227682,0.00195551733,-0.141761139,-0.08022644,-0.116655551,0.0197362676,0.248282313,-0.02601967,0.281664,-0.05950172,0.117679723,-0.10890542,-0.0480273,0.0133118406,-0.07952399,0.0571242757,0.05959622,0.194623232,0.151687458,-0.3439969,0.0114539592,-0.0103313187,-0.019456232,-0.175666153],[0.15468435,0.110532396,0.18672055,0.0824164748,-0.121064328,-0.152326867,-0.023398608,0.25488025,-0.0620090254,-0.0902281,0.04060184,0.2958162,-0.204116285,-0.008532695,0.05554842,-0.09077251,0.217880622,-0.323034555,-0.0138449632,-0.08940601,-0.009141287,0.157194585,-0.136127323,0.23649998,-0.182565674,-0.01747908,-0.00543886237,0.01814085,-0.05170602,0.042425286,-0.165272459,-0.110800385,0.0593472719,0.0369173475,-0.0413334519,0.4326879,0.01789209,-0.04158851,0.159194455,-0.09501954,0.0415040851,-0.2547343,-0.0499484278,-0.0255362689,0.203651309,-0.0540708676,-0.0141295008,-0.109613396,0.129108161,-0.0881961659,0.04810248,-0.2578953,-0.054662317,-0.237618923,-0.378081232,-0.0494215563,0.02070049,-0.163429931,0.0956567749,0.0221060216,0.2096503,-0.163071781,-0.03720474,0.130883783,-0.170336366,-0.09009165,0.05563635,-0.03644513,0.0163700171,0.07807806,0.354369283,0.111730635,0.355353236,-0.1871976,-0.0810989141,-0.06399235,0.190084189,0.01817094,-0.109727643,0.1795268,0.09772108,-0.03764813,0.145964637,0.0240040664,0.08245246,-0.0220957622,-0.222311243,0.0001847561,-0.0229091346,0.0506415926,0.45198378,-0.004352946,0.031310197,0.176547036,0.125883311,0.252038836,0.237656087,0.07654649,0.0145166153,0.155866161,0.357948154,-0.377017528,0.03552457,0.270962775,0.00629939,-0.100966133,-0.05795335,-0.154086649,0.247439563,0.241294846,0.0367780775,-0.08985757,0.0627284944,-0.116906323,0.05747288,0.6044699,0.0786518455,-0.152162611,-0.00493139727,-0.2657104,0.176979885,-0.3001026,-0.0328292847,-0.205325648,-0.130149871,0.025138624,0.06002801,-0.287976772,-0.293579727,0.00121233659,-0.09167281],[0.2184062,0.319232732,0.05860152,0.2426617,0.09518267,-0.2757973,-0.19839704,-0.0844471455,-0.02632885,0.09287806,-0.0206644982,0.121650994,-0.14351131,0.05570577,-0.151949778,0.1850991,-0.099328,-0.00153863069,0.194163159,-0.295512527,-0.16152665,-0.09010997,0.148671165,-0.209406823,-0.006583619,-0.108248442,-0.2192948,0.0201412681,-0.008916989,-0.177959323,0.06665252,0.125548318,0.0980994254,-0.0149821211,-0.008471483,0.198382944,0.272381932,-0.036931444,-0.149035484,0.09724977,-0.09635523,-0.187573925,-0.0554297566,0.0623464026,0.07772347,0.0340959653,-0.2104921,0.182598352,-0.02413864,0.0729280338,0.0815008,-0.0135693457,-0.151452929,-0.07394416,-0.03563003,-0.193090245,-0.120545708,-0.0187564213,0.5425766,0.136492491,-0.1301556,0.387254059,0.0446093343,-0.121285349,0.194551229,0.132113665,-0.119103782,-0.0667472556,-0.005214412,-0.0536869355,-0.121320069,-0.09322591,-0.306727082,0.04991835,-0.04355439,0.106557041,-0.09659831,0.00604139548,-0.262824416,0.101463705,-0.0133903269,-0.09513825,-0.160596117,0.05868579,-0.00292368443,-0.168720841,0.0164804216,0.0549531728,-0.168109357,-0.116712742,-0.261263371,-0.04445616,0.0236921329,0.471109778,-0.06711954,-0.161632717,0.115892515,-0.09765012,0.216989473,0.07099635,-0.171814471,-0.296889454,-0.017980203,-0.0120414775,-0.0552443229,-0.185595155,-0.0859193653,-0.0350348577,-0.0297559649,-0.0235724356,0.09737614,-0.174911186,0.0488231,0.0798712447,-0.09932359,0.0574403219,0.0751129761,-0.07608271,-0.170097619,0.131784156,0.0116513483,0.259397417,0.115415417,0.1371383,-0.0125429491,-0.10937278,0.07806188,0.0147098964,-0.07113975,-0.117261671,-0.01258382],[0.112036809,-0.04859092,-0.09907245,0.0207630675,-0.0492515825,-0.3458705,0.05084348,-0.112002179,0.04987039,-0.0269389655,-0.163804278,0.156123623,-0.134100437,0.0473453738,-0.0558390953,0.07455462,0.0427709222,0.3870138,0.30274266,0.2265793,0.170190647,0.22447975,0.0132796187,-0.169204846,0.00695764273,-0.0438320935,0.007484015,-0.0524795242,0.1479901,0.435251534,0.002053539,0.150349855,0.08993999,0.06478116,0.1366481,-0.206661344,-0.00176834909,-0.128306046,-0.0129434261,-0.125925452,0.091126956,0.200686246,0.172323287,-0.0418237336,0.130640179,0.0355750434,-0.00103681115,0.102012053,0.09297265,-0.1646266,-0.113014,-0.2285806,-0.217414469,0.297548741,0.241105035,0.204130113,0.007848021,0.056519445,-0.0458464436,0.3695791,0.0252099726,-0.204501137,0.0211949982,-0.0531639419,-0.238872111,-0.150038779,0.175736263,0.09779043,-0.4591565,0.0219166,-0.136444077,-0.2846189,0.154830024,-0.0458839461,0.0567227341,-0.00249364786,0.1280697,-0.0321913548,-0.188957512,-0.0102214841,0.357760757,-0.08247321,0.055751916,-0.04236667,0.0158837587,0.115780935,-0.199437216,0.2207456,0.395268649,0.404060245,0.564928949,0.0485868379,0.1672417,0.206977189,-0.09961722,-0.0421016179,0.382346183,-0.203328282,-0.09195773,0.0655642152,-0.282176465,0.179853335,-0.107521087,0.10819266,0.2589449,0.05055624,-0.109056585,-0.0154168652,-0.166443035,-0.054425396,0.0490480922,-0.08193073,0.168277308,0.714969754,0.304779142,0.08871443,0.327121,