{"contexts":["default","chitchat","user","person","story","book","call","calendar","calendarAdd","wordSoccer","ticTacToe","RPS","guessToTen","rndNum","quote","search","news","command"],"contextIndex":0,"intents":["indefinite","about","preferences","greet","mood","weather","residence","sugestSearch","interjection","approval","call","calendar","calendarAdd","wordSoccer","ticTacToe","RPS","guessToTen","rndNum","quote","rndStory","battery","time","search","news","TTS","rndQuestion"],"bow":["Hi","who","are","you","hihellohowdyhow","nice","to","meet","hey","what","up","I","am","7","year","oldhey","read","a","new","book","yesterday","where","do","live","andriy","and","how","feel","right","now","like","Do","is","your","favourit","call","me","pleas","could","have","in","calendar","for","on","anyth","today","Is","there","tomorrow","make","note","an","appoint","add","en","event","callendar","let","s","play","word","soccer","tic","tac","toe","rock","paper","scissor","want","guess","number","pick","random","quot","give","from","some","stori","someth","worth","of","rememb","much","batteri","left","mani","percent","the","time","clock","outloud","can","say","pronounc","english","tim","search","internet","news","was","happen","world","got","xxxmanpancarboatsimpeonewordsampl","textarachnophobialet","els","stop","OK","quit","don","t","anymor","xxxxxx","xxxxxxxxx","xxxxxxxxxxxx","ř"],"context":{},"contextNetwork":{"biases":[[0.39811343,0.504672,0.725613654,0.420352429,0.333803743,-0.08635363,0.200289145,0.01908363,-0.0331931449,0.204867646,-0.0273025837,0.386213869,0.238304228,0.110816233,0.5224242,0.263284832,0.254130542,0.8579265,0.785713732,0.461086422,-0.07005871,-0.165986687,0.313252658,0.223930091,0.6904972,0.09454282,0.5147525,0.0327204764,0.542216539,-0.0388994776,0.08395189,0.144311771],[-0.0149749769,0.117119469,0.322396725,0.229834855,0.261149526,0.263075829,-0.18452993,0.12350931,-0.09255646,0.7148178,-0.040474005,-0.105651885,0.103161268,0.156108782,0.366431952,0.116778217,0.105975226,-0.007978448,0.0132506872,0.209935,0.2942036,0.314344347,0.2980283,0.543350458,-0.0591955073,-0.00574040925,0.2797285,0.348884821,-0.01897096,-0.04958264,0.199289352,-0.027478179],[-0.127979562,-0.393033683,-0.4206739,-0.443058342,-0.478940547,-0.501060665,-0.3167431,-0.477590024,-0.3327849,-0.114651106,-0.316966057,-0.218205824,-0.3065469,-0.470584154,-0.3544623,-0.3897984,-0.332489938,-0.391625166]],"weights":[[[-0.01439731,0.0526251271,-0.09378992,0.103381045,-0.08761122,-0.103685506,0.0606207438,-0.0136351371,0.155973315,0.34743017,0.197828442,0.130682766,-0.240807787,0.0388316028,0.09328426,0.09215367,0.0659382939,0.206365943,0.162759334,-0.397584826,-0.113265954,-0.376396477,0.230647087,-0.0007552865,0.01898539,0.289436966,0.171123177,0.0516454056,-0.06505305,0.09843022,0.471085072,0.2627551,0.09909264,-0.0216714367,0.05849422,-0.129707783,0.08501232,0.390570134,-0.0470136851,-0.3387084,-0.15933238,0.06644225,0.4293164,-0.2348163,-0.06829657,0.115815394,-0.008641837,0.214309156,0.08304983,-0.140958175,-0.07771981,0.0610953681,-0.06850028,0.520255864,-0.09736876,0.133816376,0.04479641,-0.268668115,-0.08170827,0.142898023,0.240819275,-0.135710716,-0.01616967,-0.115379363,0.180216044,0.117549434,-0.0111612938,0.264822125,0.282856822,0.0217086747,0.1522554,0.149333522,-0.12437325,0.518903553,-0.0152971763,-0.221844926,-0.0573034249,-0.319155574,0.128460631,0.21668835,-0.0280422941,0.177076444,-0.09349444,-0.00120257121,0.02733561,-0.01383076,-0.09694836,0.1499817,-0.0487754457,0.10711804,-0.08043878,-0.16923818,-0.128987968,0.0116962865,-0.186612681,-0.118758291,-0.101936281,0.193546459,-0.09199121,0.107921846,0.106215671,0.420679837,-0.09889328,0.08500493,0.14923355,0.0448782779,0.0356853828,-0.0523010753,-0.06150722,0.209175408,-0.0812587,-0.21829702,-0.106868453,0.0139964009,-0.2743474,0.11275176,-0.17322804,-0.116060577,-0.1416698,0.003227631,0.129319444,0.448981851,0.0165626369,-0.051527407,0.09525281,0.0959050655,-0.233521447,0.149881944,-0.058954794,-0.158504292,-0.137451336,0.001722002,-0.01297722,0.002539151],[0.03464435,0.0365717672,0.0414426066,-0.170119062,0.0135730691,-0.155417368,-0.018004382,0.0922405347,0.0607729368,0.817857,-0.04187918,-0.08803893,-0.0961411446,0.170852661,-0.0108048264,-0.0503742658,-0.220612943,-0.0443539731,0.169597685,0.1914465,0.1792541,-0.0369518362,0.233389631,-0.03967741,-0.230706587,-0.0142523516,-0.05996911,-0.2331576,-0.05394796,-0.06590834,-0.317482233,-0.224194318,-0.258154631,0.231506169,0.110612735,0.0552478246,0.2920429,0.12370757,0.118850477,0.19062236,0.08947479,-0.0730920658,-0.0759386644,0.172702417,-0.270707548,0.07705094,0.300062656,0.0339922458,0.07701398,0.03644814,0.155507013,-0.4234147,-0.000531051133,-0.0285504628,-0.05926402,0.148534074,0.223038152,-0.162399828,-0.09105276,0.485439032,-0.250580519,0.02226858,-0.0765237,-0.0633274838,-0.0181745738,0.046321515,0.0145424465,-0.13545078,-0.264443129,0.153367534,-0.130770057,-0.476587862,-0.165842965,0.0102564879,-0.127296567,0.07011314,-0.107027359,0.2615473,0.243696719,0.1625221,-0.116695672,-0.0436449,-0.246226564,0.06507992,0.120165475,0.129302874,0.192574352,-0.104582965,-0.0191864166,-0.05692871,0.0251178686,-0.352759778,-0.0231878459,-0.06311481,0.154916957,0.143625081,-0.0497253,0.125244588,0.104186252,-0.01910369,-0.052039396,-0.2580191,0.2503872,-0.334451616,0.009619854,0.0498736762,0.0310043376,-0.06900157,0.3077261,0.342064768,0.2123539,-0.22068505,-0.181544334,0.059975937,-0.106917508,-0.04561081,0.341957659,0.152231038,-0.124673925,-0.146556839,0.0190349948,0.12795189,-0.138854817,0.07128081,-0.122365259,0.208235651,0.117602795,-0.0459532,-0.0217545666,-0.2765105,-0.0142395925,-0.08567217,-0.102731228,-0.5107712],[0.105627447,-0.257794142,-0.0406275354,-0.2030681,-0.09021884,0.05571864,-0.130667374,0.348279536,-0.178552583,-0.447079033,0.132308647,0.112391055,-0.102227673,-0.0519722067,0.09102409,0.0391967744,0.103709012,0.09004132,0.124324225,-0.09953614,0.2345953,0.4640395,0.0341547839,-0.138263822,0.330931246,0.165575042,0.435421675,0.100384086,-0.00252844952,-0.06890071,-0.117535464,-0.09836187,-0.202397734,-0.07851207,0.25144884,0.161514014,-0.373295,-0.207390621,0.0511690751,-0.313264,0.283857226,0.30537194,-0.14094457,0.47301206,0.0200839732,0.07376053,0.108181722,-0.0324643962,0.198968843,0.0499209277,0.3086128,-0.0177256912,-0.171006978,-0.3468391,0.271859974,0.3201791,-0.323747844,-0.2673649,-0.7305078,-0.831259847,-0.00935513247,-0.222521484,0.09279781,-0.11620567,-0.16508612,-0.07842494,-0.0127996467,0.135561734,-0.0496758521,-0.3199052,-0.333931953,-0.4307129,-0.127216548,-0.172523752,-0.234490141,0.237794891,0.004178814,-0.034937948,0.0429526828,-0.178424567,-0.2508209,-0.6006832,0.06747459,-0.09545458,0.146826327,0.07916183,0.4312728,0.22983554,0.189326808,0.06501995,0.334289521,0.0151045676,0.172909588,0.1523256,-0.000405438623,0.3583434,0.458790481,0.0326489173,-0.119787373,0.104401916,0.205393836,0.0781088844,0.0984610245,0.0253019165,0.208698228,-0.169948816,0.24742192,0.203419074,0.171029925,0.09079055,-0.269018382,0.173669472,-0.033379253,-0.163927019,-0.49929145,-0.0573435165,-0.08648193,-0.173593462,0.150973856,0.163622975,0.2739085,0.24720268,-0.032235112,0.392476529,0.2671519,-0.0120426845,0.0681785,0.0584032536,-0.229138583,0.456448227,0.2180418,0.0483131446,-0.07453434,-0.278607637],[0.007419575,0.09889715,-0.021697253,0.494310975,0.040678788,-0.23654905,0.233197272,-0.1238528,-0.34602,-0.278169274,-0.177022651,0.6974452,0.08066205,-0.0211317763,0.206455931,-0.2352431,0.189822808,-0.0139682889,-0.237997651,0.169073477,0.183986709,-0.192743391,0.188263044,0.100839905,-0.233991578,0.170154333,-0.0925291255,-0.02280812,-0.0458597057,-0.288069874,-0.09239734,0.0260476321,-0.174666777,-0.187320873,0.434298843,-0.248389632,0.393041551,-0.2963358,-0.3297872,0.0570953451,0.191444248,0.1557906,0.006262501,0.07547964,-0.165162414,0.323695123,-0.0111266868,-0.08998372,0.00161758473,0.2967884,-0.107532807,0.420316935,-0.279018581,0.0960437953,-0.192371011,0.188694,-0.0525217168,-0.00377754751,0.340237021,-0.4277689,-0.0608315654,-0.149206311,0.00497649051,-0.024506459,-0.0708807856,0.171535343,-0.20390743,0.432647854,0.2646268,0.07621424,0.344945669,0.228566587,0.2941342,-0.08653259,-0.0381496735,-0.17411603,-0.334404737,-0.123564973,-0.250386715,0.266057521,0.06154103,0.0322854035,-0.223913267,-0.05123032,0.04919111,-0.0214516111,-0.0816596746,0.380901217,-0.2788023,0.04625378,0.247949749,-0.07465247,-0.0287534483,0.011109327,0.2572579,-0.03617933,-0.005523789,-0.1506026,-0.007871955,0.176847473,0.06789999,0.0476659462,0.09917715,-0.06631389,0.143255487,0.05094402,-0.138447672,-0.07965171,-0.0550500639,-0.0554321222,0.106139652,0.104557537,-0.182294026,-0.0533896163,-0.315968335,0.117707886,0.167657554,0.115658492,0.214155674,0.0679388642,-0.07643312,-0.18851608,0.133053914,-0.0453035533,0.116216689,-0.0795592442,0.2077039,-0.1472165,-0.452971965,0.0511831269,-0.14901799,0.2963177,-0.104760423,0.0489356034],[0.07045294,0.106367856,-0.0362003334,0.0705609247,0.06534015,0.07832456,0.04322402,0.1277106,0.172562987,0.6380945,-0.04278272,0.267630219,-0.07159471,-0.0330558866,0.0270212032,0.0121245086,0.104940228,0.292146444,0.02613846,-0.0555322953,-0.173591867,0.136411354,-0.24096489,-0.06997418,0.3488058,0.4538229,0.404813617,0.0294992365,0.105763584,0.3497354,0.231095061,-0.147797152,0.123157226,0.007052627,0.137554526,0.172805354,0.140594408,0.171302065,-0.00562138949,0.6303031,-0.07309196,-0.0463670827,0.247963861,0.180126578,-0.130517945,-0.155481771,0.162601933,-0.0547767244,-0.02244002,0.0935771,-0.247348279,0.0226565879,-0.0396311842,-0.399786532,0.25431475,0.006980956,0.1378654,-0.2067377,0.459751368,-0.4042492,0.32765907,0.268439323,0.021496417,-0.0434377,-0.0218578,-0.0406632535,-0.0529327355,0.223821059,0.176493242,0.04955712,0.2824977,-0.0150511041,-0.041135937,0.658429861,-0.130917415,0.2588417,0.4030844,0.534683347,0.57745254,0.4807792,0.08898105,0.2090874,-0.145857424,0.334064215,-0.00376847,0.181243569,0.06878143,0.370217443,0.2595893,-0.420730948,0.05508693,-0.3681561,0.05162358,0.169323176,-0.2731898,-0.1478682,0.06468715,0.06796536,0.104488723,-0.3342548,0.187486172,-0.151632488,0.3349879,-0.0260371231,0.0871499255,0.433043152,0.1318672,0.0584995672,0.118423864,-0.08166664,-0.05384775,0.102386877,0.26722464,0.0637410954,1.02077246,-0.0559277162,-0.2718693,-0.2202509,-0.07308397,-0.133842677,0.260902464,-0.249093473,0.000342481158,-0.304708928,-0.240347371,-0.287025869,-0.158965424,0.20036675,-0.0664701,-0.0136091728,-0.158640072,0.122373521,0.2584771,0.416512877],[-0.215721458,0.09847726,0.0896708,-0.07644913,0.0527180061,0.328150481,0.186299,0.0224983729,-0.09990871,-0.06470344,-0.176095709,0.00600522663,-0.0964529738,-0.0155484471,-0.0159244165,0.3139536,-0.159335032,-0.0203116331,-0.201401845,0.04235581,0.105024762,-0.0428972952,-0.0352782,-0.13317214,0.284438461,0.173266664,-0.121248692,0.170146912,0.08078686,-0.113013782,-0.07506846,0.114316948,0.30570963,0.168702483,0.183517322,0.037201833,0.141175821,-0.1424029,-0.07056389,0.02582187,0.005937766,-0.08163618,0.0302579477,0.185154513,0.07935019,-0.0286715031,-0.196894482,-0.0868510455,0.13642247,0.14459382,-0.04569318,0.1940935,-0.138779178,-0.145728573,0.06275936,0.24927555,0.09579418,0.155769572,0.231537,0.302075535,-0.0325687043,0.00211071176,-0.103141606,0.2528214,0.163679689,0.249786362,0.06710132,0.2783074,-0.0607332438,0.132169813,-0.100942284,-0.06126163,-0.133939549,0.00353654148,-0.0350775346,-0.0952140838,-0.07104649,0.163244039,0.123304337,-0.104010805,-0.233605534,0.0592838563,-0.07911702,-0.149831429,-0.312410831,0.227806345,0.148875922,0.083104454,-0.14009054,0.105232783,0.125175014,-0.251311153,0.156368986,0.283429563,0.2097144,-0.008483951,-0.06487087,-0.05811817,0.1694625,0.03250379,-0.009105631,-0.0767603442,0.01994312,-0.007310835,0.105638623,-0.132612556,-0.211144179,0.167900786,-0.000966468535,0.199191,-0.263351083,0.0153013486,-0.105027772,0.0339148827,-0.0158793479,-0.06546397,-0.1101326,-0.0283544641,0.2514589,-0.2053061,-0.0275226217,0.0140223382,0.08860484,0.03957413,-0.0617587678,-0.355424017,0.109641612,-0.0276752766,0.135039255,0.220162213,0.3062352,-0.165403888,0.134598717,0.0200875327],[-0.448411167,-0.3071584,-0.0115816416,0.00376876,0.0161908139,-0.118474081,0.2408213,-0.215549782,-0.0719081461,0.269168854,-0.167751968,0.665028155,-0.0673519,0.121989667,-0.0275792368,-0.0338636748,-0.264238715,0.208558023,-0.133744717,0.04129638,0.007892645,0.129629254,0.186226428,0.08330439,0.0774893463,0.07909633,0.5447691,0.170816943,0.133634761,-0.207200989,0.193516567,-0.104874447,0.0510762967,0.0145688923,-0.0345734358,0.151307464,0.2235474,0.04537817,0.154731736,-0.100089818,-0.146715641,0.0418994054,0.2428112,-0.0172170009,0.146455154,-0.20332545,-0.07976354,0.07352914,0.009796756,-0.321832448,0.045493722,-0.01264762,-0.0264330544,-0.11955905,0.217372835,-0.135926813,0.0237907656,-0.0519650653,0.226438478,-0.100520872,0.2862368,-0.129420727,-0.31168893,-0.0558754839,0.0217099134,-0.4170612,0.0709561,0.0996926054,0.44459787,0.0649367645,-0.126576379,0.100232542,0.06351783,-0.05914751,0.273384362,0.00186654564,0.0488301441,-0.349210173,0.1512844,0.101304233,0.262430221,0.0138395512,-0.01593059,0.0147911832,0.03936848,0.1334073,-0.0628159344,-0.02620367,-0.239441335,0.1368287,0.180695087,0.0459344648,0.00157566252,0.102227293,-0.116775587,0.1269566,-0.017859675,-0.148030087,0.08760085,0.09436422,0.01537379,0.0310872141,0.1958375,0.14558579,-0.108467594,0.216598183,-0.0239735544,0.0486984961,-0.124487408,0.170393646,-0.16767098,-0.2179239,-0.201835677,0.195318684,0.31799826,0.06297728,-0.402383268,-0.2246191,-0.308020175,0.211568981,-0.0491427332,-0.297877878,-0.107289143,-0.08679312,-0.3706962,0.182436258,-0.006371608,-0.103467755,0.0515824631,0.00716960058,0.06654339,0.07670493,-0.116100825,0.367680579],[0.08531714,0.1603377,-0.01991877,0.0264208,-0.16622819,0.0585875176,0.0819836,0.08846647,-0.08433049,-0.520034,-0.0421108864,1.04216838,-0.160370708,-0.11319644,-0.0341919027,-0.2134412,0.04064555,-0.212547913,-0.177369013,0.0967037156,-0.170537069,0.340065718,0.216938287,0.08598794,0.2400204,-0.09022212,0.114846371,-0.13706702,0.0404660255,-0.2607347,-0.045025073,0.1343276,-0.301691055,-0.23687315,0.166834861,-0.0039656614,-0.148827285,0.166881114,0.153633013,-0.113090008,-0.252055168,-0.012388085,0.14075169,-0.0164997578,0.33132726,0.07171091,-0.209762529,-0.238432065,0.158706978,0.09654171,-0.0966684446,-0.173938587,0.0740173459,-0.104404733,0.0922929049,-0.0745396242,-0.110081829,-0.290025622,0.0720263943,-0.104397155,0.0414070524,-0.147894815,-0.0865400061,-0.1510549,0.24920629,-0.126832679,-0.236635387,-0.0487936735,-0.230191141,-0.185627565,-0.0666491,0.648246348,0.200924262,-0.126317933,-0.0733147562,0.118254378,-0.243888244,0.325667351,-0.07287916,-0.2208478,0.02676308,-0.03115943,-0.150358319,0.63381356,0.4163704,0.76313144,-0.164873883,0.00556308543,-0.119942114,0.224368036,-0.239066392,-0.258349955,0.290260375,0.133724213,0.07405653,-0.115155883,-0.220093787,-0.102036864,-0.0783684552,0.00671700248,-0.00490204338,0.0242023356,0.160712078,0.08803465,-0.02206744,0.0440241024,0.0598666072,0.050182458,-0.160298645,-0.161145076,-0.287263274,-0.118804358,0.309853315,0.176822945,-0.08200306,-0.005353637,-0.0480472259,0.332002,-0.0609814562,0.084703736,-0.0288630277,0.008434547,-0.0125192543,0.047210373,-0.48113063,-0.332269728,-0.187648445,-0.101788446,0.138430923,-0.3501426,-0.260404944,0.248623863,0.103222646,0.7952482],[-0.291499019,0.09505474,0.237740576,0.08171381,0.282431632,-0.05846807,-0.310341448,-0.0163812321,-0.239718944,-0.07666762,0.103334993,-0.0586155467,-0.007307611,0.0117852194,0.09368707,-0.0454009026,0.109032638,-0.231122822,0.498242974,0.006527825,-0.07044773,0.248301625,-0.147898674,-0.0560546778,-0.00272304472,0.0299894754,-0.15988116,-0.07268702,0.17953679,-0.175077155,-0.272940129,0.167302161,0.08846891,0.0745045841,0.1189195,-0.09708548,-0.223454386,-0.09544674,0.09495141,-0.00328435539,-0.04269203,-0.178392187,-0.103173353,0.159549,0.0207200535,0.2971686,-0.00731100328,0.2948024,0.09961425,0.109278686,0.102166273,-0.2512652,-0.158623055,0.01781451,-0.06636142,-0.09837428,-0.0267920773,0.0121603431,0.262282461,0.08407331,-0.109957628,-0.123443536,-0.00531265559,-0.0491025,-0.05511363,-0.208927646,0.260415018,-0.118799962,0.385055125,-0.106764108,-0.129202545,-0.09373221,-0.34815672,0.2907607,-0.06521336,0.04409307,-0.1823715,0.107332051,-0.33402434,0.04194333,0.0110340575,0.0731825456,-0.0401120074,0.0998289958,-0.08508311,0.0269632973,0.048305288,0.0938211754,-0.114119306,-0.147613645,0.15588218,0.087430276,0.04370391,-0.0126356436,-0.102014109,-0.2391721,0.110305369,0.0207040738,0.275532424,0.06410132,-0.0345801152,0.15670982,-0.0767484,-0.288347542,0.0153044453,-0.00366159715,0.0534554273,0.169818044,-0.166418925,0.218334526,-0.07741155,-0.20601809,-0.099971056,0.0833817348,-0.04277425,-0.02575912,0.0442363657,0.150898948,-0.08204443,0.06616059,-0.0111745317,-0.07585618,-0.159818769,-0.07931537,0.01839387,0.0381132364,-0.135553867,-0.16871044,0.308959424,0.003951721,0.07327796,-0.150198519,-0.23932375,-0.0651988462],[0.453161031,-0.113630392,0.0169417653,0.027216794,-0.0311661158,0.0158779528,-0.109725438,-0.0498568341,0.143622369,-0.0457720831,0.223282248,-0.263648152,0.0130259562,0.19785893,-0.08111413,0.295859754,-0.140024081,-0.0139776971,0.06997574,-0.0619942322,-0.161528245,-0.0590286069,0.2967206,-0.08387104,-0.0694792047,0.0280270465,-0.09372694,0.179714829,0.00311165629,0.07255368,0.264013529,-0.251448363,-0.0306967665,-0.135060355,-0.16244182,-0.242913276,0.030873742,-0.00397151243,-0.2583985,0.3596664,0.100849509,0.3768546,0.198102683,0.2081049,0.0706157759,0.07493759,0.0300252363,-0.177425832,0.006732063,-0.0342847221,0.07779478,-0.106296808,-0.375433117,-0.204709619,0.323233634,0.205754563,0.248524308,0.07709187,0.480179042,-0.534551263,0.08259084,0.19088012,-0.23826094,0.06291116,0.0874410048,0.185227513,0.2324335,-0.3086534,-0.100518234,-0.03320007,-0.113570213,-0.0327462,-0.208609983,-0.360943645,-0.314862937,-0.205806926,-0.104757987,-0.196519941,0.07760013,-0.24593769,0.0465558879,-0.07727442,-0.207841992,-0.130930558,-0.0459656939,-0.140596166,-0.184588581,0.0502059422,-0.09965772,-0.115773596,-0.08353154,0.00826792,0.01478913,0.12861976,-0.177827075,-0.09734221,-0.176734328,0.139224246,0.13571775,0.142597392,-0.386998326,0.14663595,0.179502219,0.115545467,0.07382812,0.18629007,0.0596899055,0.147042483,0.0140863676,0.259846151,-0.07693992,-0.2576806,0.32582432,-0.0234326143,0.255518019,-0.209848344,-0.125188619,0.0788044855,-0.08052561,-0.0174023844,0.18060793,-0.136740327,-0.153621733,0.0186393131,0.0201181322,0.215645552,-0.0261714663,-0.097742334,-0.03608678,0.2740658,-0.247166559,0.1292461,-0.08829853,0.4043529],[-0.2923498,0.146305934,-0.0877426639,0.303188145,0.000493857136,-0.05065584,0.18669337,-0.04994525,-0.146616772,0.0200864859,0.159490854,-0.101654015,-0.0327308327,-0.189564943,-0.234142631,-0.04458072,0.0108741829,-0.0446595661,-0.2342596,-0.211082041,-0.191333562,-0.07506754,-0.04476086,0.0358542539,0.139723346,0.0155883916,0.07268842,-0.004395842,0.1141285,0.146772057,-0.232542932,-0.09626009,-0.0334275,-0.0604428351,-0.160207883,-0.143240586,0.0324563049,-0.144371882,0.2122511,-0.00540176453,0.05082255,0.0400739461,-0.147443935,0.153895721,-0.00350835221,0.09460197,0.2322037,0.2939035,0.0844278559,0.06850478,-0.115377583,0.128880545,0.0209893715,0.0198147856,0.126646847,-0.249381781,0.108423747,0.234753177,-0.14154093,-0.3238787,0.08072492,-0.09475502,-0.035388425,-0.06631223,-0.18833448,0.0848262757,-0.168322772,-0.07145598,0.1312339,-0.0886350945,0.0101723447,0.0723769739,0.372290432,0.013795401,0.107484959,0.10982424,-0.1598179,-0.3495908,-0.041585315,0.319523036,-0.01817288,0.09371781,0.170397386,-0.05092741,0.03178842,-0.158209577,-0.1489677,0.10543669,-0.0960794762,0.239949018,0.03734086,0.148065358,-0.0363845974,0.01209489,-0.214116916,0.04087369,-0.105695978,0.1841035,-0.029886,0.142439947,0.0319592878,0.35217452,0.160339341,-0.3036467,0.162741274,0.274471581,0.30198133,0.298467249,0.143780008,-0.180851564,0.280835271,-0.00181368692,-0.221320271,-0.103966147,0.144741625,0.09744473,-0.2273022,0.0604700856,-0.10543374,0.00623202,-0.111865535,-0.0384676,-0.174574569,-0.219379589,-0.181595355,0.0329110846,0.261375248,0.0129316123,-0.0479008555,0.0142052639,-0.27030623,-0.196159557,-0.268306941,-0.1108623],[0.169901192,-0.04682781,-0.177482754,-0.03594804,-0.0935176462,-0.168779075,0.139483422,0.18592672,0.268701971,-0.0289383661,-0.0769045949,0.06957599,0.06626856,0.121251717,0.162251145,0.259046972,-0.122339331,0.0216025,-0.122939982,-0.08937985,-0.00038411963,-0.134751663,-0.09200411,0.3727162,-0.18384409,0.07982383,0.0578434132,-0.121818893,0.09717933,-0.0534449555,0.0545223355,-0.45874846,-0.298446447,-0.0655286759,0.07332041,-0.17633158,0.699538767,-0.125733376,0.328678638,0.04101343,-0.300317526,0.0213356744,0.001297538,0.214787617,0.154904246,-0.1878595,-0.0378842764,0.069763504,-0.153124064,-0.08729808,-0.103303671,-0.0346027873,0.3033627,-0.348608166,0.165884078,0.126315743,0.213660091,-0.309864938,0.00716279447,-0.0235332865,0.236366272,-0.07070541,-0.08577922,-0.122720815,0.209374353,-0.318774283,-0.07999273,0.0304299034,0.349008828,0.120111711,-0.306593716,-0.0505365245,-0.0235698521,-0.07005035,0.150059566,-0.0608668141,0.205346778,-0.09720631,-0.0539761968,-0.235960826,-0.214357853,-0.2257471,0.04206788,-0.306249321,-0.150757149,-0.0245137978,0.131250218,0.253171,-0.0488971956,-0.1250033,-0.005180986,-0.380809963,-0.342232168,0.122306533,0.354492,-0.07557597,0.04088647,-0.09413734,-0.231234789,0.17168209,0.03285013,0.229434758,-0.04188972,0.0112300329,0.113453366,0.109306864,0.04183467,0.07002635,0.2921351,0.162854776,-0.08831064,-0.0774677843,0.0523023643,0.110016517,-0.04462406,0.09496602,0.247382447,-0.3154277,-0.0516174436,-0.0386871472,0.1444891,-0.296156257,-0.0190739576,0.04195428,0.2542945,0.110450439,0.375843555,-0.06363497,0.06985463,-0.361833632,0.06314376,0.07860373,0.226124287,0.259529561],[0.148404837,0.162087917,-0.0596437,0.148564979,-0.102254681,0.05739499,0.256870866,-0.267019063,-0.262746632,0.0850252658,0.07690908,-0.146254823,-0.0510597751,0.131045789,0.394810259,0.227294415,0.1770638,0.00114518974,-0.15898329,-0.00316032884,0.08117605,-0.29446125,0.146930233,0.09154999,-0.158731654,0.009651228,0.0595114455,0.3496121,0.0998387858,0.105716,-0.09948701,0.127208233,-0.205662087,-0.008275952,0.393093169,0.0469858758,0.00767349638,0.229718834,0.188437283,0.0343284942,-0.032861352,-0.1917011,-0.392936856,0.0129349241,0.08352729,-0.15064849,0.07443334,-0.090037,0.08017939,-0.0483559854,0.07447573,0.02127558,-0.01757707,-0.386707962,0.01205445,-0.123914547,-0.124517687,-0.0140238386,-0.2656647,-0.246159762,0.131244779,0.207007021,-0.1620929,-0.109708779,0.09925558,0.0305149648,-0.0373298526,0.20917818,-0.009222072,0.186749741,-0.179788262,0.09180785,0.05170173,-0.15269962,-0.296234757,-0.1559596,0.0612071157,0.152914971,-0.187721938,0.0109902974,-0.09328283,0.209051818,-0.179410413,0.228164673,0.197667509,0.288900048,-0.0145290233,-0.0251876,-0.316429943,-0.07034103,0.0606686845,0.5987308,0.13248314,-0.0279999059,-0.155859545,0.108999357,-0.279933661,-0.1904065,0.087953724,-0.126850516,-0.123905249,0.0932592154,-0.0783629641,-0.179269955,0.0383636728,0.009400576,-0.259155244,-0.0154148275,0.119268157,-0.0964293852,-0.0855416656,0.06527546,0.0133884083,0.064069204,-0.00588058354,-0.0211316273,0.222180054,-0.008275084,-0.0127771161,-0.06293557,0.006877512,-0.272626728,0.0111224642,-0.130032077,0.137867719,0.151718184,0.02774246,-0.08207638,-0.05418657,0.169235691,-0.0447857529,0.00829033647,-0.0670323446,-0.32333082],[0.23476778,0.102140568,0.08528583,-0.0332137458,0.24933131,-0.249310076,-0.132082179,-0.008226408,0.02166489,-0.156501934,-0.3122544,0.115529157,0.08290304,-0.07418704,-0.1792042,-0.139291331,0.289533257,0.069232434,0.0547496043,0.06627326,-0.09214914,0.1329008,0.239979565,0.2137837,0.1447099,0.228358209,0.10060671,0.229693517,0.01105731,-0.163304925,-0.195028529,-0.0273758266,-0.09806822,-0.225817174,0.202371523,-0.05520042,0.108235642,-0.165068746,0.244587228,0.0111054573,0.07180142,-0.218610451,-0.279189169,-0.106555268,0.143908724,-0.291687667,-0.0437638238,-0.0915608,-0.1426083,-0.145311654,0.110562846,-0.0262945276,0.14419575,-0.337239653,0.267520636,0.09857461,-0.3437456,-0.0683720261,-0.2729478,0.284244,0.170654282,-0.03426857,0.028357666,-0.204200372,0.327494562,-0.00180057122,0.135798424,-0.224199429,0.225591168,0.0452213474,-0.0196500663,-0.212131083,0.117899142,-0.314503729,-0.158077791,0.06939334,-0.427796125,-0.0451945662,0.197288632,0.214047015,-0.172788829,-0.231075063,0.244074926,0.208772048,0.004539361,0.0772168338,-0.0416679829,-0.0572446026,-0.358801544,-0.08011357,0.197756261,-0.345583737,0.008050134,0.0702531859,0.009358421,-0.06161506,0.09441804,0.136497125,-0.226246029,-0.119119868,-0.08317806,-0.00481312675,0.184172288,-0.102160208,-0.0209273938,-0.11843688,0.01119877,-0.03998987,-0.0113213072,-0.0233890973,0.129331827,0.269285768,0.06946279,-0.0102358824,-0.03338037,-0.174220189,0.5047548,0.101407245,0.03132536,-0.195633754,0.184283212,-0.2715675,-0.00100582244,0.008141345,0.0456840955,-0.161288708,0.0728376359,-0.133290082,0.186454266,-0.11654067,0.00475241244,-0.0803631,0.348909765,-0.19362551],[0.07552881,-0.0489637926,-0.0451432355,0.428413838,-0.0248660147,-0.0268946048,0.13128078,0.25361374,0.0326440968,0.4598694,0.0589835867,-0.0439696349,0.307729781,-0.365957916,-0.00121181388,0.083512865,0.112086192,0.0345629156,-0.03578014,-0.195685089,0.0448836237,-0.06580303,-0.15512149,-0.13995409,0.3768319,-0.106312476,-0.334487945,-0.06136595,-0.04333537,-0.281810433,-0.3782319,-0.0300866216,-0.211173087,0.172000617,-0.0528185368,-0.160119668,-0.180337474,-0.122653425,0.125587136,-0.166835681,-0.136794478,-0.406729877,0.0620887652,0.0235792957,-0.0453207381,-0.448142767,-0.007899926,-0.220793352,-0.09969032,0.211072385,-0.0617857948,0.07630048,0.0216213651,-0.248507366,-0.0394375138,0.09210709,0.369419336,0.0233527087,-0.0165912881,0.0376208164,0.102062225,-0.0497467,-0.2314357,0.04554709,0.156814024,0.107967168,-0.034697514,0.223047853,0.374196231,0.212351471,0.28749457,0.582912147,0.180322245,0.760775149,0.158652574,0.06453802,0.0367261134,0.223021373,0.07714107,0.008248621,0.2088305,0.0297093559,0.23749733,-0.06171949,-0.144598871,-0.309172779,0.115877092,-0.447586238,-0.015346501,0.175526574,-0.0465258919,-0.01262765,0.0060320585,0.0621082373,-0.0839758739,-0.05060814,0.215847239,-0.0134823779,-0.264053762,0.06975007,-0.163358733,0.117779441,-0.287751764,-0.157850176,0.09434377,-0.0415167026,-0.098198235,0.07227387,0.4177406,-0.1048519,-0.1786665,0.00421738345,0.04031626,-0.18861796,0.00379680423,-0.0134545155,-0.09117034,-0.150779128,0.0525633581,-0.08084155,0.170716122,0.136412337,-0.07831344,-0.135774314,0.128717467,0.25183472,0.09058451,0.0265269522,0.0132797556,-0.008526721,0.2877653,0.07056049,-0.122613676,-0.16876401],[0.5812106,0.1183395,-0.1843969,0.100483455,-0.189132214,0.021801861,0.27664718,-0.0103302514,-0.126572669,-0.446984559,0.159484372,0.120222762,-0.162284866,0.192867592,-0.09877443,0.0312065836,0.0780556351,0.157322317,0.03829092,-0.09246836,-0.04932414,0.09808962,0.04760244,0.182587624,0.230627075,0.23169142,-0.08885498,0.4264864,-0.276653856,-0.26201728,-0.0181927048,-0.128926963,-0.0245945286,0.130997762,-0.0420837849,-0.402338654,0.4197449,-0.110658176,-0.358279437,-0.09006399,0.08518574,-0.120296068,-0.217914954,-0.405706733,-0.08768556,0.0351235867,0.0298997611,-0.115150668,-0.00270107924,0.115265459,0.0534692667,-0.133240551,-0.00260220841,0.6695511,-0.125198811,-0.04219618,0.00534563744,0.169753924,0.295436233,-0.8444888,0.139893383,0.377441317,0.208130866,-0.2230081,-0.126041144,0.123224176,0.250664681,-0.234895587,-0.04715806,-0.156661585,0.0203420017,-0.0994206443,0.178648785,-0.143060341,-0.360649765,-0.0799274445,0.09969618,0.0717667639,-0.3674033,0.0253590867,0.203038722,0.05908562,0.230650976,-0.140274748,-0.0456863567,-0.0755630061,-0.119718209,0.2111484,0.102219641,0.101230286,0.008903739,0.448882937,0.08637828,-0.197087377,0.123585954,0.0188982822,-0.08804878,0.0248620771,-0.20134221,-0.124233767,-0.195746183,-0.156622455,-0.3099438,0.0307964534,-0.153303638,0.3973602,-0.00208653556,-0.02580726,-0.100576125,-0.004563188,0.211665,0.0560905077,-0.437585652,0.239450529,0.378834546,0.148070082,0.451978,-0.0222441573,0.276748747,0.106252156,0.236703232,0.0577032454,0.0593148619,-0.135268614,-0.0126884412,-0.307977527,0.08668104,-0.184988812,-0.09636157,-0.2617915,0.19740352,0.0280400477,-0.08434516,0.18370527],[0.163082182,0.228018761,-0.07407417,-0.1286299,0.31101197,0.0173952784,0.04189321,0.09752895,0.151530281,-0.161666691,-0.07463972,0.008806956,-0.113707714,0.0385602228,-0.0996023938,-0.182705626,-0.146352425,0.4340653,0.033510875,0.06063151,0.205734,-0.108614266,0.13406378,0.135390744,-0.160938367,-0.00367237022,0.04378094,0.03833421,0.0740199462,0.1808878,-0.227441341,-0.272936761,0.0266961157,-0.171272129,0.1643082,0.665734,0.394104719,0.04504525,0.4350024,-0.1509895,0.101507328,0.02757242,-0.143905059,-0.174640238,0.06439419,0.0394623354,-0.06427834,-0.0303553473,0.0542099848,-0.0609570667,0.0528841056,-0.06993961,0.273031861,-0.180203483,0.2895712,-0.285005,0.06060745,-0.119501255,-0.08515208,-0.07651612,-0.086551,0.249119654,-0.252094656,-0.18061991,-0.1651814,0.00268827146,-0.011540967,0.0568016022,-0.07187303,-0.06465036,-0.01852369,-0.190062374,0.0225976519,0.139208928,-0.0037174332,0.00234492682,-0.0432783,-0.186071977,-0.024249563,-0.174828842,0.1575972,0.1737152,0.372320831,-0.07165087,-0.217710838,0.0173959844,0.185994044,0.374989718,0.13908124,-0.202761322,0.131378114,0.120615207,-0.22272414,0.231289759,0.06707066,0.278513134,0.1375069,0.2756303,-0.371778548,-0.014599287,0.1466051,-0.09761588,0.0961645842,0.103451587,-0.125078872,0.25237456,0.154637232,-0.164680362,-0.122293204,-0.125325069,0.107052766,0.15761207,-0.175790131,-0.161944985,-0.005828929,0.006048036,-0.0236340463,-0.00743180467,0.212116435,0.06947059,0.06634035,-0.159301266,0.05184585,-0.0202991553,-0.16287376,-0.0507276319,-0.0225682762,-0.45800066,-0.06105498,-0.1034749,0.06289869,0.0348418579,-0.18183659,-0.09248416],[0.3852665,-0.159952343,-0.204102024,-0.05720481,0.164175808,-0.3006094,0.0477287471,-0.307340473,-0.111637339,0.20443505,0.0129239112,-0.411874682,0.141991,-0.0529794656,0.1971596,0.006638263,-0.08951369,-0.0198356733,-0.04090286,-0.06877812,0.0192163363,0.09345478,-0.167153984,0.08126935,-0.2616657,0.175291315,0.042386584,0.296972752,-0.100427866,0.275945753,-0.01822941,-0.278871417,-0.219998628,0.0758955,0.0153522631,0.118128121,-0.4853051,-0.181068778,-0.306765139,-0.3778812,0.5261588,-0.155588046,0.121884413,0.0614936166,-0.0425623469,0.007410606,0.0303146876,0.07184973,-0.0316620134,0.260679275,0.132721856,-0.016908275,-0.2019682,0.06537758,0.132526368,0.386977762,0.0492429435,0.337120771,-0.0754033849,0.019088896,-0.0838903,-0.1485827,0.137310788,-0.193948969,0.38465324,0.244864568,0.06119061,-0.0796195045,-0.07758028,0.114351384,0.110495843,-0.3632015,0.0816052854,-0.07034773,-0.206240162,0.208508,0.203170463,0.462919027,0.612472236,0.3124969,0.0721368343,-0.08745387,-0.208613485,0.0108164139,-0.303861618,-0.150788963,0.207432479,-0.06366863,0.119667478,0.176402554,0.01245417,-0.600322962,-0.025098728,0.230026245,0.28246665,0.0654627457,0.175133288,-0.06572335,0.0214193184,0.0199040752,0.0291411486,0.106054753,0.228814229,-0.0136015732,-0.183188841,-0.229338065,0.225707769,0.328319371,0.008448883,0.288382143,0.04687787,0.06374581,0.206534058,-0.3554935,-0.394373745,0.1441507,-0.392183,0.208565891,-0.195744842,0.173076063,0.09953917,0.00650485465,0.02051233,0.222171068,0.6448866,0.3579441,0.231642157,0.00651113829,-0.219128162,0.319857627,-0.148789212,0.1165012,0.0391526073,0.57519114],[0.184454292,-0.157907248,0.06304295,-0.263650119,0.0194355473,0.08478875,-0.320855349,0.0523044355,-0.07661762,0.5155203,0.2821353,0.6584791,-0.0804346055,0.00171880214,0.209183544,-0.0234650429,0.0218503233,0.492563128,-0.150606662,-0.245748058,0.0158427916,0.08602992,-0.107471965,-0.002554355,0.00686584134,-0.3718403,-0.112338677,0.10181386,-0.06665839,-0.0381918438,0.4809441,0.07567938,0.185293809,0.0256146826,0.167903572,0.0388897769,0.661809146,0.11051666,0.0566173755,0.6392533,-0.278127223,-0.127223656,-0.00389087037,-0.0379029326,-0.08377103,-0.042036023,-0.119265758,0.2638622,-0.0166595057,-0.1689453,-0.180526376,-0.21653235,0.1441987,-0.3653138,-0.0740228444,-0.07965801,0.216330752,0.09785196,0.244105622,0.3636,0.142966986,-0.0479384,0.110216081,0.0400554575,-2.99901149E-05,-0.0717826262,-0.05265902,-0.294394761,0.06628046,0.154811814,0.191189975,0.280921966,0.0593098141,-0.0627369061,0.19884786,0.14342536,-0.0428075865,-0.00356815243,-0.1058305,0.0548971,0.04691967,-0.0880162343,-0.24982743,0.3818949,0.07819824,0.210671008,0.015646128,0.114612274,0.0309760179,-0.163183808,-0.259931684,-0.09789164,-0.2525548,-0.203604266,0.3510099,0.06424569,-0.06341499,0.127053425,-0.235108122,0.134632409,-0.15795,-0.187677592,-0.126801938,0.242173955,-0.0403059945,0.06841276,-0.05856002,-0.05511079,-0.08470491,-0.251835674,-0.181132808,-0.0315913633,-0.16489464,-0.0684691,0.4529233,0.186498553,-0.0120797362,0.319494545,0.3141394,0.349053621,0.353592,-0.157900542,0.07826878,-0.09633609,-0.4059993,0.0149975661,-0.269334555,0.1604287,-0.12152534,-0.292092144,1.45843742E-05,-0.184140891,-0.230934575,0.17213434],[0.0257306546,-0.2333198,0.0806886,0.0709480941,-0.241878822,-0.04100224,-0.0734221041,0.166482389,-0.0296908,-0.122341119,0.0511991866,0.2640957,-0.08375853,-0.22663568,0.1896683,0.242144138,-0.0310410168,-0.230675727,0.234871492,-0.05740928,0.0163759124,0.27792716,-0.1090282,0.077705726,-0.160884112,-0.108852953,-0.132510751,-0.294214368,0.347090065,-0.02414734,-0.06766426,-0.177330613,0.117806621,0.182372347,0.18778336,0.366134554,0.0454854146,-0.022285115,-0.3281907,0.0520367548,0.0268288385,0.193606287,-0.3879166,0.4128367,0.0467632934,-0.194642052,-0.3216478,0.149869889,-0.163905472,0.09611867,-0.02651971,0.063677676,-0.07128048,-0.4868073,0.25999102,-0.155008748,-0.1903295,-0.0443728268,-0.135293886,-0.0770826638,0.04715966,-0.09677642,0.1535994,0.06426909,-0.0109547991,0.042210903,-0.0640917,0.0152527057,-0.125700653,0.325659752,-0.100108758,-0.034069512,0.177362338,-0.332452863,0.00587861845,0.127105728,0.170521066,0.138606548,-0.5087046,-0.190614074,-0.03411683,-0.09485146,-0.0982226953,0.2192623,0.30572626,0.28362146,0.29962796,0.393615454,0.417641729,0.0131708831,-0.162491277,0.2454675,0.0626825243,0.1719289,0.2269618,0.0603087135,0.07310771,0.0138548575,0.163391724,0.0124231754,0.3019809,-0.08110053,-0.1819434,-0.173365667,0.123341247,-0.202967033,-0.134677321,0.0354631022,-0.0208623763,0.218018949,0.221973538,-0.0983035,-0.247888535,0.03480757,0.157419324,0.0010765472,0.21402742,0.119823121,-0.230375856,-0.127755389,0.162153155,-0.175328508,-0.07549433,-0.159477815,0.352183819,0.252658039,0.137939408,0.123067558,-0.10709738,0.27624476,0.1305015,-0.114151269,0.0123365875,-0.338746548],[0.0847227052,-0.0197584778,0.08291602,-0.164448142,-0.00633542426,0.0542422235,0.05284132,-0.09988838,0.093298234,-0.515013635,-0.127166048,0.552008,-0.180517286,-0.305487543,-0.144237325,0.0901491642,-0.007039013,0.08486343,0.132259324,-0.125270292,0.0942988247,-0.140322924,-0.147968218,-0.1545753,0.506575644,-0.00180549209,0.028405983,-0.007702672,0.07480066,0.3561515,0.2676613,0.637310445,0.5637666,-0.132762268,0.103630431,0.0781974941,0.233467683,-0.0671504438,-0.0882448554,-0.5242961,-0.131117642,0.1654085,0.6881953,-0.25154373,-0.282589883,0.198526546,-0.02393508,0.00742186,-0.0123610646,-0.129518539,-0.152928546,-0.201723024,0.109412707,0.292601526,0.376593441,0.152169153,-0.0271031074,0.161974624,0.241021782,0.251946419,-0.171291009,0.0883630142,-0.361092031,-0.116171271,0.303888,-0.121424906,-0.227358833,-0.121499695,-0.233716264,-0.088482596,0.06408612,0.476939,-0.148678243,0.381085515,0.336761355,0.5360234,-0.0292679314,-0.0398345329,0.0364574,0.624672651,-0.293657869,-0.041566208,-0.217746153,0.00175973272,-0.3868792,0.024775615,-0.09966521,0.525863349,0.178337812,-0.00783633348,0.0753574744,0.234480292,-0.142228559,-0.229571864,0.132763386,0.0139849195,-0.245879158,-0.183447,-0.0485136956,0.102231659,0.1411789,-0.07377246,0.286845058,-0.0825374052,-0.00347936735,-0.0278420635,0.0208999515,-0.0748187453,0.1753912,0.223326,-0.030258486,0.165440947,0.0573340431,0.163514331,0.182880536,-0.2918272,0.09382628,-0.0432005525,0.05124124,0.5571526,0.116847619,0.198748052,0.178742886,-0.187588289,-0.2670746,0.03613104,-0.124321379,-0.0359894522,0.161135688,-0.226209849,0.118881479,-0.114421859,0.130902886,0.292545468],[-0.194820374,-0.174065992,0.0601740666,0.402946055,0.00619195774,0.06733461,-0.0937840343,0.0247567482,0.2300398,0.226363763,0.0649283454,0.0388414636,-0.00279914914,0.07292464,-0.2201843,-0.174268574,0.412273854,-0.0492987335,0.022714451,0.110394076,0.09478235,-0.129197523,0.119077884,-0.188307539,0.0391576551,-0.120123081,0.130777583,-0.0527201258,-0.171007857,0.06698389,0.232760653,-0.03905422,0.08408422,0.07568645,0.0393887535,0.00452262955,0.0764360949,0.188125327,-0.157831147,-0.208891571,-0.05027883,-0.184795633,0.0610598847,0.0392106771,-0.108302616,-0.074234426,0.09551934,0.0152335269,0.0370699,-0.07576763,-0.225672424,0.0287225153,0.29268074,-0.06617786,-0.1007775,0.107968919,0.223184243,0.119337685,-0.138234347,0.3608035,-0.00236585527,0.258550167,-0.0009264014,-0.1019001,-0.201876849,-0.06929955,-0.0332584679,0.0932721943,-0.200182244,0.124215364,-0.07653944,0.218047023,0.048029013,-0.100475773,0.163675085,-0.0891779661,-0.252033055,-0.150860146,0.221333489,0.009842859,-0.109314807,-0.257464558,-0.067456305,-0.4162894,0.07665414,0.135912269,-0.0131784724,-0.32609722,0.05221607,0.321111321,-0.09996567,-0.152069345,0.269176871,-0.210237756,0.00749572041,-0.142155811,-0.136608884,-0.101361439,-0.272015274,-0.158480227,0.06768864,-0.188344687,-0.08167487,-0.0394458845,-0.002274153,0.0381754749,0.0745707154,0.043152485,0.241384074,-0.1682736,-0.172214568,0.132904485,-0.0123493988,-0.175379977,-0.3097185,-0.07554876,-0.152023017,0.2777166,-0.0325138643,0.176474676,0.146677628,-0.0415191576,-0.123671584,-0.057769116,0.09666228,-0.076362215,0.184175342,0.0274958722,-0.178078,0.296649247,-0.00468344,0.232444957,-0.0205048267,-0.17493321],[0.483274966,-0.03928412,-0.09143719,-0.0810961,0.115898751,0.0219755825,-0.107854076,0.0165195316,0.274097949,-0.007022829,0.3010754,-0.193483442,0.148831874,0.08763833,0.138746947,-0.0103492253,0.07943142,-0.044950705,-0.03623721,-0.15558666,0.107905656,-0.1251018,0.208517134,-0.227428645,0.07192441,0.122074611,0.188599184,0.126712829,-0.166184485,0.0124574862,0.0241364017,0.025061788,0.04078134,-0.18639271,0.181620464,-0.241043672,0.161100969,0.370201081,0.08189494,-0.371242017,-0.08506014,-0.0624530353,-0.07997499,0.125629321,0.09323729,-0.274530441,-0.024648916,-0.07168391,0.000258888875,0.178352028,-0.08738703,-0.117943175,-0.029382525,0.09789948,-0.0811942741,0.08038115,-0.24337621,-0.04795731,0.09694273,0.05506103,-0.165175125,-0.103066191,-0.04181204,0.0119558945,-0.106361955,-0.147368684,0.241681919,0.01936523,0.09918987,0.341922343,0.192917511,-0.2791686,0.205012724,0.153904989,-0.07877037,-0.152975008,-0.21566318,0.167537183,-0.17159234,-0.04217894,0.186203286,0.2880527,0.266846061,-0.02102142,-0.03295959,0.00147504208,-0.0643610358,-0.000276685023,-0.244836032,0.191608027,-0.1811297,0.254379,0.02804633,-0.0204793885,0.0412731767,-0.23867546,0.0621563159,-0.203051955,0.0465728156,-0.0936715752,0.278615862,0.154047444,0.0100442972,0.105988517,-0.02213423,-0.200061873,-0.108441,0.163305625,0.08877204,0.2351757,0.0181117989,0.138538286,0.184629023,-0.106992953,-0.0294492655,-0.00169186527,0.0563689321,-0.01755449,0.340465128,0.4195049,-0.2777651,0.108442284,-0.00769144157,-0.125106961,-0.105266608,0.106202863,-0.147126883,0.143807188,-0.126234815,0.117980465,0.184285253,0.0669246837,-0.105155878,-0.7429338],[0.06460419,0.007818684,0.07895965,0.04570369,-0.126391113,0.008022726,0.16832228,-0.09090038,0.2215643,-0.108093284,0.272735357,0.0232807714,0.203237057,0.122322358,0.009118818,-0.0435009748,0.253966063,0.13503772,0.24869734,0.2431548,0.16248022,0.141853064,0.113018073,-0.136878535,-0.0678345338,0.0455319844,0.3214571,0.335978746,0.258191556,0.275741965,0.2649445,0.05505676,0.287436068,-0.01910131,0.25236392,0.24602513,-0.147846937,0.199709609,0.211324349,-0.3037439,0.174741372,0.0196563359,0.109081984,-0.0006047024,-0.0289769638,-0.055895485,-0.142331779,-0.2306971,-0.04904584,-0.07371951,-0.0302781817,-0.1694772,-0.0141493706,0.7172878,0.0588987879,0.18187204,0.07506084,-0.175558746,-0.193505019,-0.288533568,0.024257753,-0.06946208,0.0233527329,0.000796094944,0.0554887429,0.184001788,0.05768419,0.032143034,-0.128964886,0.0261181723,0.1312128,0.09143363,-0.102788694,-0.06049529,-0.08825338,-0.21337837,-0.07107322,0.147056788,0.06652785,-0.260898352,0.156656191,0.08975967,-0.193915531,-0.186910987,0.06980069,-0.114741892,-0.196763948,-0.08577435,-0.2260771,0.007838656,0.04632725,-0.288531244,0.207774729,0.0571726337,-0.162012666,0.272047251,-0.2813549,-0.0609646477,0.0553681664,-0.15862222,-0.259198755,-0.0224239267,0.0766865,0.03429616,0.0446088277,-0.249805853,0.458006978,-0.160499468,0.0561796576,-0.144303828,-0.122005753,0.1665709,0.13054958,0.02121118,-0.154502377,0.167563364,0.062886484,-0.3731028,-0.11131151,0.07078513,-0.03100066,0.0274877269,0.10849794,0.0329602063,0.205719531,0.275385261,0.2708506,-0.3305598,0.0115278689,0.156081229,-0.0161082167,-0.108770572,0.006587784,-0.115846433],[0.6060652,0.0293003023,-0.259490639,0.08799808,-0.0675222,0.0620315969,0.0341613553,-0.05541138,-0.113822609,-0.11558108,-0.08465003,-0.179111466,0.196095079,0.07142553,-0.212459892,0.4112848,-0.00617872458,0.256985962,-0.1033503,-0.005145593,-0.0114757055,0.210412025,0.0129865054,0.05306279,0.163698956,-0.009610332,0.118111573,0.0431871526,-0.169367075,-0.358251333,-0.3925538,-0.10114222,-0.234380066,-0.0252580121,-0.0233122632,-0.114138268,0.390408546,-0.105365276,0.00665684929,0.114072055,-0.06636764,0.145834714,-0.421021968,0.03977594,0.225733534,0.08531524,-0.163232669,0.19578,0.0797141641,-0.124031983,-0.181495443,-0.00103909359,-0.22619319,-0.3302795,0.4127877,0.1359823,-0.008317657,0.24321048,-0.0929897353,0.362685442,-0.0979900658,0.10644985,0.2305862,-0.257620037,0.1523305,-0.007533619,-0.166580081,-0.0709918141,-0.226043686,0.009975043,0.181832641,0.0407205746,-0.119058155,-0.146209672,-0.0684218854,-0.09191554,0.09368852,0.258541048,-0.00235528871,-0.008247894,0.2642568,0.5439961,0.5066449,0.173166931,0.0219637919,0.0611471646,0.123289846,-0.197383344,-0.436512619,-0.0252135713,-0.06238739,-0.167446792,-0.168183208,-0.0114199156,0.390476674,-0.0649448857,0.17568858,0.2540146,-0.08764047,0.149033576,-0.09422319,-0.0530902967,0.08292828,-0.0106327292,0.3135065,0.1153188,0.192975268,0.0888222456,-0.0175710469,0.0381897353,0.167822808,0.03966085,-0.121905424,-0.049452778,0.0246249884,-0.125455543,-0.0604354851,0.07209781,0.226599127,-0.0277353115,0.160373673,0.0269636866,0.183592349,0.125274345,0.267747372,0.320879251,-0.0429410227,0.09877027,0.13228,0.09774053,-0.0427639857,-0.0819940343,-0.09590701,0.08901531],[0.7897698,0.174940318,-0.08521566,-0.120450035,-0.231031477,-0.145322278,0.166727319,-0.10556785,-0.136235386,-0.0947044,0.0623151921,-0.177551314,-0.236095473,0.07633975,0.11757715,0.0595061928,-0.047720965,-0.0367228165,0.122991271,-0.3142177,-0.0168976523,0.155710027,0.128620252,0.1226493,-0.03385955,0.100127406,-0.17068243,-0.009577825,0.123944834,-0.05711653,-0.09751454,0.218342945,0.008043129,0.05095788,0.0204450488,0.0529386066,-0.448228866,-0.320168316,-0.198191285,0.315727443,-0.0648214445,0.311894417,-0.002881158,0.0898449048,0.142015368,-0.09939865,-0.09369806,-0.09549041,-0.229234919,-0.206856266,-0.2317576,-0.20548445,-0.0188130122,0.03907431,0.106725059,0.1315395,0.00102061918,0.0188898612,0.03658864,0.221430749,-0.006212025,0.139505982,-0.00331225363,-0.185552955,-0.09074373,0.227672219,0.1610689,-0.0129837152,-0.1515838,0.179234177,0.255527169,0.01613268,-0.197712019,-0.1610582,-0.280305684,0.08511856,-0.144581467,-0.524966836,-0.07335578,-0.121727429,-0.01902094,-0.0254509859,-0.09864513,-0.08529571,-0.04609642,0.027316805,-0.07328603,0.07052579,0.11466796,-0.11402081,-0.210891679,0.8508809,0.0235998183,-0.238536343,-0.1602449,-0.225745037,0.108537361,0.321456,0.184133559,-0.0581004471,-0.152953565,0.05069566,-0.0491829775,0.201242909,-0.0473571755,0.0154517042,-0.123739511,-0.138033569,-0.167834356,-0.02744317,0.114156507,-0.0392421,-0.0256021079,-0.159301355,0.112113528,0.09570958,-0.0902242959,-0.225264937,-0.158900216,0.00443994347,-0.160902441,0.04889353,-0.112331241,0.0614977852,0.0839793161,0.258388579,0.203166664,-0.162927479,0.135328472,-0.0338607468,0.210218668,0.207626328,-0.0301565528,0.0207489412],[0.0443677,0.228167668,0.196221337,0.08771732,0.1687557,-0.228872344,-0.04911245,0.167799085,0.215069026,-0.417211,0.00579009159,-0.312610656,0.247042462,0.5559004,0.3899039,0.35492602,0.2578209,-0.0589735061,0.256674767,0.08278885,0.136108115,0.538763046,-0.462055653,0.177532911,-0.3699009,0.2099296,0.1711284,0.237038136,0.0815351754,0.6563296,-0.134252369,-0.17825526,-0.0791761354,0.134256616,0.00758817839,-0.161477074,-0.732847452,0.20057936,0.0659352243,-0.334091485,0.371658862,-0.0724619254,-0.190706909,0.435157239,0.234178334,0.184257761,0.151582018,0.171375975,0.455126077,0.367065966,0.300696462,0.117265306,0.4730286,-0.555611253,0.07972776,0.420905352,-0.196794167,0.0003891727,-0.2642863,-0.197980583,0.157464519,0.156873912,0.206680581,0.453540534,0.484071255,0.179537654,0.3025818,-0.2888062,-0.182615235,-0.199338287,-0.06369028,-0.4798802,-0.124367878,-0.184928909,-0.188628227,-0.0390204862,0.4041215,0.12476559,0.243792236,-0.387974858,-0.126134321,0.07365617,-0.354387939,-0.472135544,-0.35385555,-0.0346673764,-0.12068256,-0.429109871,-0.00923285,0.277367353,0.06220335,-0.249860674,0.440106034,0.207028225,-0.2050418,0.0497438274,0.464549869,-0.0698619,0.194065049,-0.121752359,0.0722190738,0.244317472,0.2897783,-0.136659,-0.397987753,-0.06183146,0.123369277,0.196968138,0.24105598,-0.00330558186,-0.00102176459,0.3052046,0.0580755733,-0.484519482,-0.760755,0.08528494,-0.4441447,-0.427238166,0.0930304453,-0.172346532,-0.0475432537,-0.043015372,-0.1935673,0.3321683,1.13499892,0.328455269,0.6422807,-0.03980387,-0.04745491,0.7912332,0.0138846217,-0.128561929,-0.07715684,1.211073],[0.3382158,-0.08991872,-0.0454888158,-0.09660406,-0.08520117,-0.245439485,-0.0586488359,0.08295306,0.399358273,0.0816733539,0.2967093,-0.236580268,0.128776357,0.0395565554,-0.09388698,-0.08576803,0.182993159,0.0208424572,0.211481035,-0.0532959737,0.122895427,0.284801632,-0.145831913,0.128850579,0.2568336,0.220674559,-0.0187229291,0.07063205,-0.207469419,-0.00211251923,0.234753966,-0.1490962,-0.184071079,0.257208169,-0.0544601567,0.0635948554,-0.0378985554,0.06913488,0.212014079,0.5093654,0.113607593,-0.161427632,0.06989397,0.021557983,-0.08191923,0.09955203,0.00261961785,0.1664028,-0.0125182867,0.182931229,0.160974,0.177513927,-0.00323515385,0.08142718,-0.245573327,0.127951965,0.4267125,0.112230614,0.06691742,-0.00535731344,0.05678155,0.241166234,0.0125891054,-0.3024848,-0.128045708,0.040396668,-0.1843311,0.132979453,-0.0336544551,0.109034188,0.187843874,0.215073541,-0.0006064134,0.5074735,0.1306218,0.03721013,0.03582204,0.265170872,-0.144821942,0.0495290048,-0.297957152,-0.191867813,-0.183491543,-0.437782437,-0.2069068,0.101397172,-0.26191625,-0.04871149,-0.0730566,0.147797525,0.107270718,0.0903047547,0.306607783,0.212616563,-0.221320555,0.0195508078,0.234638944,0.03637555,0.0565054566,0.242873117,-0.0488702841,0.006884375,-0.128182337,-0.165909991,0.167891964,0.21061255,0.421538174,0.0593748763,0.0553344339,-0.152424812,0.116820343,-0.04074185,-0.12736848,0.057153862,0.44243443,0.1767595,-0.08493255,-0.156019032,-0.279593855,-0.06429788,-0.0401342027,-0.157451868,0.07181954,0.116327859,-0.187743768,-0.0595172681,-0.22771053,-0.15317677,0.184542254,0.06038472,-0.0003012708,-0.0506430641,0.06546622,0.203859568],[0.5466271,0.100084983,0.08820335,0.0123009244,-0.09214587,0.00551479543,-0.266172379,-0.0362839773,-0.0008843709,0.0122990953,0.207116708,-0.245716617,-0.176027745,-0.142246366,-0.05959672,0.0928184,0.241075754,0.08791947,0.03461666,-0.00241455133,0.13631238,0.112195835,0.307399154,0.27092123,0.399961233,0.173483163,-0.230772465,-0.292602,-0.337112218,-0.104334153,0.0370395966,0.09235404,0.183854014,0.373687416,-0.0874046758,-0.116747908,-0.005349636,-0.222369447,0.194671571,0.0312909931,0.301383078,-0.0159913078,0.181378677,-0.0327304229,0.05483041,0.2914539,-0.188088581,0.194043145,-0.0516695,0.128981978,0.2549956,-0.25432983,0.401494473,0.50827086,0.03222152,0.225357756,-0.156351209,0.0163289178,-0.0269097853,0.0440149754,-0.262247533,-0.215103969,0.0974340141,-0.286794752,-0.2719123,-0.134813353,-0.0622048639,0.006001471,0.0104247713,0.241440609,0.172394335,0.4525765,0.123680174,0.4979051,0.0628593,0.07074071,-0.0329030231,-0.358210236,-0.3032333,-0.119737148,-0.000242457652,-0.016369326,0.165104479,0.109232813,-0.2547581,0.223503783,-0.10395027,-0.25989747,-0.0267740488,-0.0957127362,0.0882711038,-0.1963372,0.2851564,0.235206947,-0.09200189,0.1764346,0.162029877,0.04645307,0.06966855,-0.09633568,-0.0428960323,0.143221825,-0.0209814347,-0.2453609,-0.05962505,-0.168919429,-0.146083057,-0.10768263,-0.0389331952,-0.219672874,-0.467386872,0.132503822,0.431655526,0.00649115955,0.06035085,0.0204450022,0.283295065,0.08274733,-0.0865960047,0.0143365422,-0.057491526,-0.00717849564,0.0241204742,-0.0893913656,0.152330786,-0.249524459,0.08255887,-0.1331439,-0.08193306,-0.260272026,-0.06736281,0.008372749,0.07300955,-0.544469655],[0.0434670076,-0.030181665,-0.222463146,-0.152619079,-0.0362873934,0.008104094,0.0999436155,-0.05296544,0.101311266,-0.04990185,0.139288113,0.0494427681,-0.148841158,-0.05290141,-0.110456757,0.200180247,-0.230036825,-0.12888141,0.06910586,-0.0967588,0.06940136,-0.253167421,-0.026751861,0.09114791,-0.0922013149,0.03264784,0.05614142,-0.170308352,-0.00211930042,0.09698909,-0.0274830386,0.0476294123,0.05420283,-0.112924449,-0.118443057,0.349798232,0.0261687636,0.149730161,0.07162275,-0.07399022,0.145357564,0.007895615,-0.199375451,-0.2442973,0.0313297324,-0.123979747,0.009492939,0.1111411,-0.07235849,-0.119553253,-0.09008574,0.121084854,0.212146729,-0.00144976075,0.0484060943,0.04395583,-0.244700491,-0.2258755,-0.268269867,-0.139815062,-0.06297003,0.02581668,-0.130762786,-0.3464677,-0.000116704461,-0.09869042,0.346259564,-0.0465262271,0.0996963,-0.106950529,0.0497591,0.0166826472,-0.171983734,-0.118544117,-0.009088353,0.132682413,-0.0541549921,0.3104528,-0.0458300561,0.201753646,0.22204642,0.211001679,0.4918203,0.2176513,0.0119301165,-0.244507581,0.203298956,-0.00259051216,-0.103434265,-0.0793667957,-0.223867849,-0.0813896656,0.2248159,-0.0470853448,-0.18486084,0.205603316,0.163359,0.147527292,-0.173308328,-0.158791974,-0.203830972,0.0528847426,-0.280326933,0.243518561,-0.197509155,0.0593596,0.138666868,0.00380836916,-0.031905517,-0.04317678,-0.246395588,-0.09430865,0.136939883,-0.007401152,0.164929226,0.102897733,-0.191247717,-0.2500043,0.231378242,0.127950177,0.061658904,0.251806557,-0.006120697,-0.168937936,-0.1374939,0.01251719,0.131739646,0.0785380155,0.0998749062,0.145075813,-0.08752853,-0.178406,-0.0311640389,-0.169496492],[0.216983169,0.348796,0.2181139,-0.127380639,-0.114300512,-0.144376636,0.0495149568,0.116722323,0.0623578951,-0.3081693,-0.12711902,0.231050238,-0.0451404229,-0.29258132,0.0588314,0.0480578728,0.0504308678,0.0496222675,-0.0401502438,-0.175040022,-0.02772647,0.115842327,0.0172983613,-0.203846261,0.3033809,0.118677773,-0.2920079,-0.0694322959,0.09904198,0.476075858,0.3371952,0.108922653,0.161456749,-0.0368706919,-0.0064854566,0.058827024,-0.142460376,-0.1306868,-0.0412880555,0.23132357,-0.08362593,0.09140229,0.22277914,-0.0284586325,-0.156302035,-0.200085834,-0.281135023,-0.126531631,0.063791,-0.152923763,0.0419045538,0.280947,0.153886259,-0.300925165,-0.0137452679,-0.08419244,0.2831288,-0.0368669033,0.355795056,-0.30091837,0.265789181,0.239862055,-0.103050433,0.08060708,-0.273384482,-0.06858951,0.217140019,0.206134915,0.167551011,0.008502846,0.07746833,0.458374947,-0.05232215,0.782262564,-0.102361292,0.481727421,-0.00478628324,0.0392255262,-0.107774921,-0.07556651,0.08842761,0.278556257,0.3052776,0.09806468,0.0473017246,-0.03721539,0.1515687,0.281591177,0.1013324,-0.155660868,-0.261437178,0.6486846,0.172585413,0.0523445047,-0.35170424,-0.311505049,-0.0215796642,0.08806732,0.0895889,-0.273386,0.173765734,0.131878555,0.00183709862,0.148307815,0.0297236145,0.136746779,0.159262523,0.341443181,-0.176240325,-0.02792568,-0.225807652,-0.273837179,0.05611193,0.308075219,-0.114982516,0.0517614335,0.179510966,-0.17292662,-0.062265493,-0.35209313,-0.201078311,-0.135320127,0.104055174,-0.08280046,-0.07727751,0.06432551,-0.263407022,0.234763876,-0.00157216028,-0.119613208,-0.07794198,-0.07848782,0.198174328,0.224228308],[0.314765245,0.117253371,-0.0318824276,0.1868827,0.0113063743,-0.0183514766,-0.17486909,-0.01902999,0.00132001541,-0.0319858156,-0.07841772,-0.559350431,-0.104287937,0.09048399,0.183473721,-0.00556526426,0.125448182,-0.07372559,0.09395469,0.160182774,0.1316086,0.1619785,-0.09905932,0.277677625,0.06280939,0.119000629,0.0746726,-0.0122906677,0.06448288,0.03870818,0.00336629758,0.028052276,0.179345116,0.09307146,-0.108889095,0.112283513,-0.256521225,-0.161775067,-0.1575623,-0.501155555,0.03528506,0.0589728877,0.180100128,-0.121583521,0.03505894,0.0055548707,0.083746694,0.125564948,-0.0251618028,0.237357587,0.324328959,0.132331073,-0.008431776,0.233453259,-0.03903329,-0.07526227,-0.100284524,-0.01660912,-0.410250038,0.9665489,-0.15252234,0.00551448669,-0.00241453853,0.09585102,0.03888121,-0.07985853,-0.131221265,-0.187202051,-0.204800531,-0.196556389,0.0191081353,0.5327121,0.025764009,0.5698795,0.276930541,-0.179479361,0.107313648,-0.212599292,-0.275680661,0.181878313,-0.09216739,-0.0032729574,0.0284400675,0.101534486,-0.09548429,-0.105408713,-0.352389365,-0.0901924744,0.0505428948,0.148172036,0.232349828,-0.3652618,-0.1012164,0.360603,-0.20011507,0.204492688,-0.273236781,-0.105270647,0.00266389246,-0.1420626,0.2288896,0.143901408,0.180626661,0.270057529,0.2011836,-0.217639327,0.0773461,0.255876154,-0.232746348,0.269267142,0.0179800987,-0.177155659,-0.241487682,-0.250504285,-0.483697474,-0.189301386,0.08676287,-0.08743671,-0.258702785,-0.0488736257,-0.198522538,-0.0147918491,-0.116481386,0.2017862,0.355957925,0.2586323,-0.26138562,0.0376727171,-0.118184842,0.09047052,-0.0562915467,0.02637218,-0.107917637,0.103758596]],[[0.09318706,0.08525708,-0.198057458,-0.0601331927,-0.238581225,-0.108832374,0.401831,0.177742183,-0.07217861,-0.217968971,0.197150841,0.0564743951,-0.051308997,0.129327565,-0.43733117,0.0357668,-0.229849711,-0.076918155,-0.396633774,-0.3734318,-0.1797578,0.174034178,0.15689984,0.100848839,-0.0270388555,-0.2948364,-0.01788941,-0.181355864,0.002778732,0.5658251,-0.137633577,0.260710984],[0.004777127,0.0579350144,0.456776381,-0.539759457,0.8910384,-0.0798215643,-0.208917141,-0.8306598,0.133424267,0.556667149,-0.471133173,-0.06898266,-0.213089973,-0.3759421,-0.0276511572,-0.210139155,0.0115426444,0.547349334,0.0376435444,-0.175562277,0.4945908,-0.0506977439,-0.369815379,0.240717918,-0.497051775,0.472221375,0.6129056,0.9175971,0.185922235,-0.479620874,0.426399738,0.201872483],[-0.126347527,0.3175186,0.9932441,-0.109290086,-0.499907643,0.446807444,-0.5527115,-0.207508683,0.06960592,0.07864751,0.301791281,-0.0735543743,-0.333691269,0.5526144,0.0386090465,-0.37368238,-0.03912494,1.25649476,0.139834389,-0.31305936,-0.3952674,-0.129483625,0.118492544,0.268268079,0.6782027,-0.616055548,1.17868733,-0.3357712,-0.5534296,0.0443775356,-0.469981,0.269132823],[-0.279155523,-0.30289945,-0.10610614,-0.209481761,-0.20875445,-0.0557378121,-0.172938183,-0.02236484,0.000666332,0.316142261,-0.24888058,0.4808484,-0.2542147,0.06560309,-0.1714808,0.232321054,0.217761874,0.116921909,0.1881976,0.38041985,-0.487342179,0.227458611,0.348139077,0.1222246,0.655104756,-0.3444618,0.24653247,-0.453372627,0.4705618,0.3287525,-0.43343547,-0.2834472],[0.3363083,0.360721231,0.4639999,0.313896626,-0.415939242,-0.0971595347,-0.122420728,0.297102779,-0.234978229,0.179797158,-0.458030641,0.6549685,0.201577216,-0.023320647,0.0258041024,0.123627387,0.243989736,0.03508723,-0.009772036,0.712123334,0.2696931,-0.1378344,0.21899581,-0.3023027,0.09404466,0.352098167,-0.8304927,0.08008679,0.3998275,-0.525524139,-0.258336872,0.6719382],[0.290787727,0.113206573,0.356528282,0.142547056,-0.659198046,-0.0558798574,-0.106022015,0.009411694,0.204771489,0.113330439,-0.03202697,-0.1698403,0.0421240926,-0.380503833,-0.4080662,-0.110252768,-0.240501747,0.712263048,-0.480034,-0.0425468571,0.00357780419,-0.235941589,0.16787751,0.32041052,-0.398114234,0.104919083,1.59235632,-0.07040053,0.222748667,0.02107064,0.30575797,0.4829114],[0.4027761,0.112329587,-0.140011564,0.332763046,0.523673952,-0.254263222,-0.0913617462,-0.07076471,0.00345247379,0.282152861,-0.192664072,-0.272092223,-0.282835,0.204776227,0.0506526344,0.422515,-0.16647774,0.5509655,-0.200375333,0.005130244,0.656963,0.322126269,-0.292846739,0.6193007,-0.227228284,0.210115775,-0.524361134,0.267925262,0.0646337941,0.303896546,-0.270321846,-0.2037786],[-0.102815352,-0.286437243,-0.206980124,0.186577916,-0.3990216,-0.136329129,-0.08456493,-0.111015595,-0.396691084,0.452218324,-0.0601424575,0.235319078,0.190767,0.3217411,-0.5011408,-0.0861888,0.176950276,-0.1767159,0.0851941,0.222905815,0.1286275,0.0162656754,0.302739352,-0.6836277,0.3605061,0.236104608,-0.148734063,-0.178048745,0.131713048,0.581295431,-0.409332067,-0.0191138685],[0.05639752,0.07113747,-0.0639780238,-0.197103828,-0.247555271,-0.08093522,0.224055141,-0.281810075,0.4926888,0.135726869,0.22448045,0.167956322,0.209605113,-0.0732296556,0.1925432,0.09044722,0.3902807,-0.375091583,0.3096346,0.165649265,-0.112000279,-0.293384,-0.155609652,-0.0473811962,-0.539314866,0.121225767,-0.0601968132,-0.298679948,0.234669745,0.4279766,-0.221669629,-0.0309843589],[0.516606033,-0.322707832,-0.0220292117,0.6280842,0.1299866,-0.08237963,0.07715359,0.532487154,0.177042037,0.295107067,0.16763325,-0.6180138,0.0151673285,-0.0223570727,0.290285,0.6614448,-0.04647993,0.108212538,0.359083146,0.0220281053,0.664387643,-0.09251357,0.3740218,0.389967471,0.158144072,-0.356286049,0.183090255,0.26039,1.11759162,0.0220593549,0.5248473,0.318722874],[-0.04626328,-0.02518519,-0.215600029,0.187435612,0.07627113,-0.115361504,-0.260728836,-0.0280710887,0.012191643,-0.006869945,-0.222020119,-0.03784329,0.451072246,-0.04210087,-0.04187592,-0.0620742179,0.146719217,-0.0387801453,-0.031426847,0.154593289,0.0447972,0.222167417,0.006665749,-0.180131361,-0.0372373238,0.5713665,-0.227942228,0.2238838,0.0514073223,-0.17696692,-0.481089234,-0.3699391],[-0.3288769,-0.000412598631,0.134843022,-0.254052073,0.9711672,0.131492466,0.00679805735,0.156684116,0.247682244,0.287020147,-0.218079329,-0.3767774,0.255839,0.288610637,-0.275781572,0.147226,0.7376401,-0.0173057839,-0.2079498,0.08952135,-0.404746264,0.283639818,0.224850968,0.177644849,0.0378267244,-0.07668719,0.237657011,-0.07903252,0.102715187,0.12559773,0.01830089,-0.13195388],[-0.4997557,0.5834189,0.177246511,0.7569734,-0.3959151,-0.09376486,0.464018136,-0.0135752084,-0.525119543,0.178895041,-0.334545672,0.53164655,0.262553781,-0.242498934,0.09370028,0.545427442,-0.177041069,-0.303874,1.06176651,0.258991033,0.5501256,0.06334778,-4.51867782E-05,-0.647242367,-0.0303009339,-0.072075434,-0.3545222,-0.3345419,0.172689334,-0.389373869,-0.05227127,-0.650695443],[-0.503090441,-0.004427586,0.715009749,0.283250421,-0.254201144,-0.07915182,-0.08353739,0.7167119,0.113286816,-0.182263851,0.3242303,0.252049774,0.313123465,0.3879282,0.120522343,-0.618734062,-0.194763958,0.327483475,-0.3432521,0.765758753,-0.4406428,-0.401065737,-0.317623079,0.459287822,0.0494311452,0.203766033,1.58057988,0.331728458,0.123712793,0.0746945143,-0.476798236,0.571736753],[0.397777081,0.105466172,0.391890138,-0.188870251,-0.06750488,-0.2494177,0.07554558,0.1550673,-0.315540463,-0.3240645,0.329348236,-0.121825628,0.800040841,-0.04334673,0.08671946,-0.5104599,0.6991365,0.446269125,0.264855117,0.4550535,0.283084869,-0.181843475,0.242420077,-0.5024496,0.6460817,0.187259614,0.5880898,-0.0268916246,0.0910276547,0.616838157,0.407449722,0.3628854],[0.1934947,0.3469755,-0.152583688,0.217305556,-0.670200646,0.0351563431,0.006270509,-0.208530948,-0.00213422929,0.0647082,0.07038344,0.08996425,0.187252358,-0.229098827,0.02649832,0.9081049,0.505644262,-0.232876062,0.376837254,-0.16375643,-0.119981073,0.20355612,0.852856934,0.455730915,0.33654812,0.7750171,-0.117164247,0.329095662,0.59718287,0.388622433,-0.1416118,-0.381117344],[0.153623417,-0.7031631,-0.0215963349,0.263304681,0.460051328,0.242589816,-0.0973600447,0.9210712,-0.28223756,0.458244,0.121143907,0.06571905,-0.160838515,0.03881034,-0.6785933,0.547381043,-0.0271655619,-0.04184098,0.4428673,0.384739161,0.37139532,0.220782518,-0.210738316,-0.116781749,0.0471362546,-0.108749919,0.0211381428,-0.188686624,0.206658572,-0.706260264,0.369473338,0.0947257951],[-0.2801405,0.401708573,0.481834918,0.1763973,0.488313526,-0.06958735,-0.0374769531,0.866283357,0.2674163,0.584264755,0.1576722,0.159925207,0.2672238,-0.110257357,-0.116072193,0.378131747,-0.182838276,0.388550162,0.567767,0.257787615,-0.842534,0.151608467,-0.188429072,-0.340580672,0.5340174,-0.9490005,0.525513351,0.4421628,-0.314493626,0.177206412,-0.22644037,-0.692256331],[0.248326361,-0.144484654,0.475673139,-0.215610564,-0.187190235,-0.0417876355,0.106269494,0.244847938,0.102600083,0.163739532,0.1344018,-0.232683718,-0.0527663529,-0.394672662,0.241405,0.108209975,0.024403153,0.323302448,-0.525788665,0.07686326,-0.474940538,0.150614411,0.582570255,-0.369250923,0.219164163,0.39248082,0.0301313959,-0.05479413,0.515179038,0.4243914,0.34733358,-0.103051521],[0.480148584,0.423953265,0.878853559,-0.0674097538,-0.283848852,0.07361986,0.2383283,-0.6578949,0.332588941,-0.03927913,0.0884228647,0.0593250878,-0.343019426,0.147073135,0.330928028,0.18738091,0.1445394,0.6392238,-0.227160573,-0.0615836531,0.257872164,-0.5790521,0.0786863,0.4417171,0.10575033,-0.2968177,0.4126491,0.0316167027,0.556596041,-0.0666293,-0.6906699,0.7957208],[-0.243543431,0.5275749,0.252280474,0.17424494,0.330826044,0.0517582558,-0.5912412,0.206131518,-0.158064768,-0.483192533,0.129812762,-0.277116358,-0.177541077,0.05366144,0.419316739,0.421347946,0.003955753,0.118215412,-0.5069447,0.0350233652,0.240853,-0.24597688,0.5740869,-0.5467701,0.321719676,0.1859547,-0.6241385,-0.457505316,0.250544727,0.294384122,0.6110902,-0.2593135],[-0.182734743,0.5529227,-0.438507676,-0.0174834151,-0.07620327,-0.09395539,-0.0317191333,-0.823933959,-0.338779658,-0.283448935,-0.0936788246,-0.190706536,-0.267450362,0.0282222033,0.0314547233,-0.0168843847,0.072404474,0.364982754,0.643148065,0.389461577,-0.0264340248,-0.426868558,0.126585141,-0.5093774,0.5377427,0.148749009,-0.476559132,0.048327826,0.137081861,0.500824332,-0.592409968,0.593157351],[0.436743528,0.129844725,0.254623026,-0.123459943,-0.450613767,-0.0775298,-0.238443464,-0.4130471,-0.232482433,0.525944531,0.0285885613,0.622169,-0.396446973,0.3312301,-0.173007607,0.001535164,-0.09631464,0.988329,0.0271695089,-0.495458215,-0.176761985,0.23499234,0.0980165154,-0.516310632,0.100243464,-0.09637424,0.04627539,-0.4583329,0.186523885,0.2638197,-0.7077463,0.3140783],[0.10386432,0.302250773,-0.9549228,0.590557933,0.755732656,-0.446232736,0.6416826,0.3786457,-0.290109277,-0.08893396,-0.311902255,0.77848953,0.122572273,-0.3379146,1.10332859,-0.216681972,-0.6253492,0.1355514,0.866424263,-0.5200189,0.0544489957,0.0668756142,-0.167397186,-0.427557349,0.450023741,-0.262192547,0.218182251,0.3397994,0.5682271,-0.0369749665,-0.0324999951,0.180353433],[-0.02334478,0.160507321,0.149137765,-0.30361855,-0.08615599,-0.339942336,0.123296179,-0.193882018,-0.155241936,0.148176864,0.25181818,0.154041469,0.198771447,0.0156277213,0.139515772,-0.163198113,-0.096367836,-0.203799963,-0.204060107,-0.05693051,-0.492701858,-0.18615225,0.0775195658,0.025173286,-0.2257331,-0.266554832,0.0902586952,-0.309388846,0.206932425,0.3399093,0.07963269,0.593782842],[-0.115973182,0.04035281,0.09734662,-0.197220176,0.0925905,0.660759449,-0.2401143,-0.2911886,0.19841978,0.657046735,0.247219548,0.139368,0.4075309,0.143757075,0.45123443,0.057848312,-0.355689824,-0.2208873,-0.425533563,0.226683408,0.0240515154,-0.0661184,-0.007198836,-0.3476981,-0.589113235,-0.207628146,0.196533129,0.09251929,0.232282534,0.5690589,0.157824636,0.293135315],[0.0759568,0.641929567,-0.364318728,-0.0745167062,0.9999559,-0.256055743,0.666478932,0.6203776,0.07301261,0.008194688,-0.190070823,0.179919,-0.013243732,0.0312601924,-0.294865251,-0.075893566,0.319923431,0.1119772,0.7662375,-0.08951565,0.7740708,-0.026541872,0.337328851,-0.497851044,0.100315824,0.0253470447,-0.307225734,0.0349312946,-0.32452336,0.103717633,0.212267429,-0.91015327],[-0.434368759,-0.7065277,0.7965552,0.0366780236,-0.3517533,0.07054114,-0.3309994,-0.00354240951,-0.401137233,0.5613791,-0.21995,0.308699161,-0.10107144,0.0155844223,-0.710543931,0.7139496,0.107816085,0.282981,0.136280254,0.6068886,-0.410058469,0.17947337,-0.265315,0.0749486238,0.173156857,0.415930778,0.778925,0.109201044,-0.05939735,-0.438803673,0.306436658,-0.4658231],[-0.276038378,-0.27016592,0.743221462,-0.0210516769,-0.2786081,-0.0110295014,-0.303053826,0.4411202,0.1764504,-0.025365727,-0.143211529,0.359297335,-0.144941971,-0.5037303,-0.144213587,0.143776789,0.308010876,0.7345003,-0.7914348,0.275312,-0.4336691,0.137855724,-0.389771581,-0.173049629,0.3997106,0.05958916,1.07753611,-0.150203019,-0.00101223262,0.5573779,0.169968084,-0.0152084837],[0.5771604,-0.158503458,0.06668439,0.511557937,0.4296259,0.492310226,-0.2386731,-0.402668417,-0.442581058,-0.148703158,-0.0628921539,0.588147342,0.178115919,0.150729164,0.3314275,-0.19670473,0.331614256,-0.04942105,0.04716982,0.302935034,-0.267540038,0.5612464,0.04968707,0.255778581,-0.241423979,-0.189966381,0.116291709,0.00542265456,-0.236857861,-0.27769956,0.110242255,-0.06386245],[-0.317891032,-0.4126854,0.345416,-0.368085831,-0.423812717,0.3077891,0.0156443659,-0.625285745,-0.170177832,0.6218532,-0.540071547,-0.161053985,0.458173722,-0.120451622,0.62631005,0.703518152,-0.0309908055,0.3359418,-0.234229967,0.409201682,-0.9286262,0.09383991,-0.009540188,-0.1349246,0.625565946,0.723876238,0.901897,0.7303075,-0.008148993,-0.399108678,0.11033994,-0.0233543925],[-0.263966769,-0.490055382,0.18913807,0.203050062,0.274173856,-0.220961288,-0.380134642,-0.328096539,0.21655561,-0.3073798,0.0561354533,0.09370174,-0.191805884,-0.4812806,0.0250653569,-0.144153014,0.320292234,-0.00587678235,0.316471964,0.379494518,-0.120693773,0.1932788,-0.411381453,-0.261157334,-0.04739998,0.205740049,-0.292016566,0.241743043,0.176293284,0.114652559,0.459240347,-0.466135234]],[[0.307470679,0.317125022,1.40479064,0.289157748,-0.141514331,0.921078,-0.4095347,-0.09790895,0.193695173,-1.02720475,0.232612148,0.340944856,-1.10865927,0.990398347,-0.1685397,-0.413482517,-0.399150819,0.0582363531,0.192962542,0.3635601,-0.6362502,-0.9275302,0.590453863,-1.2171104,0.0514865853,0.205342337,-1.35067368,0.477339625,0.976658,0.458434641,0.801232159,0.209344372],[0.1599937,-0.172772989,-0.281912029,-0.155662745,-0.330830425,-0.199422225,-0.0835392,0.129712373,-0.185297415,-0.3104053,0.399189144,0.0175273437,-0.0744044557,-0.176555112,-0.362674683,-0.308419049,0.222619951,-0.4434327,0.312357247,-0.399234474,-0.09528083,-0.105417587,0.0962030962,-0.2114116,-0.234274223,0.0152728949,-0.116805404,-0.0533644445,-0.124272153,-0.0349821672,-0.09548172,-0.102068737],[-0.0331537127,0.6910036,-0.3014069,-0.416967869,-0.5428938,0.472931653,0.3508805,-0.3062704,0.195465773,0.333397925,0.006462077,-0.4394219,-0.487759531,-0.8634258,-0.200556338,-0.179068461,0.379081577,-0.8725352,-0.247771457,-0.03774923,-0.3029063,-0.5535682,0.357707053,-0.319398075,-0.202905208,0.115767665,0.08102097,-0.1399023,-0.751798749,0.0185272042,-0.811140835,-0.08388002],[-0.49997285,-0.233801037,-0.3821104,-0.109126091,0.00559368171,0.05852595,0.165022388,0.165197268,-0.07501514,-0.3882856,-0.4507936,0.09050479,-0.0872271061,-0.134538427,-0.00102540443,-0.397815973,-0.2530375,-0.4643192,-0.1651796,-0.0150375385,0.09902863,-0.4282066,-0.276676685,-0.202376574,0.478056073,0.176493436,0.138394043,-0.546625555,-0.204524428,-0.145875588,-0.276123673,-0.259895444],[-0.011840513,-0.0764723048,-0.0284273773,-0.07860139,-0.117364161,-0.12613894,0.0266248714,0.216491982,-0.0369127132,-0.6142363,-0.145976692,-0.188720167,0.172112212,-0.429482669,-0.159064472,0.0900228,-0.182271108,-0.346149117,-0.0268594362,-0.0621326379,-0.0165583249,-0.09204334,0.454476833,-0.234973833,0.0322121419,-0.225159213,-0.175014719,-0.4725363,-0.315228552,-0.126896039,-0.242617071,-0.136695251],[0.249479637,-0.0151668135,-0.02503153,0.199158549,0.01950934,-0.443106264,-0.311249018,-0.23986125,0.0520656519,-0.4089395,0.225344658,0.374910027,-0.2351122,-0.153457388,0.349662364,0.351084739,-0.394058675,0.045379594,-0.27053082,0.08489221,-0.622321248,-0.290101141,-0.5494059,-0.358799458,-0.128717288,-0.08378638,0.4724935,-0.6515393,-0.413215578,0.3410496,-0.6435258,0.106696509],[-0.172528163,-0.327123851,-0.319075137,0.108658582,0.0700682849,0.183481455,0.54134196,-0.180087656,-0.205682,0.167732388,-0.1100281,-0.414620519,-0.2794716,-0.7338495,-0.991851568,0.7415884,-0.207621083,-0.6200223,0.199561208,0.58662343,-0.07212973,0.212576374,0.247529581,-0.6282026,0.145989746,-0.190583438,-0.629071951,-0.114013731,-0.3124023,-0.281595916,-0.2971558,0.241594225],[0.412262946,-0.428106755,0.273626417,0.1596416,0.159684151,-0.09493867,-0.5007168,0.362431169,-0.0219780616,-0.758577645,-0.00141545176,0.0433672927,-0.209076658,0.166660979,0.07587259,0.233185738,-0.8602264,-0.7434141,0.0321179442,0.0235345736,-0.2609678,1.06729949,0.547418237,-0.129368454,-0.08877961,-0.00283527328,-0.156518146,-0.655040443,-0.7713491,-0.490543574,-0.299285233,-0.03277504],[0.08322463,-0.215374827,-1.08332968,-0.597830832,0.485462219,-0.7283454,-0.292216718,-0.5975357,0.3037642,0.5076257,0.3733558,-0.423568726,-0.0905310661,-0.518547654,-0.034379717,-0.08259494,-0.0723814,-0.536336243,0.01983016,-0.242925912,0.145427182,-0.144655719,-0.7027256,0.85305953,0.156008467,0.423416823,-0.272919,-1.19901013,-0.231927559,0.4685695,-0.299620658,0.06975042],[-0.196205348,0.307562947,0.432818532,-0.303752929,-0.7866217,-0.452880442,0.415610254,0.20891653,0.161231562,-0.390096515,0.263186157,-0.09647298,0.08731206,-0.934632063,-0.319056749,-1.1575166,-0.6168294,0.164179787,-0.31824705,-0.0172301549,0.183829248,0.418558866,0.309713036,0.606743634,-0.02480067,-0.0854155943,0.733751953,-1.20508182,-0.6896747,0.0294867083,-0.489476144,-0.06254442],[-0.04804088,-0.6970434,0.106742129,0.710558057,-0.8600016,-0.363688052,-0.146854788,-0.354327232,0.2280048,-0.08878649,-0.00838886,0.309041381,-0.5146735,-0.970926762,0.234702557,0.03670763,-0.231315479,-0.1546205,0.468920261,-0.2650901,0.363869816,0.0733244047,-0.4163716,-0.156673431,-0.19483979,0.06925729,-0.0876078457,-0.3208457,0.201664165,-0.230602771,0.0356428623,0.0427632481],[-0.490087569,-1.11925673,-0.3735822,-0.221117347,-0.04740979,0.173435822,-0.306824863,0.0389093,-0.132756025,-0.171115071,-0.517634,0.011935629,0.33860448,-0.09293391,-0.144514009,-0.6660033,0.769502342,0.603029847,0.04238206,-1.11097026,0.137720987,-0.3835586,-0.207263261,-0.140354708,-0.104489326,-0.08646707,0.817370057,-0.27273795,-0.09786416,-0.153127626,-0.943873465,0.2448085],[-0.345555723,0.342384338,-0.235657632,-0.246164247,0.3823507,-0.3168731,0.03999255,0.013261402,-0.00388976862,-0.251354843,-0.0318222344,0.234496236,0.240113288,-0.3246588,0.0527762473,-0.50156194,0.08713232,-0.534335256,0.0300494358,-0.217717782,0.1156944,0.204759568,-0.4173881,-0.9995455,0.223928019,-0.0214183927,0.330282062,0.10200876,0.351471335,0.09192684,-0.6353574,0.74467504],[0.20218356,-0.03492284,-0.53910315,-0.216673747,-0.19187215,-0.220975414,-0.03647508,0.118749745,-0.08591496,-0.519948542,-0.3063441,0.170077443,0.0391544253,-0.032245066,-0.294993132,-0.266734064,0.326622933,-0.0620759726,-0.09675222,-0.06998148,-0.2344128,0.289201856,-0.09304788,-0.193766773,0.141682237,-0.136073023,-0.243318,0.0349422358,-0.259060442,-0.009531461,-0.503951669,-0.0654449],[0.237236351,-0.06844946,-0.6170212,-0.305854261,0.0472389534,-0.137585372,-0.5839354,0.262694061,0.3223273,-0.239977479,0.202615142,-0.373088837,0.4001291,-0.431737423,0.004478554,0.528501749,-0.222144246,-0.5050068,0.338761032,-0.6845487,0.237566769,-0.187198877,-0.3727328,-0.838612139,-0.1110891,-0.05155371,-0.220273525,0.237199232,-0.14450939,-0.2495673,0.758647561,0.117292292],[0.297066271,0.600092,-1.01939559,-0.264756262,-0.513153434,-0.83356595,0.2592432,-0.186573684,0.156462774,-0.404865772,0.124234237,0.458438247,-0.342436463,-0.915647864,-0.820188165,0.212593138,0.320229173,0.5703089,-0.26549983,-0.886694133,-0.911816,-0.20503974,-0.275080681,0.278496563,0.143542424,-0.2592416,0.366118073,0.478336662,-0.1910736,-0.008892636,0.6226938,0.443495065],[0.0493689962,-1.1823858,-0.00685766526,0.8226226,0.461718559,-0.589688838,0.0434120558,0.7006247,-0.0730173141,-0.5344453,0.219560608,-0.0119628878,1.03091061,-0.7436969,-0.847665846,0.346162826,-0.147668853,0.2587545,-0.6551175,-0.105167367,-0.0494122356,0.327148467,0.460106075,-0.4050158,-0.0329150744,0.115414739,0.2156391,0.318006217,-0.2803394,-0.07029942,-0.374103755,-0.208749324],[0.116789341,0.161392346,-0.07255456,0.040850997,0.337292045,-0.252221674,-0.205363855,-0.1643463,0.212825716,-0.424831361,-0.17204003,-0.4380906,-0.107702881,0.0199733358,-0.6307046,0.01900168,-0.274381727,-0.0250603277,-0.270151436,-0.114268981,-0.102544867,0.09342614,0.0162761323,-0.4443974,0.141670853,-0.3596968,-0.464420944,-0.329641968,-0.1328623,-0.490703285,-0.132805318,-0.3446911]]],"layers":[134,32,32,18],"Cost":9.999959E-07},"intentNetwork":{"biases":[[0.146573484,0.279242545,0.05140887,0.120353855,0.609487057,-0.0075114686,0.53206265,0.0424275473,0.0308463946,0.1991967,0.139544085,0.294426024,1.00996888,0.217220828,0.155415863,0.190320909,0.3399856,0.3834458,0.6319823,0.5698742,0.141205728,0.201795429,0.7821036,0.5527121,0.257070035,-0.282122374,0.291180581,0.224557057,0.6849975,0.256589472,0.18843393,0.05574293,0.2937759,0.117674246,0.248664513,0.4458252,0.342591584,0.441232055,0.455443323,0.464451,0.239610553,0.542500138,0.06505478,-0.0175729021,0.5329513,0.5009264,0.09838463,0.123144925,0.292525083,0.5007727,0.491877258,0.207714662,-0.0137954038,0.28143546,0.354627222,0.06767435,-0.0311244037,0.326429635,0.376082271,0.201461479,0.09857291,0.02895904,0.149554029,0.316892475],[-0.000642726256,0.0606528036,0.197325379,0.217120662,0.156930938,0.194352075,0.04005022,0.00713574374,0.1344599,-0.0687671155,0.09927283,0.115166277,0.189339623,0.09938823,-0.006817487,0.132469639,0.0134154288,-0.0102696447,-0.0709510148,0.1627262,-0.110188857,0.197959,0.14547573,0.310216248,-0.05812205,0.1707621,0.449212551,0.0223110616,0.210048065,0.04104964,0.330192626,0.0150485113,0.1316202,0.362371773,0.138005182,0.319322616,-0.247336969,0.213418171,0.07894297,-0.08238253,-0.118033469,-0.00301404577,0.244200632,0.0212407038,0.0413199849,-0.10388232,0.203716248,-0.0138613489,0.00512429653,-0.1961708,0.138064459,0.3460592,0.182340875,-0.0384736955,-0.0583857037,0.00372099876,0.391071916,0.0119715361,0.06440238,0.0489997827,0.381838977,0.116524346,0.216621026,0.311402738],[-0.3961123,-0.308066219,-0.3670835,-0.193824515,-0.332473516,-0.399465382,-0.3500495,-0.375507474,-0.404524922,-0.181353524,-0.337686062,-0.433246672,-0.182232916,-0.214621156,-0.314079255,-0.246303275,-0.09431984,-0.2599638,-0.187099144,-0.394698739,-0.238179684,-0.158711091,-0.355420828,-0.148788393,-0.313404024,-0.32581836]],"weights":[[[0.09017341,0.137023419,0.1995006,-0.118801594,0.00463863555,0.159731165,-0.2796904,0.208439752,0.180555716,-0.07913546,-0.0412735976,0.0556205064,0.146146372,0.1305831,-0.100514561,-0.107919365,0.03721241,0.1328356,0.11354892,0.262924671,-0.3542232,-0.199661255,-0.100063153,0.134006456,-0.1922478,0.117798589,0.136376292,-0.0578543581,-0.217465684,-0.0305668674,0.06364278,-0.13320303,0.0783722,-0.0322873443,0.0620467775,-0.140172884,-0.237130582,-0.0529808365,-0.0151100652,-0.09169956,-0.0816767961,-0.0992038846,-0.08495184,-0.11114718,0.299498737,0.0022744853,-0.157598764,0.04208364,0.04428218,-0.14188908,0.205928341,0.181359157,0.102981746,-0.08350187,-0.183323771,0.0582507476,-0.09651292,0.147079453,0.446566075,0.133840308,-0.1472059,0.320421517,0.267150074,-0.166767985,-0.254123271,0.21435076,0.07005178,-0.0354747176,-0.0208107252,-0.0253652,0.0119389547,-0.0157822855,0.240219578,-0.07080177,-0.0674555,0.25894165,0.0303015579,0.254213244,-0.118536375,-0.07155902,-0.109741181,0.145950779,-0.1408774,-0.284644336,0.133215576,-0.0303475857,0.0253202766,-0.101794973,-0.130997255,-0.06372106,-0.184239328,-0.0559472144,-0.008176268,0.282663077,-0.000327573332,-0.053600885,-0.3160539,-0.0584939569,0.05806632,-0.120579511,0.08876725,0.5572639,0.177751392,0.243446976,-0.203147963,-0.0864211,-0.148432627,-0.0316264443,0.0216243248,0.0517250523,0.1675845,-0.07626198,0.08883355,-0.156574354,0.2499127,0.25196448,-0.103790738,-0.114655815,-0.08861693,-0.2947293,-0.0406613,-0.07114411,-0.280586928,-0.135422692,-0.0496388637,-0.09109278,0.09260769,0.05699887,-0.271771848,-0.06592571,0.02586617,0.09897051,-0.1002097,-0.0674334541],[-0.05775093,0.0290964134,0.018717261,0.0003841011,-0.119476333,-0.0896729,-0.0161329359,-0.131670117,-0.102274425,0.08029567,-0.140711889,0.0730716661,0.363170534,-0.009512516,-0.08360654,-0.3175794,0.08887854,-0.10487622,-0.143359751,0.008841255,-0.182957411,0.162566409,0.360407054,0.168860465,-0.0235406552,-0.0874013752,0.161115333,-0.125974208,0.0622972138,0.365241468,-0.175030529,-0.148659721,0.196343362,0.0487777442,-0.0310885869,0.199896142,-0.189766377,0.01180134,-0.0583631955,0.248492345,0.269936264,-0.0902040154,-0.249084,0.107922278,-0.140056163,0.102731459,0.2660048,0.0201343652,0.0336544476,0.173738,-0.3098979,0.303987682,-0.02446642,0.788544238,0.419188231,0.21870479,0.1966733,-0.144296318,-0.179245353,0.353060424,0.218489915,-0.143516988,0.0735362545,-0.257932961,0.242309228,-0.0561544336,0.150728658,0.01320963,0.006548986,0.07396874,-0.15617238,-0.20695661,-0.017480744,0.09098384,-0.148344815,0.007256369,-0.114727154,0.262050748,-0.127263442,0.009826795,-0.18132405,0.087898,0.2876857,-0.11529617,-0.218284458,0.0189053286,0.0322408,0.04082881,0.2804713,-0.0130820982,0.4456498,0.0631971955,-0.11063733,-0.213532731,0.0873428658,0.09618194,0.252308428,0.106458277,-0.126568168,-0.0814177245,-0.08142938,-0.0399877056,-0.07736129,-0.004262872,0.230454341,-0.06656034,-0.04067825,0.07406819,0.02642682,-0.0289290138,-0.125605926,-0.0700408,-0.122132733,-0.0312116649,-0.155990332,0.0562334619,0.0101813069,-0.08537909,-0.00226614648,0.0278121848,-0.0840571746,-0.197095469,-0.0606839545,-0.101867095,-0.237927511,0.223998174,0.07145729,-0.270907432,-0.0804088339,0.258081764,0.155279592,-0.09952975,0.09231921,-0.114714652],[-0.0238834675,0.0626906,0.1231313,0.242279351,0.132839486,-0.224881977,0.104934938,0.125699878,0.0165293775,0.0799377,-0.0418715067,0.06847799,0.4946473,-0.0823080242,-0.1493346,-0.202818289,0.0173743982,0.189639345,-0.09532301,0.09794331,0.170844555,-0.2668867,0.06304195,-0.0618265867,0.05785123,-0.0783803537,-0.0611231849,-0.0496705137,0.173981667,-0.00713786,0.104794204,-0.0595042072,-0.0513059124,0.04044522,-0.15456298,0.118250445,-0.06173478,0.06895426,-0.08537622,-0.0294704735,0.179177091,-0.10747315,0.05521039,0.03486155,-0.152500615,-0.09043846,-0.125053644,-0.197688833,-0.1198079,-0.0722220242,0.0332905538,0.0407356024,-0.0869214758,-0.0554424636,0.0443399027,0.1387431,-0.08369004,-0.0160316657,0.243423492,0.43505922,-0.022916887,0.0997301862,0.0424860269,0.131214291,-0.006818504,0.124851711,0.1364883,-0.0945651755,-0.02938465,0.0220261812,0.0439807922,-0.0476928428,-0.209765062,0.110460296,0.061346747,0.11716906,0.00126296387,-0.0537192747,0.0402565375,-0.168336153,0.05263019,-0.108944744,-0.0484897867,0.003297117,-0.09186546,-0.255482733,0.0802850649,0.4317433,0.2273764,-0.110247307,-0.247226253,0.0153023936,-0.08167034,0.0919006,-0.0301556867,0.08958083,-0.0371842161,0.0387780219,-0.108356468,-0.301426828,0.227368355,-0.119272739,0.0296383314,-0.055532787,-0.03778537,0.179713637,-0.05662201,-0.261508167,0.175800189,-0.1073194,-0.190217361,-0.08726754,0.0734515339,-0.121644072,0.32284832,0.176025033,0.1223703,-0.2465959,0.02823571,0.07415061,0.2099732,-0.02895559,-0.248940468,0.1830403,-0.1053944,-0.0880725756,-0.141133383,-0.20299378,0.107972637,0.103114247,-0.123101,0.111994676,-0.198663116,-0.02756202],[0.0153592015,-0.0443688259,0.1411804,0.04432657,0.137739837,-0.123564094,0.0547483936,0.03635129,0.0411904342,0.0189489461,-0.08368329,-0.13451162,0.4078721,0.0535280332,-0.06124422,-0.121521622,0.176363975,-0.199745089,0.1213227,-0.07565596,0.0563432425,-0.0281100348,-0.03411841,-0.205983892,-0.0466875136,0.105011359,0.231490836,0.104554459,0.1955031,-0.140489966,0.14113082,0.007843152,-0.0252680611,-0.0308024138,0.124793462,-0.00277233124,-0.3817271,-0.0812287554,0.139308691,0.0592296645,-0.009655506,0.139955476,-0.114436738,-0.04117631,-0.268919021,-0.0283106379,0.165917933,-0.101278409,0.06828821,0.08943258,-0.245783225,0.0343593843,-0.143533081,0.07171376,0.14643912,-0.200142056,-0.06246883,0.145613566,-0.0950181,-0.04093032,0.0462331958,0.134991169,-0.04417335,0.07277021,0.03778749,-0.0613970272,-0.009567962,0.126982048,0.189106539,0.0317838676,0.012233343,0.036715135,-0.29717055,-0.0732184947,-0.16551137,0.0421517827,0.218757421,-0.128478259,0.0112730144,-0.0165117346,-0.004315728,0.0256408174,-0.2144493,-0.219834551,-0.2538611,-0.12492191,-0.019856371,0.0746134,-0.0444783941,-0.07947201,0.116606347,-0.114135481,0.2581324,0.0122043481,0.0699667,-0.09879352,0.002549514,0.0741011351,0.0568957329,-0.0403032564,0.1685849,0.119971521,-0.0550926924,0.141105875,-0.160997882,-0.0416948237,-0.135170087,-0.1634254,-0.031995032,0.248546809,0.2701921,0.205467284,-0.180457979,-0.179851785,-0.08547334,0.113215879,-0.1298189,-0.194284782,0.104075894,-0.137616441,-0.147489741,0.206424013,0.12666811,-0.08675634,-0.106418796,0.1400614,-0.0172297,0.230178,-0.104969352,-0.113344409,0.0274694767,-0.162550271,-0.1369415,-0.0213921517],[0.104611933,0.08462695,-0.24965106,0.09511686,-0.302627325,0.110863581,0.107222989,0.0398262,0.104045123,0.0465844534,0.0475283265,0.191356063,0.21126923,0.0335104764,-0.116443105,0.132582083,0.329941273,-0.0434990525,0.292765945,-0.09936716,-0.15197815,0.374255747,-0.178778976,0.0570533425,0.257062167,0.0457088947,0.05908753,0.195926353,0.32067883,-0.133825511,-0.193323329,-0.252048582,-0.0181211922,-0.04987812,-0.252358049,-0.280470222,0.534769833,-0.06427679,-0.196080819,-0.3767997,0.223219752,-0.267865121,-0.35077256,-0.246956468,0.08213471,-0.189036414,-0.296686023,-0.170088947,-0.223125055,-0.0240893736,0.0891129,0.07448642,-0.210100159,-0.0827889,0.109519474,0.008453191,-0.190764442,0.0511200055,-0.0669866949,-0.157454446,-0.0322248749,-0.151828945,-0.0500842854,-0.188352764,-0.008163344,-0.0602780953,-0.0247717649,0.044918105,0.0978483558,0.381651163,0.146443665,0.378742456,0.108326532,-0.196482778,-0.0642351,0.447973132,0.108389653,-0.06438332,0.178862423,0.0692665,0.182053179,-0.059973523,0.03909118,0.1651702,-0.0139273806,0.059205398,0.2831391,0.410862952,-0.198183611,-0.08127748,-0.0536306,0.218215033,-0.009848336,-0.0470497757,0.4891417,0.200166926,0.275412351,-0.03373033,0.1487111,0.0801655948,0.161049008,0.387757152,-0.004293006,-0.1852024,0.0281928424,-0.357748449,-0.258239836,-0.7023562,-0.110508591,0.09269658,-0.122495785,-0.404237568,0.0134257255,-0.473691434,-0.184838235,-0.13574639,0.144437015,0.2674208,0.16524142,0.08675658,-0.0396161675,0.0303770881,0.00707566,0.218821526,0.161708072,0.100148566,-0.0840596,-0.074468106,-0.400371671,0.110990942,0.08527589,-0.145343319,-0.108098775,0.0723039359],[0.1389296,0.05738729,-0.139844179,-0.01974459,-0.0422621,-0.189403623,0.186097831,0.06892796,0.0130431075,-0.281971455,0.0604797974,0.4631601,-0.318763256,0.0352783129,0.15299052,-0.2206745,0.0496974438,-0.163413361,0.0326746181,0.2836969,-0.130462065,0.03234645,-0.222480416,-0.00546904141,-0.06118162,-0.09927509,0.08663314,0.0287069436,-0.149117976,-0.128054708,-0.148806915,-0.0534824021,0.03216619,-0.03638535,0.01399635,0.117057972,-0.138515756,-0.180071488,-0.07930723,-0.300499648,-0.06742878,0.217856273,-0.2532255,0.122695051,-0.0373947471,-0.0530403778,-0.0957725644,0.228161052,-0.080790095,-0.07334605,0.0563700646,-0.00020814786,-0.09172697,0.6153462,0.0284676664,0.145276874,-0.0446041971,0.0354466476,0.312011421,-0.165048167,0.368875623,0.2592773,0.07133467,-0.185208648,0.06588262,-0.07329282,-0.002298757,0.09676518,-0.0671721846,-0.1941971,-0.306928962,-0.285160482,0.0270011947,-0.2298732,0.08870695,0.0886895061,0.07670383,0.207364038,-0.02087164,0.233394325,0.159704208,-0.078411445,0.0100562377,0.365806371,0.224605739,0.267530382,-0.0626167655,-0.04444361,0.0746496,0.5674448,0.2521441,0.073869735,0.0492563248,0.0199735723,-0.0550596975,0.07942898,-0.228481069,0.03198151,-0.07624583,0.0383249968,-0.00108543714,0.218418,0.06703733,0.0667108446,0.11161112,0.1060801,-0.0393869542,-0.264444768,-0.230722338,0.126646429,0.3356514,0.155959681,-0.0138476249,0.159403,-0.05089985,0.129370958,-0.0278979447,-0.238511413,0.1692898,-0.08589923,0.07064961,-0.09214195,-0.04827753,0.0194748063,0.07155887,0.182386041,-0.00581732625,-0.0769318044,-0.09930472,0.159532532,-0.01623707,0.124673933,0.2876553,0.145434752],[-0.242446467,0.06083094,0.07452914,0.08486822,-0.15827,0.04021446,0.06602371,-0.11399018,0.289074749,0.296644628,-0.00389015768,0.0908542648,0.07844502,-0.128210545,0.2069734,-0.0879807,-0.123500846,0.177475825,-0.292930841,0.361787349,0.08587857,0.40738818,0.051335182,-0.4390712,0.07672147,-0.0985706449,-0.142318159,-0.022958599,-0.123598315,0.254195452,-0.24045141,-0.197283879,0.01876098,-0.0114428252,-0.0302179325,0.0818331838,-0.293134332,-0.1465186,-0.240305632,0.4330187,0.368347824,0.150452167,-0.236615077,0.0338312946,0.08623471,0.273739159,0.113043286,0.07748375,0.344868124,0.04922807,0.6513974,0.3022852,0.0212508217,0.6956006,0.0703778639,0.373706847,0.131067723,0.0952768,-0.280297071,-0.187459886,-0.2851716,0.0977114439,-0.25134024,-0.08641979,-0.07135985,-0.0253697615,0.0412498973,-0.127674818,-0.0311532225,-0.07958305,0.0369376726,0.0957647562,-0.1041358,-0.118276231,0.128613949,0.2266288,-0.0529415868,0.04153404,0.0909156,0.09001107,-0.32260555,-0.0469435565,-0.004092766,-0.174067646,-0.09354521,-0.154577941,0.0111086033,-0.12392921,-0.169194862,-0.238398015,0.0744741559,0.182742536,-0.00180830073,0.0873046741,-0.211460918,-0.00201189867,0.240367115,-0.221656218,0.179694682,-0.1135091,0.2436483,0.412666231,-0.09197199,0.2750651,0.0458938442,-0.014271507,-0.25100857,-0.130630061,0.133725792,0.0235133655,0.2620015,0.0531670079,-0.180565909,0.213165581,0.305286735,-0.005292433,-0.115624413,0.2453212,0.219486624,-0.0460178,0.041007556,0.159734249,-0.00907367747,0.126449063,0.6834471,0.219164416,0.312820733,0.00557239447,-0.05074981,0.36313647,0.265399873,0.0193526428,0.126853421,-0.2919992],[-0.143677473,-0.208755329,0.0172816869,-0.167919174,-0.0514194965,-0.228472531,0.091833584,0.07168443,0.190597475,0.114222422,0.279985636,-0.190745011,0.1569938,-0.199177489,-0.252159953,-0.03891621,-0.2071531,-0.179987133,-0.0250298083,0.00407857355,0.101358771,0.08049387,0.0354607,0.3474079,-0.107324608,0.2133582,-0.181456476,0.05481533,-0.274391532,-0.2472913,0.06424241,0.209383845,0.252836078,-8.1107115E-05,-0.0261786263,0.215281844,0.106508322,0.066869,-0.008785967,0.227404654,-0.103075743,-0.188745424,0.238889828,-0.0434755273,0.2777911,-0.167567909,0.08434907,0.142069787,-0.06716091,-0.007937517,0.2070982,0.052081015,-0.215163425,-0.104966268,0.05480971,-0.00131492387,-0.0008244367,0.0100463955,0.1405663,0.0144836372,-0.354617417,-0.005814606,0.0215089489,-0.176672444,0.2124583,-0.09724401,0.040181648,0.108758979,0.217542738,-0.0241533387,-0.2453673,0.051610332,-0.225957677,-0.260434747,-0.0362387076,-0.0426752567,-0.0208918266,0.0903525651,-0.3508686,-0.07348221,-0.154995769,-0.272148728,0.0170828681,-0.131697387,-0.14537096,0.234955519,0.164345488,-0.328068316,-0.01855019,0.07958837,-0.04840206,0.05303773,-0.0844986,-0.0759630054,0.0993660837,-0.347964942,0.0365456156,0.120068505,0.04816525,0.232815847,-0.0398282781,0.6753657,0.08265391,-0.0403772928,0.101264983,-0.1717464,-0.0489479974,-0.409631461,0.07019538,-0.112449452,0.0409946926,-0.105117805,-0.1330328,0.124063522,0.03142388,-0.2697804,-0.08482325,0.180287614,0.10153012,-0.0632719,0.03619659,-0.06301692,-0.0183797963,0.08772671,0.1912429,-0.02653589,-0.0297872089,0.04097171,-0.0343872458,-0.168907374,-0.07636189,-0.298264652,-0.109097533,0.09982631],[0.592444,-0.08631354,0.20600675,0.0706211552,-0.1948168,-0.0143894395,-0.175274938,-0.08686394,0.06884041,0.01733094,-0.14605996,-0.104251541,-0.19567889,-0.0101859774,-0.3196062,-0.0248691253,-0.04577464,-0.000474231376,0.402859032,-0.374064833,-0.343274474,-0.1399365,0.1548635,0.0336995646,-0.129831627,0.245868653,0.4749507,-0.31841144,-0.200703278,0.194560885,0.191947356,-0.0155254425,-0.00566363567,-0.09520085,-0.202614591,0.122558706,-0.294655323,0.207513228,0.104857311,-0.2730166,-0.269681036,-0.167767569,-0.120304592,-0.1106876,-0.3097617,-0.00074941857,-0.0288011134,0.163102955,0.0105785262,-0.0862621441,-0.117573224,-0.249083459,0.225345463,0.170320854,0.0443815328,-0.03323404,-0.09876106,-0.0379192047,-0.151584268,0.0132843219,0.0565030873,-0.211287782,-0.105018087,-0.0812568,0.043934878,0.153048173,-0.0724580139,-0.175450638,0.167061746,0.07174162,0.09741086,-0.0463780053,-0.08378909,0.119820975,-0.140611991,0.008800436,0.05037477,-0.08080726,-0.262592524,-0.0604704767,-0.2743883,-0.248702347,-0.0506823249,0.102977686,0.0425266922,0.132892177,0.173615366,0.168895781,0.232603312,0.130981177,-0.110846072,0.2516956,-0.0302766,0.136018142,0.0071946783,0.187789083,0.275229454,0.128952622,0.1915753,0.192421168,-0.08538439,-0.468728483,0.139430925,0.00766187161,0.0521346666,-0.224972233,-0.007219441,-0.171971813,-0.114412338,-0.0429687873,-0.1416651,0.0554350838,0.02647169,0.14395003,-0.0181451365,-0.00158425083,-0.237825841,0.07908366,-0.06348255,-0.0742512941,-0.0459942222,-9.09596638E-05,0.1834324,-0.221210316,-0.0296237543,0.145404339,-0.142736524,0.17131716,0.2046588,0.09319971,0.145421237,0.0943488,0.0529503636,-0.0767046],[0.08398428,-0.07785151,0.46105,-0.14186506,-0.497496933,0.0469231643,0.07517127,0.236834541,0.0469535477,0.04539715,-0.157701224,-0.0561000928,-0.0881072,-0.1060576,0.0871034041,0.01740181,-0.028249627,-0.2676025,-0.09513929,0.06477617,0.004377474,-0.06090109,0.06580858,-0.197757661,-0.07298238,-0.3234594,0.00481952634,0.0623734333,0.06965897,-0.101564907,0.0158531386,0.10441412,0.09606576,-0.2164516,0.003982662,0.110034458,-0.10059531,-0.188059628,0.105356157,-0.07145211,-0.0261621475,-0.0442410633,-0.2540348,0.0331083052,0.144171342,-0.0595814921,-0.170743763,0.1611412,0.4572051,0.289346576,0.160338923,0.148195967,0.0930371657,0.140778929,0.04070971,-0.143164709,0.280448228,0.06803413,-0.12292482,0.09085377,-0.165441141,0.0848477259,0.000210621089,-0.05322622,-0.185407609,-0.1333436,0.373133153,0.09349559,0.263804883,0.138118967,0.02652817,-0.03793149,0.0409084335,-0.12390542,0.0535324626,-0.0196509752,-0.20535256,0.207474157,-0.0174188521,-0.05748078,0.0648160055,0.0227739066,0.244485646,0.025673449,-0.1796684,0.0346464,0.122914463,0.007121743,-0.0598283149,0.08795057,-0.242841318,0.0219928827,0.107893854,-0.067457214,-0.009898915,-0.279977649,-0.00540652,-0.11186026,-0.106471382,-0.3680318,0.146140128,0.606391847,0.293664336,0.2746055,-0.0191192068,-0.0369403325,0.15824829,0.146826565,-0.105376184,-0.0440044664,0.06587849,-0.103720814,-0.12695536,-0.08303572,0.244855627,0.150834128,0.14707,0.131898522,0.166496158,-0.07646849,-0.06796019,0.05550428,-0.203105941,0.08948019,0.04175182,0.08471738,-0.0844635,0.03396933,-0.21312958,0.07938091,-0.199852109,0.0435462147,-0.138866782,-0.304579347],[-0.07358244,0.04312955,-0.0937349349,0.0608214252,-0.0102977371,0.236094192,0.184288234,-0.08706139,0.03997552,0.1657287,0.03533651,0.0588864423,0.16974844,0.135314524,0.13500981,0.0178186446,0.00832254253,-0.09872644,0.470150232,-0.05680141,0.0718997,-0.0527056269,-0.19053258,0.0719812,-0.236153319,0.0629005358,-0.188522547,0.0463507473,0.168414861,0.0490466841,0.05557877,0.123726666,-0.272678375,-0.07599765,0.235016331,0.0779199749,0.0270749778,0.135428116,-0.193494275,0.266310543,-0.177285492,0.2862064,-0.119862489,-0.154514492,0.159504861,-0.146275818,0.113267079,0.09280386,0.2544657,0.193951666,-0.183548048,0.17110005,-0.190765783,-0.179681361,-0.211603582,0.172542408,-0.1405202,-0.12984024,-0.012741508,-0.08613637,-0.185656875,-0.0318126269,0.0164316371,-0.160973117,-0.2046194,-0.328822047,-0.0059917653,0.196362,0.314960539,0.04706178,0.228299275,0.2716799,-0.1429881,0.198029488,0.0492652953,-0.0850153,0.2569679,0.198522821,-0.04499459,-0.243315727,0.5230641,0.127781361,0.28835234,-0.00106339436,0.0463139676,-0.232209951,0.332910448,0.115054131,0.0715118051,-0.156896457,-0.2713054,0.0363016836,-0.09987755,0.243033737,0.0433567241,0.111861266,0.197740078,-0.02397638,-0.08871117,-0.107667804,-0.152357891,-0.0357190333,-0.0256456938,0.004047252,0.0465167537,-0.200064719,0.108773448,-0.0301749017,0.258036464,-0.06676592,0.1002713,0.04800868,0.151294529,0.0198101569,0.166002944,0.11241246,-0.08690952,-0.106814466,0.140289173,-0.174364373,0.16559498,-0.238971114,0.0930404142,0.214984059,0.4437083,0.0763739347,0.132577613,-0.01924654,0.0987262353,0.4027455,0.0853754,0.246878818,0.1694704,-0.30527243],[0.575765431,-0.146330789,0.06742067,0.106012039,-0.0545719825,-0.141917974,0.0523674451,0.0415153764,-0.0243326165,-0.113532074,0.281755865,-0.0310734864,-0.114975415,-0.1018078,-0.0558888,-0.288921177,0.311859816,0.0468190238,-0.5460186,0.109092213,-0.0349117927,-0.2794382,0.0285258442,0.06562394,0.3245317,-0.132137656,-0.201086819,0.0825056955,-0.296298653,-0.316921234,-0.204515353,-0.07771276,0.200044036,0.2848538,-0.143950358,-0.281808823,0.4278363,-0.1057398,-0.133058548,0.221046,0.327631533,0.216183186,-0.175274521,0.052799236,-0.0104705235,0.1032969,-0.140029475,0.08746589,0.0814684555,-0.271542877,0.246143878,-0.129855871,-0.08614844,-0.464635044,-0.09983485,-0.06990674,0.176665246,0.155014127,0.321916,0.5389519,0.224484861,0.257186741,0.0521561466,0.213801861,0.221504763,0.1418043,0.15711616,0.177280262,0.300061226,0.228509948,0.24595286,0.4789387,0.356493622,0.369336069,0.207165167,0.026568016,-0.0203197617,-0.372683048,-0.0415097363,-0.238172472,0.145672813,-0.0214520842,0.115816124,-0.10783945,0.05384664,-0.0855924562,-0.102885306,0.0625567958,-0.247118831,-0.087749064,-0.354069948,-0.125875786,-0.251616657,0.1912172,-0.09870624,-0.0110230288,0.04836549,-0.114243552,-0.04532881,0.0595397055,-0.01512289,0.21823591,-0.0113792447,0.09764168,0.13030538,-0.148001477,0.0621488281,-0.173003554,-0.2577589,-0.0188401155,0.0141629623,-0.0445123762,-0.05837804,-0.0263156053,0.215388849,-0.215423808,0.1660117,0.112828508,-0.187109336,0.250813723,0.144062385,-0.170799792,0.279890984,-0.239748448,0.07199429,-0.1418271,0.098571986,-0.0723110959,0.06777927,-0.08913231,-0.0483254977,-0.227700114,0.07372934,-0.20688051],[0.6412582,-0.131224453,0.175390661,0.06294494,0.3418072,-0.215868711,-0.15200226,0.0134064527,0.05532704,-0.0468363166,0.0578275546,0.307954729,-0.0486971922,0.128437161,0.3580321,-0.04118475,-0.35676837,0.117755391,-0.231146336,0.0780793,-0.107803442,-0.146424726,-0.0491979867,0.07181527,-0.299982816,0.214314342,0.1412029,0.325944453,-0.114098288,0.184163287,-0.07012629,0.0430516936,0.215942442,0.06310355,-0.004752061,0.4570985,-0.208107084,-0.112190567,-0.0789533,-0.16956678,0.231521055,-0.0512407571,-0.102519922,-0.1421417,0.0123874452,0.091881305,0.0199541021,-0.0431563854,0.1264928,0.03160408,-0.03889669,-0.0448089167,-0.197464675,-0.299701452,0.0467975028,0.187992662,-0.0304501373,0.437002867,-0.165634826,-0.1438748,0.131969109,-0.171417117,0.0635450557,-0.01665874,0.007688366,-0.054686524,-0.04378914,-0.1654253,0.182698682,-0.5228789,-0.248767138,-0.00598588958,0.017358752,0.0301448982,0.0535064079,0.160335645,-0.1253916,-0.1129129,0.317859381,-0.188963875,-0.07946144,-0.0374655537,0.0261594541,0.07315033,-0.0385797136,0.08011037,0.02499343,0.1466079,-0.427479237,0.063174814,0.311551958,0.6534534,0.290734649,0.115821272,-0.009727146,0.168595254,0.187217817,0.217300862,0.0536072329,0.28437826,-0.146959126,-0.214875072,-0.06271964,0.02800081,-0.169737935,-0.250027925,0.099839665,0.310414046,-0.3053743,0.288735718,-0.0507436171,0.0386138819,-0.0320813656,0.190977335,-0.33534646,0.00324211316,-0.09991093,-0.175454259,0.0618118346,-0.103323348,0.0161607154,0.105804808,0.0293143559,0.241230324,0.35914138,0.03449011,0.129349947,-0.0432725,0.03163846,-0.196215913,-0.1384991,-0.237556621,0.119874492,0.5997799],[0.282489628,0.105886623,-0.150335088,0.026590405,-0.07005989,-0.245158941,0.2502998,-0.167951986,-0.05136687,0.307427883,0.0154198129,0.06487809,-0.14881137,-0.043865487,-0.14838542,-0.186001033,-0.143040165,-0.135568246,-0.452698678,0.0617199875,0.0880829245,0.3978956,0.11164514,-0.2489658,0.1669896,0.127708688,0.09949354,-0.113115966,-0.008548535,0.0546237566,0.07764115,0.0525589027,-0.0570527241,-0.211507425,0.222753674,-0.129692689,0.145359263,-0.09301119,-0.0373194963,0.0969220251,0.0188024361,0.178789869,-0.05838814,-0.05327177,0.18566063,0.249092087,0.214527309,-0.08496201,0.354777575,0.1385048,0.07377578,0.380539864,0.307771623,0.0360550247,-0.27976194,0.0302421767,-0.230588242,-0.06607812,-0.255533338,-0.386681348,0.036679253,-0.107852116,0.07782341,0.181977734,0.214929938,0.015208004,0.191896871,0.008097968,0.0110660624,-0.206776619,0.0498754568,0.113046557,-0.134245664,-0.137747437,-0.222140446,-0.0502641052,-0.16165188,-0.168364808,0.0343230553,0.229479417,-0.349624485,-0.0221573729,0.09045467,-0.08364225,0.132483035,-0.0480508134,0.0528416857,-0.138632268,0.0619577579,-0.0446849354,-0.277569979,-0.16460368,-0.121153817,-0.00502914563,-0.188914508,-0.006969955,0.03902235,-0.252744,-0.11855071,-0.2923078,-0.0601752,-0.4722042,-0.14255093,-0.0547826,0.0245396644,0.0165677071,0.1534465,-0.0875613242,0.092542544,-0.214387938,-0.00680959644,0.0101059368,0.123782359,-0.196855009,-0.04842295,-0.05051333,-0.07673773,0.243221849,0.105068006,-0.296364754,-0.113540962,0.277549148,0.0187062733,-0.23774302,-0.007914849,-0.06785639,-0.113084994,-0.108184785,-0.164764,-0.219483882,-0.31682533,-0.0156360045,0.118548192,0.410888076],[-0.291944772,-0.11863935,-0.0350037329,0.052324675,-0.03979029,-0.120300613,0.100082964,0.09086137,-0.06617415,0.154888809,0.1480848,-0.06677999,-0.125708,0.145498589,-0.162470981,0.0250037163,-0.0119768828,-0.0413382649,0.21337907,0.05092071,0.030841589,0.07100668,0.0361947641,0.07932202,-0.151414484,0.136279553,0.17269668,0.09675198,0.11606665,0.0305077732,-0.13989079,-0.01934714,0.07652383,-0.186516732,-0.134251386,0.014697032,0.124747358,-0.187429145,0.211265758,-0.1513929,-0.030183,-0.161726981,0.0514587872,0.06027014,0.003075516,-0.0999768153,-0.198056,0.0283995755,-0.14387171,0.105710812,0.0175861437,0.150166914,0.0126779424,-0.14660053,0.134834245,-0.0150686214,-0.13412331,0.154453918,0.163210019,-0.136182442,0.13607493,-0.0511448756,0.09983183,-0.0267143268,